tree
version=v3
num_class=1
num_tree_per_iteration=1
label_index=0
max_feature_idx=1
objective=regression
feature_names=s t
feature_infos=[2:960978816] [40:994753856]
tree_sizes=700 734 730 734 733 728 733 732 733 733 734 732 737 734 736 734 736 734 732 736 736 735 736 736 732 736 731 733 734 734 729 735 736 731 733 735 733 734 734 734 732 732 734 730 735 735 734 734 732 734 730 733 730 733 731 735 734 731 734 728 734 731 734 733 734 734 733 733 731 732 734 731 731 735 732 731 736 732 735 731 729 730 733 731 735 728 734 731 735 733 733 729 734 733 736 731 732 731 735 737 737 735 737 735 733 737 733 736 733 736 734 737 736 733 737 731 735 733 734 731 736 737 736 733 733 734 734 733 736 738 733 735 736 735 736 731 734 737 733 735 734 732 734 736 735 734 737 730 737 732 736 734 736 730 733 736 736 736 733 735 734 736 735 734 736 735 737 734 737 731 736 733 736 738 735 733 736 733 738 736 735 733 736 735 733 733 732 737 733 734 735 735 736 735 735 732 735 733 736 735 735 737 734 731 735 736 735 737 735 730 735 736 736 738 735 735 736 735 735 736 733 734 734 736 736 738 735 737 733 735 734 736 732 734 735 735 736 735 737 734 733 736 732 735 737 734 734 735 737 736 733 734 736 732 738 736 729 735 735 735 737 735 734 735 736 736 738 734 736 734 735 736 735 735 735 733 735 736 731 733 738 734 736 736 735 737 734 732 734 735 736 734 736 735 733 736 734 737 734 738 734 734 736 734 734 736 733 738 736 732 734 735 733 735 737 734 737 736 736 736 736 734 733 733 736 734 735 736 735 731 733 735 733 733 736 736 733 735 736 736 737 735 732 735 733 735 733 732 732 737 735 732 732 735 734 734 731 731 736 735 735 736 733 736 732 736 732 738 734 734 735 735 735 731 734 732 732 735 735 733 735 735 734 734 735 732 736 733 733 735 734 732 735 735 732 732 736 732 733 732 736 732 734 735 731 734 736 734 733 736 732 733 735 734 733 735 733 732 735 735 735 730 735 732 736 735 733 734 731 736 733 733 733 733 735 733 735 733 733 733 734 733 733 729 733 737 732 733 734 734 732 733 732 732 733 734 733 731 734 732 733 733 731 735 734 734 732 732 736 734 734 733 734 736 733 734 732 736 733 734 732 735 734 728 733 732 737 729 735 731 734 733 734 735 732 735 732 734 736 732 732 735 731 736 733 733 735 736 733 734 733 733 732 736 733 736 734 734 732 733 733 734 730 736 737 727 735 733 734 737 728 733 735 733 732 733 733 735 735 733 731 737 728 731 733 734 735 735 732 731 731 733 734 735 732 733 732 734 734 733 735 730 735 736 732 733 735 736 733 732 735 732 734 735 733 735 733 734 732 731 734 736 729 732 734 735 737 737 730 734 734 734 736 734 737 737 734 737 731 736 737 736 732 736 734 731 735 736 733 735 735 736 735 734 735 734 735 738 735 735 732 736 735 733 734 736 730 736 734 736 733 736 734 731 735 732 734 733 737 734 732 734 736 734 732 736 735 735 734 734 734 733 730 734 736 737 735 734 736 733 731 736 735 735 731 730 735 734 734 737 737 735 735 732 737 735 735 733 734 737 735 733 734 737 737 733 733 735 731 734 736 734 735 734 735 732 733 734 735 733 734 729 734 734 734 736 735 735 731 736 734 733 736 732 734 735 731 735 736 734 736 736 733 733 735 734 735 735 734 736 735 732 734 737 730 731 734 737 733 734 731 735 735 733 734 736 733 732 734 737 735 735 734 735 735 733 732 732 736 734 735 734 734 736 733 732 736 732 733 735 734 736 730 730 737 734 735 731 736 735 734 735 735 734 730 736 734 736 734 734 735 735 736 734 734 735 734 734 736 732 732 734 734 737 733 733 734 731 735 735 735 737 734 732 736 734 736 735 733 734 734 737 735 734 732 732 731 732 731 734 733 736 734 730 735 736 735 735 735 734 735 732 736 734 735 736 735 733 734 735 734 733 735 734 735 735 734 735 736 735 735 736 735 733 735 735 734 737 733 736 736 735 736 733 733 734 735 735 735 735 734 735 735 736 736 736 733 737 736 736 733 736 735 736 734 735 736 733 734 736 734 735 733 733 732 731 733 731 735 734 735 731 733 734 733 735 733 735 735 734 732 731 735 735 736 736 733 734 736 733 731 731 733 736 732 735 730 735 731 732 737 733 737 736 736 734 731 735 735 734 737 732 730 733 733 734 735 734 734 737 734 734 732 734 736 733 731 735 732 734 735 734 732 735 733 736 735 735 732 734 737 734 732 734 736 734 733 735 735 734 732 735 733 734 734 734 734 733 733 736 734 728 737 732 737 736 738 733 736 735 734 733 735 733 735 737 734 735 734 733 735 732 735 735 735 736 734 733 737 732 733 735 736 734 738 735 734 735 734 734 736 730 738 735 733 734 735 736 736 734 735 734 735 737 737 735 735 733 737 736 736 735 733 736 734 735 735 734 736 735 736 736 736 735 736 735 738 736 735 734 732 732 733 736 738 735 732 735 734 736 735 735 733 735 734 734 735 736 735 737 734 734 737 730 737 734 735 735 735 735 735 736 737 735 734 735 736 737 737 730 734 735 732 735 736 734 730 737 734 737 733 734 735 733 737 732 735 735 733 732 733 734 737 738 733 734 735 736 734 733 736 733 736 737 735 736 735 734 736 733 736 736 732 735 736 736 734 735 735 735 735 729 736 736 736 736 733 734 734 735 736 736 736 735 736 737 736 735 736 731 736 735 732 736 732 735 734 731 734 736 732 736 732 736 733 732 734 736 732 738 734 736 732 734 736 735 736 732 736 732 736 734 736 733 732 735 734 736 732 738 731 735 735 734 735 732 734 733 734 736 735 735 735 734 736 737 730 735 736 732 734 735 734 736 732 734 735 732 735 732 736 734 736 735 734 734 733 736 732 736 733 733 735 737 736 734 733 734 735 733 737 731 735 736 733 735 735 734 735 730 737 735 735 733 731 736 736 736 733 734 734 737 734 733 736 736 733 735 735 735 731 735 735 734 734 735 736 734 734 730 736 734 734 735 731 733 732 734 736 734 736 731 735 734 734 736 736 735 734 733 735 734 734 735 734 736 734 733 735 736 732 735 735 736 735 737 734 736 735 736 736 737 736 736 735 732 737 734 736 735 735 738 734 735 736 736 735 734 736 733 733 735 734 736 735 732 732 733 735 735 733 737 735 734 735 735 736 734 730 736 733 734 736 736 737 735 734 735 734 735 734 736 734 734 736 735 735 732 734 734 735 736 728 736 737 736 732 735 735 733 735 734 732 736 736 732 733 736 734 731 735 731 736 732 734 734 734 733 733 734 734 734 736 734 731 733 735 732 732 736 737 733 735 734 734 735 737 735 729 734 730 735 736 736 736 732 729 734 733 734 734 735 736 736 735 733 736 734 735 736 737 733 735 735 733 729 733 736 727 733 730 733 735 736 728 735 735 731 733 735 729 734 734 728 734 734 733 734 738 732 732 730 735 733 735 733 733 734 729 734 729 735 732 732 732 736 733 730 730 733 730 736 730 734 733 730 732 735 735 736 737 735 733 733 736 736 736 736 736 736 736 735 731 736 736 738 733 735 736 735 731 736 736 730 732 735 735 733 734 735 736 733 734 737 728 732 735 734 736 733 730 736 734 731 735 736 735 735 734 736 736 735 733 732 735 733 735 727 733 734 733 732 735 737 734 735 733 735 734 733 734 735 734 730 737 734 733 736 735 734 734 726 735 733 732 734 735 734 735 735 735 737 736 735 736 734 735 736 735 735 732 735 735 734 736 735 734 734 734 733 735 734 735 734 730 734 735 736 737 734 735 735 735 733 734 734 736 734 735 732 737 732 734 736 733 735 736 733 734 731 734 732 736 735 730 732 731 734 729 731 733 737 732 734 733 731 737 736 730 733 730 735 732 735 731 732 731 730 734 730 735 732 730 734 735 732 735 731 734 737 733 730 734 736 724 734 736 735 732 731 732 733 735 734 732 729 735 735 736 733 734 734 733 732 734 734 736 728 734 731 736 735 733 735 733 733 730 734 733 736 732 735 735 731 734 735 736 733 729 730 733 734 734 732 730 731 733 733 730 735 734 734 735 732 735 734 735 731 734 735 735 728 733 734 736 734 733 734 734 734 734 732 731 734 736 735 735 735 736 732 734 734 734 733 736 736 734 735 735 734 733 736 736 731 733 734 734 732 736 734 729 731 735 733 730 734 734 735 735 735 735 730 732 734 734 736 733 736 735 735 735 735 731 730 732 735 733 734 736 726 732 731 733 729 733 735 735 734 732 735 735 733 733 728 735 735 734 728 735 733 736 730 732 736 734 735 735 733 728 734 736 735 734 735 732 733 728 734 733 734 731 730 732 734 734 735 735 734 734 735 732 731 731 726 734 736 732 734 734 729 734 728 735 734 735 736 734 734 734 731 734 736 734 735 735 736 732 736 728 735 735 731 731 732 733 734 733 734 732 733 735 733 735 736 728 735 733 734 733 735 730 734 732 735 735 734 735 736 733 733 733 736 734 735 735 734 731 736 729 735 733 731 728 731 729 736 736 732 732 735 734 735 735 735 732 733 731 732 728 733 735 733 733 734 734 728 734 732 734 735 734 733 731 734 735 734 731 732 729 732 729 731 733 733 727 726 732 736 730 730 731 728 732 731 736 729 733 734 727 734 735 734 733 732 734 735 735 735 735 731 735 735 735 728 732 736 733 734 734 735 734 730 733 735 733 733 730 732 732 734 734 735 736 732 735 736 729 730 733 733 733 736 734 733 735 735 736 733 736 736 730 732 734 735 735 736 736 734 732 735 731 731 735 734 731 732 733 736 731 736 733 735 731 731 735 734 734 735 732 730 729 728 735 735 733 733 735 734 735 733 733 735 734 734 729 734 730 735 735 732 735 730 735 732 735 733 734 736 736 734 736 727 731 731 730 735 730 730 727 731 735 735 734 735 728 735 731 736 733 727 729 730 736 730 734 728 736 735 734 736 730 734 730 730 731 735 730 734 734 736 731 735 734 731 735 731 733 727 728 730 734 726 733 723 730 734 734 726 728 734 723 735 727 729 728 724 730 734 729 729 733 727 728 732 727 729 733 724 729 727 731 735 725 731 736 725 730 731 729 731 726 726 729 733 730 733 730 729 734 730 736 730 731 730 736 728 729 729 730 728 731 727 731 736 730 729 730 730 727 734 727 730 735 730 731 736 724 729 731 735 730 727 728 735 728 727 734 730 728 733 733 729 735 729 730 734 734 731 731 736 730 730 731 733 730 729 732 734 735 725 734 735 732 728 732 734 732 734 729 726 729 728 734 735 734 729 732 733 733 736 733 735 727 727 733 727 730 735 727 729 732 733 726 731 735 727 733 735 735 727 726 735 733 728 729 726 736 735 734 731 732 732 734 736 733 732 731 729 730 729 727 735 732 735 736 727 727 733 731 733 729 734 735 735 732 736 730 734 728 726 730 735 730 730 733 736 728 730 736 731 727 735 727 729 731 733 732 731 736 729 734 734 735 728 733 734 736 730 731 735 733 726 731 725 733 733 732 736 731 735 731 735 735 733 732 734 728 730 728 736 730 733 728 726 735 730 721 734 726 726 729 727 731 734 727 729 727 725 734 728 729 727 729 729 731 733 729 726 733 734 731 731 735 735 732 728 725 736 727 725 727 736 734 732 732 735 728 734 728 730 736 733 728 734 732 727 726 736 730 724 733 729 728 733 732 731 733 734 727 729 735 728 733 733 725 732 735 728 726 732 734 732 733 730 734 732 733 733 722 728 733 730 729 733 732 734 728 726 734 727 727 723 736 734 728 735 727 731 733 736 730 731 733 729 725 729 726 727 733 728 731 732 732 736 728 726 729 735 733 733 734 735 729 734 732 734 728 730 723 733 730 727 731 734 732 734 731 728 733 735 727 736 730 727 724 730 736 734 734 732 726 729 725 734 734 735 723 732 732 733 734 734 725 728 725 731 734 729 724 727 733 732 735 726 733 731 727 725 731 726 729 726 733 734 732 732 730 735 736 732 733 723 728 727 727 734 729 730 735 724 735 733 734 733 733 729 725 726 733 731 735 730 733 722 732 733 736 731 729 726 722 726 726 728 729 732 733 726 733 733 730 733 730 735 732 729 724 731 727 720 724 733 736 734 734 725 724 735 734 734 727 727 728 736 735 733 729 725 726 731 725 723 724 730 725 734 733 726 733 731 730 733 733 733 728 726 730 727 725 729 731 734 726 726 734 729 723 726 727 723 734 731 728 727 727 731 727 727 727 734 734 732 731 727 723 736 734 734 726 725 722 736 728 735 732 724 729 734 734 732 726 729 727 727 727 724 734 733 723 735 736 733 721 731 730 726 725 725 730 727 733 735 733 733 733 729 725 733 734 726 724 730 725 731 733 733 734 730 726 727 723 734 729 724 734 720 730 726 727 735 734 733 724 735 733 733 731 735 731 733 733 726 727 726 732 733 724 731 730 724 725 726 732 734 733 730 720 726 736 734 735 734 728 724 727 735 734 724 731 730 727 734 735 731 726 730 733 734 729 727 726 726 725 724 732 732 729 732 735 731 734 722 729 727 732 729 726 734 734 733 726 728 724 722 731 730 726 734 728 732 735 720 729 724 733 733 732 725 732 728 725 729 735 733 723 728 727 733 729 725 734 728 727 725 728 722 733 728 724 727 734 725 731 730 736 729 727 726 734 732 725 733 731 734 725 733 733 731 723 725 729 724 734 727 736 733 723 732 724 726 734 730 724 734 728 734 725 728 726 722 729 733 725 727 723 723 729 723 725 731 726 725 733 729 727 724 727 727 728 726 733 735 728 722 724 731 723 727 726 728 725 733 729 724 727 733 732 729 731 730 725 724 735 732 731 729 723 724 731 732 735 729 722 725 736 728 725 724 728 725 735 731 730 727 726 735 733 727 726 733 733 731 725 729 724 723 733 730 725 733 732 733 729 722 722 734 724 728 726 735 725 736 725 727 723 734 733 733 734 735 729 725 726 723 736 732 724 727 732 732 726 736 734 729 723 735 724 724 734 726 723 732 729 720 724 735 731 733 736 729 726 725 733 735 734 732 732 734 719 733 732 728 725 732 726 725 727 732 730 721 724 726 732 727 725 725 724 724 732 724 727 726 733 728 725 731 726 723 725 732 733 734 729 726 720 729 727 731 736 733 728 723 732 733 731 726 735 727 726 726 732 729 724 734 727 731 727 736 734 733 727 726 725 730 736 734 733 730 725 723 726 736 728 720 734 728 727 732 736 734 725 727 724 731 730 723 733 733 723 734 735 734 732 733 725 729 725 726 729 727 731 728 736 725 729 726 723 728 727 733 733 725 736 732 733 718 729 726 733 734 736 730 726 719 725 732 729 725 734 723 727 723 731 735 733 734 728 723 727 726 730 733 721 733 733 732 728 723 721 725 726 734 734 726 729 726 726 732 736 722 731 735 733 722 728 732 731 735 726 723 735 727 723 730 735 731 727 721 732 726 726 727 725 733 733 730 733 721 732 736 734 732 733 725 729 725 732 726 724 726 725 734 731 723 727 726 733 732 734 734 727 722 730 725 733 728 725 723 724 733 727 724 732 726 727 722 733 728 727 723 734 728 727 726 735 729 726 725 730 733 729 720 735 727 731 726 723 721 736 726 733 729 724 732 727 721 723 724 725 726 727 726 721 731 730 732 727 726 725 734 730 734 722 730 726 732 729 730 722 734 732 727 725 726 724 733 732 733 727 719 723 726 731 724 727 729 729 732 732 736 726 728 722 734 733 729 721 732 731 727 725 724 734 733 730 723 733 734 734 732 734 722 725 736 722 733 726 724 725 732 731 727 730 724 733 736 723 727 723 736 731 734 730 726 725 734 727 724 732 732 730 721 730 726 734 732 730 725 730 721 722 733 731 734 734 728 722 722 734 727 727 727 730 732 734 731 732 725 729 720 731 728 726 720 726 734 728 727 724 733 734 730 720 724 732 732 726 731 727 721 733 728 726 726 728 724 733 728 725 735 733 729 724 726 722 734 727 727 736 723 732 721 723 727 735 725 727 727 733 731 731 732 733 730 722 729 733 731 721 733 733 731 734 734 726 730 722 733 735 735 723 727 725 733 733 734 730 727 723 722 734 732 736 725 727 722 725 734 731 732 731 732 728 723 733 733 728 721 724 732 732 734 726 733 729 723 731 726 725 733 723 735 727 727 725 734 730 720 735 732 725 721 720 732 733 729 722 726 731 733 729 722 725 735 732 729 723 723 733 733 732 731 726 728 721 733 731 732 721 729 727 733 729 731 730 724 728 722 726 725 730 728 733 721 726 730 730 722 736 732 729 721 727 723 723 734 729 723 732 726 721 731 730 727 728 724 723 732 734 733 732 723 729 734 731 734 729 719 731 733 724 728 722 735 730 729 725 725 717 728 727 733 734 734 732 723 735 730 726 720 732 730 733 733 731 734 723 729 721 733 725 723 735 734 731 721 735 731 732 725 728 721 723 735 734 727 719 726 729 729 731 722 734 733 735 733 730 720 724 728 725 734 732 721 733 733 723 730 725 726 724 734 729 734 734 723 734 728 722 736 731 730 729 721 726 730 727 733 730 720 734 734 731 723 731 733 730 723 733 731 722 725 732 734 733 732 733 719 727 734 735 723 731 727 732 724 721 732 735 732 729 732 732 721 727 722 729 722 732 728 724 735 731 733 723 724 723 734 731 733 733 732 721 735 734 721 727 725 732 732 733 734 735 733 729 720 719 728 724 724 733 733 734 732 734 722 729 723 722 731 730 734 732 723 734 732 733 732 725 736 734 722 729 722 734 732 731 721 723 736 732 729 733 731 734 720 728 733 724 721 727 729 723 737 734 728 733 729 722 727 734 729 722 729 726 731 728 724 736 733 730 721 723 728 724 727 724 732 730 724 724 731 726 722 731 731 730 722 734 734 721 727 722 733 731 731 731 734 732 727 723 733 734 728 727 721 735 723 726 732 731 732 724 735 727 725 726 733 734 732 723 732 729 733 734 722 733 736 721 734 731 727 735 732 735 734 732 733 723 737 733 724 731 722 726 721 734 734 733 734 736 726 721 727 732 727 723 723 727 733 730 735 736 720 731 724 721 735 728 723 729 723 735 733 732 733 733 728 736 721 732 727 723 728 724 734 734 737 731 734 733 735 729 722 723 731 736 728 724 733 733 733 734 732 736 728 723 723 736 727 721 735 734 731 735 734 724 737 722 733 736 734 733 731 723 734 733 735 733 724 733 736 728 733 727 722 729 725 720 735 723 735 727 724 725 735 731 734 728 724 738 723 733 728 722 726 725 736 732 734 728 724 738 725 727 725 733 731 733 724 728 723 734 733 731 733 735 736 729 724 733 735 736 731 724 724 734 736 733 731 736 736 734 737 722 728 724 736 735 728 733 733 725 725 735 730 725 728 725 737 736 735 733 726 734 732 731 723 737 735 735 723 735 734 734 733 734 734 733 733 732 724 728 731 727 734 724 727 733 729 721 735 733 729 725 727 722 733 723 729 725 732 727 731 733 731 733 736 725 730 724 734 730 722 725 734 736 736 736 735 736 732 736 736 736 728 724 727 723 735 737 736 730 735 735 733 729 734 733 737 735 736 723 736 735 735 732 736 720 737 733 725 733 731 723 733 734 730 736 734 734 739 727 737 732 736 735 730 736 734 735 730 736 724 732 729 735 732 731 736 735 736 722 736 735 736 736 720 735 728 729 736 733 736 737 735 727 738 734 735 736 735 727 737 731 736 736 735 732 729 733 733 735 732 735 733 731 736 733 731 736 735 729 736 735 733 727 729 736 733 727 733 722 728 733 730 728 736 736 729 736 733 736 735 729 736 737 736 731 731 730 736 737 733 732 735 735 728 736 734 730 735 733 725 736 733 733 734 730 737 737 735 729 736 735 731 736 736 729 735 734 729 735 734 734 732 735 736 734 728 739 734 731 736 727 736 734 731 736 735 728 736 731 737 734 732 731 735 733 729 738 732 734 737 728 734 731 737 733 737 730 737 736 728 734 734 731 729 734 733 733 735 726 737 733 730 738 729 733 732 727 733 734 731 727 738 737 735 732 730 731 737 731 737 735 723 736 737 733 729 734 736 727 735 732 734 737 729 736 735 730 736 730 735 730 735 727 734 732 730 736 735 731 736 734 732 729 730 729 734 729 735 736 729 736 734 732 733 730 736 728 729 734 732 729 733 728 733 729 733 730 733 737 729 734 730 731 728 734 731 736 736 729 731 734 733 735 729 734 731 736 736 730 736 727 734 730 734 732 735 731 735 731 731 730 735 735 730 735 734 730 736 733 733 722 737 731 733 730 735 736 730 731 735 730 732 731 736 733 731 735 731 736 732 736 729 734 736 732 737 730 730 732 733 732 730 730 735 734 729 735 731 735 735 727 734 730 732 736 731 729 730 725 732 731 731 733 733 724 728 729 729 726 727 732 734 737 735 732 734 732 736 736 730 732 737 729 733 731 731 730 735 733 734 734 733 731 735 735 731 733 730 732 730 735 729 734 734 731 732 732 729 726 732 731 730 725 735 732 734 736 733 734 732 733 729 732 731 731 737 733 734 734 734 730 730 732 734 733 735 732 734 736 729 731 736 732 732 733 732 736 734 732 732 734 732 734 734 732 729 732 730 730 726 732 733 734 736 733 734 733 726 736 736 731 732 734 734 735 734 735 736 732 730 732 732 733 735 732 733 733 736 731 734 737 734 734 730 734 733 731 735 733 733 735 735 734 732 737 731 735 731 738 738 732 736 734 736 732 732 732 732 737 726 733 733 733 730 734 731 733 733 731 737 734 729 734 731 736 731 736 729 735 737 732 736 732 732 726 736 726 736 734 737 729 734 734 734 734 730 726 733 737 730 730 726 731 732 730 730 732 724 734 737 732 731 726 733 729 725 733 727 735 732 733 737 727 736 736 733 734 734 730 730 735 734 731 735 732 736 730 737 736 730 732 730 732 736 737 736 729 736 732 736 734 734 736 729 737 730 737 732 737 736 734 734 730 736 736 732 734 732 735 736 732 735 733 734 733 734 731 736 730 737 732 732 735 732 735 730 732 733 734 732 737 730 738 735 731 733 732 732 734 734 728 731 732 730 734 732 726 731 735 732 735 735 731 731 734 735 734 736 734 733 730 722 733 736 730 737 732 732 732 734 724 737 731 737 735 729 732 733 728 736 725 732 731 734 734 732 734 732 737 737 732 729 732 733 731 732 730 732 732 735 737 733 736 732 736 733 737 733 731 728 730 732 733 737 733 731 733 732 734 732 732 730 736 728 733 735 734 732 737 734 729 735 734 736 734 733

Tree=0
num_leaves=6
num_cat=0
split_feature=0 0 0 0 0
split_gain=16204.7 2747.47 2729.17 461.94 431.797
threshold=91026120.000000015 258304760.00000003 17243831.000000004 435275872.00000006 45068314.000000007
decision_type=2 2 2 2 2
left_child=2 -2 -1 -3 -4
right_child=1 3 4 -5 -6
leaf_value=0.50005037627529758 0.5003316225262654 0.50045944533658338 0.50015610896311191 0.50057505803200919 0.50022727231137687
leaf_weight=229656 274049 103271 171975 51943 169106
leaf_count=229656 274049 103271 171975 51943 169106
internal_value=0.500245 0.500392 0.500135 0.500498 0.500191
internal_weight=0 429263 570737 155214 341081
internal_count=1000000 429263 570737 155214 341081
is_linear=0
shrinkage=1


Tree=1
num_leaves=6
num_cat=0
split_feature=0 0 0 0 0
split_gain=16172.3 2741.97 2723.71 461.016 430.934
threshold=91026120.000000015 258304760.00000003 17243831.000000004 435275872.00000006 45068314.000000007
decision_type=2 2 2 2 2
left_child=2 -2 -1 -3 -4
right_child=1 3 4 -5 -6
leaf_value=-0.00019447665588558007 8.6488349300228989e-05 0.00021418333734406106 -8.8849701358994728e-05 0.00032968040677434603 -1.7757516249061389e-05
leaf_weight=229656 274049 103271 171975 51943 169106
leaf_count=229656 274049 103271 171975 51943 169106
internal_value=0 0.000146636 -0.000110288 0.000252835 -5.36026e-05
internal_weight=0 429263 570737 155214 341081
internal_count=1000000 429263 570737 155214 341081
is_linear=0
shrinkage=0.001


Tree=2
num_leaves=6
num_cat=0
split_feature=0 0 0 0 0
split_gain=16139.9 2736.49 2718.27 460.095 430.072
threshold=91026120.000000015 258304760.00000003 17243831.000000004 435275872.00000006 45068314.000000007
decision_type=2 2 2 2 2
left_child=2 -2 -1 -3 -4
right_child=1 3 4 -5 -6
leaf_value=-0.00019428218193558768 8.6401862415250028e-05 0.00021396915347770979 -8.8760853599212903e-05 0.0003293507301991151 -1.773975877381293e-05
leaf_weight=229656 274049 103271 171975 51943 169106
leaf_count=229656 274049 103271 171975 51943 169106
internal_value=0 0.00014649 -0.000110178 0.000252582 -5.3549e-05
internal_weight=0 429263 570737 155214 341081
internal_count=1000000 429263 570737 155214 341081
is_linear=0
shrinkage=0.001


Tree=3
num_leaves=6
num_cat=0
split_feature=0 0 0 0 0
split_gain=16107.7 2731.02 2712.83 459.175 429.213
threshold=91026120.000000015 258304760.00000003 17243831.000000004 435275872.00000006 45068314.000000007
decision_type=2 2 2 2 2
left_child=2 -2 -1 -3 -4
right_child=1 3 4 -5 -6
leaf_value=-0.00019408790048502535 8.6315453897693129e-05 0.00021375517682458171 -8.8672095254179606e-05 0.00032902138427930795 -1.7722021206466854e-05
leaf_weight=229656 274049 103271 171975 51943 169106
leaf_count=229656 274049 103271 171975 51943 169106
internal_value=0 0.000146343 -0.000110068 0.000252329 -5.34955e-05
internal_weight=0 429263 570737 155214 341081
internal_count=1000000 429263 570737 155214 341081
is_linear=0
shrinkage=0.001


Tree=4
num_leaves=6
num_cat=0
split_feature=0 0 0 0 0
split_gain=16075.5 2725.56 2707.41 458.257 428.355
threshold=91026120.000000015 258304760.00000003 17243831.000000004 435275872.00000006 45068314.000000007
decision_type=2 2 2 2 2
left_child=2 -2 -1 -3 -4
right_child=1 3 4 -5 -6
leaf_value=-0.00019389381127636723 8.6229139302475402e-05 0.00021354142688940277 -8.8583417693533002e-05 0.00032869236376610822 -1.7704299157949307e-05
leaf_weight=229656 274049 103271 171975 51943 169106
leaf_count=229656 274049 103271 171975 51943 169106
internal_value=0 0.000146197 -0.000109958 0.000252077 -5.3442e-05
internal_weight=0 429263 570737 155214 341081
internal_count=1000000 429263 570737 155214 341081
is_linear=0
shrinkage=0.001


Tree=5
num_leaves=6
num_cat=0
split_feature=0 0 0 0 0
split_gain=16043.3 2720.17 2702 438.134 427.498
threshold=91026120.000000015 262687568.00000003 17243831.000000004 435275872.00000006 45068314.000000007
decision_type=2 2 2 2 2
left_child=2 -2 -1 -3 -4
right_child=1 3 4 -5 -6
leaf_value=-0.00019369991737517824 8.7313842036012811e-05 0.00021503401785436739 -8.8494837989553193e-05 0.0003283636738669467 -1.7686591785657356e-05
leaf_weight=229656 277941 99379 171975 51943 169106
leaf_count=229656 277941 99379 171975 51943 169106
internal_value=0 0.000146051 -0.000109848 0.000253936 -5.33885e-05
internal_weight=0 429263 570737 151322 341081
internal_count=1000000 429263 570737 151322 341081
is_linear=0
shrinkage=0.001


Tree=6
num_leaves=6
num_cat=0
split_feature=0 0 0 0 0
split_gain=16011.3 2714.78 2696.6 456.402 426.644
threshold=91026120.000000015 258304760.00000003 17243831.000000004 435275872.00000006 45068314.000000007
decision_type=2 2 2 2 2
left_child=2 -2 -1 -3 -4
right_child=1 3 4 -5 -6
leaf_value=-0.00019350621878146097 8.6055598572823132e-05 0.00021311765978875548 -8.8406338945100279e-05 0.00032803531150149638 -1.7668907219233738e-05
leaf_weight=229656 274049 103271 171975 51943 169106
leaf_count=229656 274049 103271 171975 51943 169106
internal_value=0 0.000145905 -0.000109738 0.000251575 -5.33351e-05
internal_weight=0 429263 570737 155214 341081
internal_count=1000000 429263 570737 155214 341081
is_linear=0
shrinkage=0.001


Tree=7
num_leaves=6
num_cat=0
split_feature=0 0 0 0 0
split_gain=15979.3 2709.36 2691.21 436.371 425.791
threshold=91026120.000000015 262687568.00000003 17243831.000000004 435275872.00000006 45068314.000000007
decision_type=2 2 2 2 2
left_child=2 -2 -1 -3 -4
right_child=1 3 4 -5 -6
leaf_value=-0.00019331271229710781 8.7138690210492267e-05 0.00021460587016753011 -8.8317932995842329e-05 0.00032770727726966941 -1.7651239604837311e-05
leaf_weight=229656 277941 99379 171975 51943 169106
leaf_count=229656 277941 99379 171975 51943 169106
internal_value=0 0.000145759 -0.000109628 0.000253429 -5.32818e-05
internal_weight=0 429263 570737 151322 341081
internal_count=1000000 429263 570737 151322 341081
is_linear=0
shrinkage=0.001


Tree=8
num_leaves=6
num_cat=0
split_feature=0 0 0 0 0
split_gain=15947.3 2704.05 2685.83 454.555 424.94
threshold=91026120.000000015 258304760.00000003 17243831.000000004 435275872.00000006 45068314.000000007
decision_type=2 2 2 2 2
left_child=2 -2 -1 -3 -4
right_child=1 3 4 -5 -6
leaf_value=-0.00019311939795842596 8.5882407933634655e-05 0.00021269474077237685 -8.8229620233109784e-05 0.00032737957090506241 -1.7633589849939243e-05
leaf_weight=229656 274049 103271 171975 51943 169106
leaf_count=229656 274049 103271 171975 51943 169106
internal_value=0 0.000145613 -0.000109519 0.000251074 -5.32285e-05
internal_weight=0 429263 570737 155214 341081
internal_count=1000000 429263 570737 155214 341081
is_linear=0
shrinkage=0.001


Tree=9
num_leaves=6
num_cat=0
split_feature=0 0 0 0 0
split_gain=15915.4 2698.64 2680.46 453.646 424.09
threshold=91026120.000000015 258304760.00000003 17243831.000000004 435275872.00000006 45068314.000000007
decision_type=2 2 2 2 2
left_child=2 -2 -1 -3 -4
right_child=1 3 4 -5 -6
leaf_value=-0.00019292627890076362 8.5796524763578325e-05 0.00021248204331726625 -8.8141388158410181e-05 0.00032705217036214262 -1.7615954734845618e-05
leaf_weight=229656 274049 103271 171975 51943 169106
leaf_count=229656 274049 103271 171975 51943 169106
internal_value=0 0.000145467 -0.000109409 0.000250823 -5.31753e-05
internal_weight=0 429263 570737 155214 341081
internal_count=1000000 429263 570737 155214 341081
is_linear=0
shrinkage=0.001


Tree=10
num_leaves=6
num_cat=0
split_feature=0 0 0 0 0
split_gain=15883.6 2693.27 2675.1 440.796 423.243
threshold=91026120.000000015 271805008.00000006 17243831.000000004 163187808.00000003 45068314.000000007
decision_type=2 2 2 2 2
left_child=2 3 -1 -2 -4
right_child=1 -3 4 -5 -6
leaf_value=-0.00019273335082251665 5.3453183523151975e-05 0.00025711245142796352 -8.8053250011515822e-05 0.00013234854913144297 -1.7598340116366857e-05
leaf_weight=229656 156307 143478 171975 129478 169106
leaf_count=229656 156307 143478 171975 129478 169106
internal_value=0 0.000145322 -0.0001093 8.91976e-05 -5.31221e-05
internal_weight=0 429263 570737 285785 341081
internal_count=1000000 429263 570737 285785 341081
is_linear=0
shrinkage=0.001


Tree=11
num_leaves=6
num_cat=0
split_feature=0 0 0 0 0
split_gain=15851.9 2688.01 2669.75 452.627 422.396
threshold=91026120.000000015 258304760.00000003 17243831.000000004 435275872.00000006 45068314.000000007
decision_type=2 2 2 2 2
left_child=2 -2 -1 -3 -4
right_child=1 3 4 -5 -6
leaf_value=-0.00019254061875071502 8.5623373517744217e-05 0.00021202663032750032 -8.796519237866797e-05 0.00032646801161701682 -1.7580738849561008e-05
leaf_weight=229656 274049 103271 171975 51943 169106
leaf_count=229656 274049 103271 171975 51943 169106
internal_value=0 0.000145177 -0.00010919 0.000250325 -5.3069e-05
internal_weight=0 429263 570737 155214 341081
internal_count=1000000 429263 570737 155214 341081
is_linear=0
shrinkage=0.001


Tree=12
num_leaves=6
num_cat=0
split_feature=0 0 0 0 0
split_gain=15820.2 2682.67 2664.42 439.787 421.552
threshold=91026120.000000015 271805008.00000006 17243831.000000004 163187808.00000003 45068314.000000007
decision_type=2 2 2 2 2
left_child=2 3 -1 -2 -4
right_child=1 -3 4 -5 -6
leaf_value=-0.00019234807784214105 5.3314105392323237e-05 0.00025660188459315423 -8.7877227260413964e-05 0.00013211911823088771 -1.7563156910335891e-05
leaf_weight=229656 156307 143478 171975 129478 169106
leaf_count=229656 156307 143478 171975 129478 169106
internal_value=0 0.000145031 -0.000109081 8.90176e-05 -5.30159e-05
internal_weight=0 429263 570737 285785 341081
internal_count=1000000 429263 570737 285785 341081
is_linear=0
shrinkage=0.001


Tree=13
num_leaves=6
num_cat=0
split_feature=0 0 0 0 0
split_gain=15788.6 2677.42 2659.09 451.611 420.709
threshold=91026120.000000015 258304760.00000003 17243831.000000004 435275872.00000006 45068314.000000007
decision_type=2 2 2 2 2
left_child=2 -2 -1 -3 -4
right_child=1 3 4 -5 -6
leaf_value=-0.0001921557287974549 8.5450579698018351e-05 0.00021157215271664704 -8.7789351930763228e-05 0.00032588495466874252 -1.7545595457844262e-05
leaf_weight=229656 274049 103271 171975 51943 169106
leaf_count=229656 274049 103271 171975 51943 169106
internal_value=0 0.000144886 -0.000108972 0.000249827 -5.29629e-05
internal_weight=0 429263 570737 155214 341081
internal_count=1000000 429263 570737 155214 341081
is_linear=0
shrinkage=0.001


Tree=14
num_leaves=6
num_cat=0
split_feature=0 0 0 0 0
split_gain=15757.1 2738.77 2586.88 448.865 409.665
threshold=93773964.000000015 17243831.000000004 271805008.00000006 45068314.000000007 163187808.00000003
decision_type=2 2 2 2 2
left_child=1 -1 4 -3 -2
right_child=2 3 -4 -5 -6
leaf_value=-0.00019196357452046586 5.4946330105021855e-05 -8.7701561013638857e-05 0.00025609232830355191 -1.5944626183385514e-05 0.00013189012019577723
leaf_weight=229656 148625 171975 143478 176788 129478
leaf_count=229656 148625 171975 143478 176788 129478
internal_value=0 -0.000107166 0.000147034 -5.1328e-05 9.07695e-05
internal_weight=0 578419 421581 348763 278103
internal_count=1000000 578419 421581 348763 278103
is_linear=0
shrinkage=0.001


Tree=15
num_leaves=6
num_cat=0
split_feature=0 0 0 0 0
split_gain=15725.6 2666.84 2648.44 450.597 419.01
threshold=91026120.000000015 258304760.00000003 17243831.000000004 435275872.00000006 45068314.000000007
decision_type=2 2 2 2 2
left_child=2 -2 -1 -3 -4
right_child=1 3 4 -5 -6
leaf_value=-0.00019177161112920042 8.5279109676176582e-05 0.00021111859430224502 -8.7613858643374368e-05 0.00032530297529771029 -1.7512104372205775e-05
leaf_weight=229656 274049 103271 171975 51943 169106
leaf_count=229656 274049 103271 171975 51943 169106
internal_value=0 0.000144597 -0.000108755 0.000249331 -5.28578e-05
internal_weight=0 429263 570737 155214 341081
internal_count=1000000 429263 570737 155214 341081
is_linear=0
shrinkage=0.001


Tree=16
num_leaves=6
num_cat=0
split_feature=0 0 0 0 0
split_gain=15694.4 2727.78 2576.65 447.036 408.742
threshold=93773964.000000015 17243831.000000004 271805008.00000006 45068314.000000007 165574400.00000003
decision_type=2 2 2 2 2
left_child=1 -1 4 -3 -2
right_child=2 3 -4 -5 -6
leaf_value=-0.00019157983979157362 5.5823303346809427e-05 -8.7526245074259404e-05 0.00025558377529919402 -1.5915637331687245e-05 0.0001328650734239407
leaf_weight=229656 152610 171975 143478 176788 125493
leaf_count=229656 152610 171975 143478 176788 125493
internal_value=0 -0.000106953 0.000146742 -5.12268e-05 9.05881e-05
internal_weight=0 578419 421581 348763 278103
internal_count=1000000 578419 421581 348763 278103
is_linear=0
shrinkage=0.001


Tree=17
num_leaves=6
num_cat=0
split_feature=0 0 0 0 0
split_gain=15663 2722.33 2571.5 446.142 407.931
threshold=93773964.000000015 17243831.000000004 271805008.00000006 45068314.000000007 163187808.00000003
decision_type=2 2 2 2 2
left_child=1 -1 4 -3 -2
right_child=2 3 -4 -5 -6
leaf_value=-0.00019138825899476657 5.4750285074607017e-05 -8.7438717141702751e-05 0.00025532819067430906 -1.5899722591139567e-05 0.00013153104555753151
leaf_weight=229656 148625 171975 143478 176788 129478
leaf_count=229656 148625 171975 143478 176788 129478
internal_value=0 -0.000106846 0.000146595 -5.11756e-05 9.04975e-05
internal_weight=0 578419 421581 348763 278103
internal_count=1000000 578419 421581 348763 278103
is_linear=0
shrinkage=0.001


Tree=18
num_leaves=6
num_cat=0
split_feature=0 0 0 0 0
split_gain=15631.8 2651.1 2632.53 449.475 416.465
threshold=91026120.000000015 258304760.00000003 17243831.000000004 435275872.00000006 45068314.000000007
decision_type=2 2 2 2 2
left_child=2 -2 -1 -3 -4
right_child=1 3 4 -5 -6
leaf_value=-0.00019119686899391795 8.5022283998371708e-05 0.00021042458178214133 -8.7351277397146226e-05 0.00032446675538425003 -1.7462776058587896e-05
leaf_weight=229656 274049 103271 171975 51943 169106
leaf_count=229656 274049 103271 171975 51943 169106
internal_value=0 0.000144165 -0.00010843 0.000248589 -5.2701e-05
internal_weight=0 429263 570737 155214 341081
internal_count=1000000 429263 570737 155214 341081
is_linear=0
shrinkage=0.001


Tree=19
num_leaves=6
num_cat=0
split_feature=0 0 0 0 0
split_gain=15600.7 2711.4 2561.33 444.325 407.008
threshold=93773964.000000015 17243831.000000004 271805008.00000006 45068314.000000007 165574400.00000003
decision_type=2 2 2 2 2
left_child=1 -1 4 -3 -2
right_child=2 3 -4 -5 -6
leaf_value=-0.00019100567069364177 5.5625703874694692e-05 -8.7263926741454364e-05 0.00025482114890123815 -1.5870809740678171e-05 0.00013250392387368124
leaf_weight=229656 152610 171975 143478 176788 125493
leaf_count=229656 152610 171975 143478 176788 125493
internal_value=0 -0.000106633 0.000146303 -5.10747e-05 9.03167e-05
internal_weight=0 578419 421581 348763 278103
internal_count=1000000 578419 421581 348763 278103
is_linear=0
shrinkage=0.001


Tree=20
num_leaves=6
num_cat=0
split_feature=0 0 0 0 0
split_gain=15569.6 2705.98 2556.21 443.436 406.205
threshold=93773964.000000015 17243831.000000004 271805008.00000006 45068314.000000007 163187808.00000003
decision_type=2 2 2 2 2
left_child=1 -1 4 -3 -2
right_child=2 3 -4 -5 -6
leaf_value=-0.00019081466697666751 5.4554882414649793e-05 -8.717666413401942e-05 0.00025456632599272876 -1.5854942450334466e-05 0.00013117299097572968
leaf_weight=229656 148625 171975 143478 176788 129478
leaf_count=229656 148625 171975 143478 176788 129478
internal_value=0 -0.000106526 0.000146157 -5.10237e-05 9.02264e-05
internal_weight=0 578419 421581 348763 278103
internal_count=1000000 578419 421581 348763 278103
is_linear=0
shrinkage=0.001


Tree=21
num_leaves=6
num_cat=0
split_feature=0 0 0 0 0
split_gain=15538.5 2635.53 2616.71 466.891 413.935
threshold=91026120.000000015 254123976.00000003 17243831.000000004 435275872.00000006 45068314.000000007
decision_type=2 2 2 2 2
left_child=2 -2 -1 -3 -4
right_child=1 3 4 -5 -6
leaf_value=-0.00019062385303258278 8.3592830169941696e-05 0.00020811621155598079 -8.7089486890166835e-05 0.00032363289034701044 -1.7413590355977703e-05
leaf_weight=229656 270126 107194 171975 51943 169106
leaf_count=229656 270126 107194 171975 51943 169106
internal_value=0 0.000143734 -0.000108106 0.000245821 -5.25446e-05
internal_weight=0 429263 570737 159137 341081
internal_count=1000000 429263 570737 159137 341081
is_linear=0
shrinkage=0.001


Tree=22
num_leaves=6
num_cat=0
split_feature=0 0 0 0 0
split_gain=15507.6 2695.11 2546.15 441.63 405.242
threshold=93773964.000000015 17243831.000000004 271805008.00000006 45068314.000000007 165574400.00000003
decision_type=2 2 2 2 2
left_child=1 -1 4 -3 -2
right_child=2 3 -4 -5 -6
leaf_value=-0.00019043322755899698 5.5429929812951562e-05 -8.7002398770304827e-05 0.00025406182427337691 -1.5826059957610807e-05 0.00013214111914500125
leaf_weight=229656 152610 171975 143478 176788 125493
leaf_count=229656 152610 171975 143478 176788 125493
internal_value=0 -0.000106314 0.000145866 -5.09231e-05 9.00456e-05
internal_weight=0 578419 421581 348763 278103
internal_count=1000000 578419 421581 348763 278103
is_linear=0
shrinkage=0.001


Tree=23
num_leaves=6
num_cat=0
split_feature=0 0 0 0 0
split_gain=15476.6 2689.73 2541.06 440.748 404.446
threshold=93773964.000000015 17243831.000000004 271805008.00000006 45068314.000000007 163187808.00000003
decision_type=2 2 2 2 2
left_child=1 -1 4 -3 -2
right_child=2 3 -4 -5 -6
leaf_value=-0.00019024279860852539 5.4361306955694556e-05 -8.6915398821403125e-05 0.00025380776068062119 -1.5810234826471059e-05 0.00013081338522612487
leaf_weight=229656 148625 171975 143478 176788 129478
leaf_count=229656 148625 171975 143478 176788 129478
internal_value=0 -0.000106208 0.00014572 -5.08722e-05 8.99555e-05
internal_weight=0 578419 421581 348763 278103
internal_count=1000000 578419 421581 348763 278103
is_linear=0
shrinkage=0.001


Tree=24
num_leaves=6
num_cat=0
split_feature=0 0 0 0 0
split_gain=15445.8 2620.06 2600.99 465.669 411.42
threshold=91026120.000000015 254123976.00000003 17243831.000000004 435275872.00000006 45068314.000000007
decision_type=2 2 2 2 2
left_child=2 -2 -1 -3 -4
right_child=1 3 4 -5 -6
leaf_value=-0.0001900525538845777 8.3340060136517305e-05 0.00020743600853341453 -8.682847845895162e-05 0.00032280140114183134 -1.7364541188835138e-05
leaf_weight=229656 270126 107194 171975 51943 169106
leaf_count=229656 270126 107194 171975 51943 169106
internal_value=0 0.000143305 -0.000107783 0.000245092 -5.23887e-05
internal_weight=0 429263 570737 159137 341081
internal_count=1000000 429263 570737 159137 341081
is_linear=0
shrinkage=0.001


Tree=25
num_leaves=6
num_cat=0
split_feature=0 0 0 0 0
split_gain=15415.1 2678.93 2531.06 438.953 403.483
threshold=93773964.000000015 17243831.000000004 271805008.00000006 45068314.000000007 165574400.00000003
decision_type=2 2 2 2 2
left_child=1 -1 4 -3 -2
right_child=2 3 -4 -5 -6
leaf_value=-0.00018986249977616387 5.5234796428631093e-05 -8.6741656463687421e-05 0.00025330474978938725 -1.5781435318557565e-05 0.00013177934031118646
leaf_weight=229656 152610 171975 143478 176788 125493
leaf_count=229656 152610 171975 143478 176788 125493
internal_value=0 -0.000105997 0.00014543 -5.07719e-05 8.97753e-05
internal_weight=0 578419 421581 348763 278103
internal_count=1000000 578419 421581 348763 278103
is_linear=0
shrinkage=0.001


Tree=26
num_leaves=6
num_cat=0
split_feature=0 0 0 0 0
split_gain=15384.2 2673.57 2526 438.075 402.695
threshold=93773964.000000015 17243831.000000004 271805008.00000006 45068314.000000007 163187808.00000003
decision_type=2 2 2 2 2
left_child=1 -1 4 -3 -2
right_child=2 3 -4 -5 -6
leaf_value=-0.0001896726358099707 5.4168369067158372e-05 -8.66549094295979e-05 0.00025305145322751358 -1.5765657597701914e-05 0.00013045479715657787
leaf_weight=229656 148625 171975 143478 176788 129478
leaf_count=229656 148625 171975 143478 176788 129478
internal_value=0 -0.000105891 0.000145284 -5.07211e-05 8.96855e-05
internal_weight=0 578419 421581 348763 278103
internal_count=1000000 578419 421581 348763 278103
is_linear=0
shrinkage=0.001


Tree=27
num_leaves=6
num_cat=0
split_feature=0 0 0 0 0
split_gain=15353.6 2604.68 2585.37 464.451 408.921
threshold=91026120.000000015 254123976.00000003 17243831.000000004 435275872.00000006 45068314.000000007
decision_type=2 2 2 2 2
left_child=2 -2 -1 -3 -4
right_child=1 3 4 -5 -6
leaf_value=-0.00018948296666519848 8.3088062559284157e-05 0.00020675787616263497 -8.656825990936698e-05 0.00032197224133488747 -1.7315630002975802e-05
leaf_weight=229656 270126 107194 171975 51943 169106
leaf_count=229656 270126 107194 171975 51943 169106
internal_value=0 0.000142877 -0.00010746 0.000244364 -5.22332e-05
internal_weight=0 429263 570737 159137 341081
internal_count=1000000 429263 570737 159137 341081
is_linear=0
shrinkage=0.001


Tree=28
num_leaves=6
num_cat=0
split_feature=0 0 0 0 0
split_gain=15323 2662.84 2516.06 436.291 401.733
threshold=93773964.000000015 17243831.000000004 271805008.00000006 45068314.000000007 163187808.00000003
decision_type=2 2 2 2 2
left_child=1 -1 4 -3 -2
right_child=2 3 -4 -5 -6
leaf_value=-0.00018929348352180055 5.4031117865176872e-05 -8.6481690844579189e-05 0.00025254992732274558 -1.5736938845712906e-05 0.00013022630279365611
leaf_weight=229656 148625 171975 143478 176788 129478
leaf_count=229656 148625 171975 143478 176788 129478
internal_value=0 -0.00010568 0.000144995 -5.06212e-05 8.95057e-05
internal_weight=0 578419 421581 348763 278103
internal_count=1000000 578419 421581 348763 278103
is_linear=0
shrinkage=0.001


Tree=29
num_leaves=6
num_cat=0
split_feature=0 0 0 0 0
split_gain=15292.4 2657.52 2511.03 435.419 400.952
threshold=93773964.000000015 17243831.000000004 271805008.00000006 45068314.000000007 165574400.00000003
decision_type=2 2 2 2 2
left_child=1 -1 4 -3 -2
right_child=2 3 -4 -5 -6
leaf_value=-0.00018910419062271542 5.4984299200077441e-05 -8.6395206022987165e-05 0.00025229737789286963 -1.5721203101120046e-05 0.000131288356105432
leaf_weight=229656 152610 171975 143478 176788 125493
leaf_count=229656 152610 171975 143478 176788 125493
internal_value=0 -0.000105574 0.00014485 -5.05705e-05 8.94162e-05
internal_weight=0 578419 421581 348763 278103
internal_count=1000000 578419 421581 348763 278103
is_linear=0
shrinkage=0.001


Tree=30
num_leaves=6
num_cat=0
split_feature=0 0 0 0 0
split_gain=15262 2589.4 2569.84 463.236 406.437
threshold=91026120.000000015 254123976.00000003 17243831.000000004 435275872.00000006 45068314.000000007
decision_type=2 2 2 2 2
left_child=2 -2 -1 -3 -4
right_child=1 3 4 -5 -6
leaf_value=-0.000188915083944808 8.2836821631441355e-05 0.00020608181243699007 -8.6308809460182233e-05 0.00032114540983792586 -1.7266854068713064e-05
leaf_weight=229656 270126 107194 171975 51943 169106
leaf_count=229656 270126 107194 171975 51943 169106
internal_value=0 0.00014245 -0.000107139 0.000243639 -5.20782e-05
internal_weight=0 429263 570737 159137 341081
internal_count=1000000 429263 570737 159137 341081
is_linear=0
shrinkage=0.001


Tree=31
num_leaves=6
num_cat=0
split_feature=0 0 0 0 0
split_gain=15231.6 2646.85 2501.15 433.645 399.994
threshold=93773964.000000015 17243831.000000004 271805008.00000006 45068314.000000007 163187808.00000003
decision_type=2 2 2 2 2
left_child=1 -1 4 -3 -2
right_child=2 3 -4 -5 -6
leaf_value=-0.00018872617135133664 5.383926158041172e-05 -8.6222501837371818e-05 0.00025179734480720596 -1.5692563071265813e-05 0.00012986939073615796
leaf_weight=229656 148625 171975 143478 176788 129478
leaf_count=229656 148625 171975 143478 176788 129478
internal_value=0 -0.000105364 0.000144562 -5.04709e-05 8.9237e-05
internal_weight=0 578419 421581 348763 278103
internal_count=1000000 578419 421581 348763 278103
is_linear=0
shrinkage=0.001


Tree=32
num_leaves=6
num_cat=0
split_feature=0 0 0 0 0
split_gain=15201.1 2641.56 2496.15 432.779 399.212
threshold=93773964.000000015 17243831.000000004 271805008.00000006 45068314.000000007 165574400.00000003
decision_type=2 2 2 2 2
left_child=1 -1 4 -3 -2
right_child=2 3 -4 -5 -6
leaf_value=-0.0001885374419201228 5.4790645950837919e-05 -8.6136281947948594e-05 0.00025154555404774664 -1.5676868298744039e-05 0.00013092898716938572
leaf_weight=229656 152610 171975 143478 176788 125493
leaf_count=229656 152610 171975 143478 176788 125493
internal_value=0 -0.000105259 0.000144417 -5.04204e-05 8.91478e-05
internal_weight=0 578419 421581 348763 278103
internal_count=1000000 578419 421581 348763 278103
is_linear=0
shrinkage=0.001


Tree=33
num_leaves=6
num_cat=0
split_feature=0 0 0 0 0
split_gain=15170.9 2574.2 2554.4 462.025 404.05
threshold=91026120.000000015 254123976.00000003 17243831.000000004 435275872.00000006 43434586.000000007
decision_type=2 2 2 2 2
left_child=2 -2 -1 -3 -4
right_child=1 3 4 -5 -6
leaf_value=-0.00018834890562783194 8.2586338993864906e-05 0.0002054078209362265 -8.7699979970731463e-05 0.00032032092513181753 -1.8811949155005833e-05
leaf_weight=229656 270126 107194 163944 51943 177137
leaf_count=229656 270126 107194 163944 51943 177137
internal_value=0 0.000142024 -0.000106819 0.000242916 -5.19237e-05
internal_weight=0 429263 570737 159137 341081
internal_count=1000000 429263 570737 159137 341081
is_linear=0
shrinkage=0.001


Tree=34
num_leaves=6
num_cat=0
split_feature=0 0 0 0 0
split_gain=15140.7 2631.32 2486.32 493.137 398.263
threshold=93773964.000000015 21228284.000000004 271805008.00000006 4253764.5000000009 163187808.00000003
decision_type=2 2 2 2 2
left_child=1 3 4 -1 -2
right_child=2 -3 -4 -5 -6
leaf_value=-0.00023887181059489257 5.364804750544701e-05 -4.3919618194257325e-05 0.00025104699426912043 -0.00014764387320876184 0.00012951349320375645
leaf_weight=90996 148625 317564 143478 169859 129478
leaf_count=90996 148625 317564 143478 169859 129478
internal_value=0 -0.000105049 0.00014413 -0.000179468 8.89692e-05
internal_weight=0 578419 421581 260855 278103
internal_count=1000000 578419 421581 260855 278103
is_linear=0
shrinkage=0.001


Tree=35
num_leaves=6
num_cat=0
split_feature=0 0 0 0 0
split_gain=15110.5 2564.13 2544.42 479.238 403.011
threshold=91026120.000000015 249869896.00000003 17243831.000000004 435275872.00000006 43434586.000000007
decision_type=2 2 2 2 2
left_child=2 -2 -1 -3 -4
right_child=1 3 4 -5 -6
leaf_value=-0.00018797676679428436 8.1224735428835702e-05 0.00020340706689158018 -8.7548618069033043e-05 0.00031974955795495061 -1.8749216508683109e-05
leaf_weight=229656 266111 111209 163944 51943 177137
leaf_count=229656 266111 111209 163944 51943 177137
internal_value=0 0.000141741 -0.000106606 0.000240447 -5.18183e-05
internal_weight=0 429263 570737 163152 341081
internal_count=1000000 429263 570737 163152 341081
is_linear=0
shrinkage=0.001


Tree=36
num_leaves=6
num_cat=0
split_feature=0 0 0 0 0
split_gain=15080.4 2620.99 2476.58 491.952 397.28
threshold=93773964.000000015 21228284.000000004 271805008.00000006 4253764.5000000009 165574400.00000003
decision_type=2 2 2 2 2
left_child=1 3 4 -1 -2
right_child=2 -3 -4 -5 -6
leaf_value=-0.00023844496580538574 5.4516418323965458e-05 -4.3830606412275523e-05 0.00025055042103469571 -0.00014732670114174447 0.00013047025089913747
leaf_weight=90996 152610 317564 143478 169859 125493
leaf_count=90996 152610 317564 143478 169859 125493
internal_value=0 -0.00010484 0.000143843 -0.000179112 8.87903e-05
internal_weight=0 578419 421581 260855 278103
internal_count=1000000 578419 421581 260855 278103
is_linear=0
shrinkage=0.001


Tree=37
num_leaves=6
num_cat=0
split_feature=0 0 0 0 0
split_gain=15050.4 2554.05 2534.47 478.105 401.988
threshold=91026120.000000015 249869896.00000003 17243831.000000004 435275872.00000006 45068314.000000007
decision_type=2 2 2 2 2
left_child=2 -2 -1 -3 -4
right_child=1 3 4 -5 -6
leaf_value=-0.00018760535868466311 8.1061628383902409e-05 0.00020297435444205275 -8.575598415426597e-05 0.00031917925775979913 -1.7092904936473614e-05
leaf_weight=229656 266111 111209 171975 51943 169106
leaf_count=229656 266111 111209 171975 51943 169106
internal_value=0 0.000141459 -0.000106394 0.000239971 -5.17132e-05
internal_weight=0 429263 570737 163152 341081
internal_count=1000000 429263 570737 163152 341081
is_linear=0
shrinkage=0.001


Tree=38
num_leaves=6
num_cat=0
split_feature=0 0 0 0 0
split_gain=15020.4 2610.71 2466.88 490.767 396.307
threshold=93773964.000000015 21228284.000000004 271805008.00000006 4253764.5000000009 163187808.00000003
decision_type=2 2 2 2 2
left_child=1 3 4 -1 -2
right_child=2 -3 -4 -5 -6
leaf_value=-0.00023801891386271101 5.3377594133895159e-05 -4.374162188389666e-05 0.00025005482343758227 -0.00014701047387993894 0.00012905647132566972
leaf_weight=90996 148625 317564 143478 169859 129478
leaf_count=90996 148625 317564 143478 169859 129478
internal_value=0 -0.000104631 0.000143556 -0.000178758 8.86118e-05
internal_weight=0 578419 421581 260855 278103
internal_count=1000000 578419 421581 260855 278103
is_linear=0
shrinkage=0.001


Tree=39
num_leaves=6
num_cat=0
split_feature=0 0 0 0 0
split_gain=14990.5 2544.01 2524.57 476.974 400.978
threshold=91026120.000000015 249869896.00000003 17243831.000000004 435275872.00000006 43434586.000000007
decision_type=2 2 2 2 2
left_child=2 -2 -1 -3 -4
right_child=1 3 4 -5 -6
leaf_value=-0.00018723468295644396 8.089876909262739e-05 0.00020254273300342754 -8.7248396085694369e-05 0.00031861003270063825 -1.8622690735621186e-05
leaf_weight=229656 266111 111209 163944 51943 177137
leaf_count=229656 266111 111209 163944 51943 177137
internal_value=0 0.000141177 -0.000106182 0.000239495 -5.16083e-05
internal_weight=0 429263 570737 163152 341081
internal_count=1000000 429263 570737 163152 341081
is_linear=0
shrinkage=0.001


Tree=40
num_leaves=6
num_cat=0
split_feature=0 0 0 0 0
split_gain=14960.7 2600.46 2457.22 489.588 395.321
threshold=93773964.000000015 21228284.000000004 271805008.00000006 4253764.5000000009 163187808.00000003
decision_type=2 2 2 2 2
left_child=1 3 4 -1 -2
right_child=2 -3 -4 -5 -6
leaf_value=-0.000237593662099055 5.3243313814042269e-05 -4.3652975357453333e-05 0.00024956020498113614 -0.00014669459700990291 0.00012882803144600787
leaf_weight=90996 148625 317564 143478 169859 129478
leaf_count=90996 148625 317564 143478 169859 129478
internal_value=0 -0.000104423 0.00014327 -0.000178404 8.84337e-05
internal_weight=0 578419 421581 260855 278103
internal_count=1000000 578419 421581 260855 278103
is_linear=0
shrinkage=0.001


Tree=41
num_leaves=6
num_cat=0
split_feature=0 0 0 0 0
split_gain=14931 2577.13 2474.73 493.817 386.766
threshold=89701976.000000015 245754208.00000003 17243831.000000004 435275872.00000006 43434586.000000007
decision_type=2 2 2 2 2
left_child=2 -2 -1 -3 -4
right_child=1 3 4 -5 -6
leaf_value=-0.00018686473867117874 7.8637215943866087e-05 0.00020060238233503484 -8.7097880216021039e-05 0.00031804185509623386 -1.9343939248042627e-05
leaf_weight=229656 265893 115240 163944 51943 173324
leaf_count=229656 265893 115240 163944 51943 173324
internal_value=0 0.000139806 -0.000106798 0.00023709 -5.22787e-05
internal_weight=0 433076 566924 167183 337268
internal_count=1000000 433076 566924 167183 337268
is_linear=0
shrinkage=0.001


Tree=42
num_leaves=6
num_cat=0
split_feature=0 0 0 0 0
split_gain=14901.3 2590.22 2447.61 488.412 394.309
threshold=93773964.000000015 21228284.000000004 271805008.00000006 4253764.5000000009 165574400.00000003
decision_type=2 2 2 2 2
left_child=1 3 4 -1 -2
right_child=2 -3 -4 -5 -6
leaf_value=-0.00023716920178699149 5.4110733628945735e-05 -4.3565204003781492e-05 0.00024906753043960739 -0.00014637935978568936 0.00012978007801703177
leaf_weight=90996 152610 317564 143478 169859 125493
leaf_count=90996 152610 317564 143478 169859 125493
internal_value=0 -0.000104215 0.000142986 -0.00017805 8.82563e-05
internal_weight=0 578419 421581 260855 278103
internal_count=1000000 578419 421581 260855 278103
is_linear=0
shrinkage=0.001


Tree=43
num_leaves=6
num_cat=0
split_feature=0 0 0 0 0
split_gain=14871.7 2567 2465.04 492.624 385.77
threshold=89701976.000000015 245754208.00000003 17243831.000000004 435275872.00000006 43434586.000000007
decision_type=2 2 2 2 2
left_child=2 -2 -1 -3 -4
right_child=1 3 4 -5 -6
leaf_value=-0.00018649552053543662 7.8479724504958514e-05 0.00020017725389605612 -8.694765401892202e-05 0.00031747474375991562 -1.9281035923658719e-05
leaf_weight=229656 265893 115240 163944 51943 173324
leaf_count=229656 265893 115240 163944 51943 173324
internal_value=0 0.000139528 -0.000106586 0.000236621 -5.21734e-05
internal_weight=0 433076 566924 167183 337268
internal_count=1000000 433076 566924 167183 337268
is_linear=0
shrinkage=0.001


Tree=44
num_leaves=6
num_cat=0
split_feature=0 0 0 0 0
split_gain=14842.1 2580.02 2438.05 487.239 393.299
threshold=93773964.000000015 21228284.000000004 271805008.00000006 4253764.5000000009 163187808.00000003
decision_type=2 2 2 2 2
left_child=1 3 4 -1 -2
right_child=2 -3 -4 -5 -6
leaf_value=-0.00023674553810492841 5.2978846093079001e-05 -4.3477612220497047e-05 0.00024857582026785858 -0.00014606476993638996 0.00012837003104629357
leaf_weight=90996 148625 317564 143478 169859 129478
leaf_count=90996 148625 317564 143478 169859 129478
internal_value=0 -0.000104008 0.000142701 -0.000177698 8.80792e-05
internal_weight=0 578419 421581 260855 278103
internal_count=1000000 578419 421581 260855 278103
is_linear=0
shrinkage=0.001


Tree=45
num_leaves=6
num_cat=0
split_feature=0 0 0 0 0
split_gain=14812.7 2556.92 2455.38 491.432 384.776
threshold=89701976.000000015 245754208.00000003 17243831.000000004 435275872.00000006 43434586.000000007
decision_type=2 2 2 2 2
left_child=2 -2 -1 -3 -4
right_child=1 3 4 -5 -6
leaf_value=-0.00018612702967803451 7.8322445147281314e-05 0.00019975322442613484 -8.6797708967983878e-05 0.00031690870404635797 -1.9218273889329159e-05
leaf_weight=229656 265893 115240 163944 51943 173324
leaf_count=229656 265893 115240 163944 51943 173324
internal_value=0 0.000139251 -0.000106374 0.000236153 -5.20682e-05
internal_weight=0 433076 566924 167183 337268
internal_count=1000000 433076 566924 167183 337268
is_linear=0
shrinkage=0.001


Tree=46
num_leaves=6
num_cat=0
split_feature=0 0 0 0 0
split_gain=14783.2 2569.86 2428.52 486.069 392.281
threshold=93773964.000000015 21228284.000000004 271805008.00000006 4253764.5000000009 163187808.00000003
decision_type=2 2 2 2 2
left_child=1 3 4 -1 -2
right_child=2 -3 -4 -5 -6
leaf_value=-0.0002363226660450024 5.2847548802132987e-05 -4.3390198613554364e-05 0.00024808507923325477 -0.00014575082044031201 0.00012814110280386448
leaf_weight=90996 148625 317564 143478 169859 129478
leaf_count=90996 148625 317564 143478 169859 129478
internal_value=0 -0.000103801 0.000142418 -0.000177346 8.79024e-05
internal_weight=0 578419 421581 260855 278103
internal_count=1000000 578419 421581 260855 278103
is_linear=0
shrinkage=0.001


Tree=47
num_leaves=6
num_cat=0
split_feature=0 0 0 0 0
split_gain=14753.9 2546.87 2445.76 490.243 383.785
threshold=89701976.000000015 245754208.00000003 17243831.000000004 435275872.00000006 43434586.000000007
decision_type=2 2 2 2 2
left_child=2 -2 -1 -3 -4
right_child=1 3 4 -5 -6
leaf_value=-0.0001857592651143348 7.8165484080360508e-05 0.00019933005775624521 -8.6648037781331585e-05 0.00031634371151501343 -1.9155665792464481e-05
leaf_weight=229656 265893 115240 163944 51943 173324
leaf_count=229656 265893 115240 163944 51943 173324
internal_value=0 0.000138974 -0.000106163 0.000235686 -5.19633e-05
internal_weight=0 433076 566924 167183 337268
internal_count=1000000 433076 566924 167183 337268
is_linear=0
shrinkage=0.001


Tree=48
num_leaves=6
num_cat=0
split_feature=0 0 0 0 0
split_gain=14724.5 2559.74 2419.02 484.902 391.28
threshold=93773964.000000015 21228284.000000004 271805008.00000006 4253764.5000000009 165574400.00000003
decision_type=2 2 2 2 2
left_child=1 3 4 -1 -2
right_child=2 -3 -4 -5 -6
leaf_value=-0.0002359005828486052 5.3711899446856386e-05 -4.3302962826799903e-05 0.00024759529976003616 -0.00014543751799575723 0.00012909000707753718
leaf_weight=90996 152610 317564 143478 169859 125493
leaf_count=90996 152610 317564 143478 169859 125493
internal_value=0 -0.000103595 0.000142135 -0.000176994 8.7726e-05
internal_weight=0 578419 421581 260855 278103
internal_count=1000000 578419 421581 260855 278103
is_linear=0
shrinkage=0.001


Tree=49
num_leaves=6
num_cat=0
split_feature=0 0 0 0 0
split_gain=14695.3 2536.86 2436.2 489.059 410.192
threshold=89701976.000000015 245754208.00000003 16286908.500000002 435275872.00000006 43434586.000000007
decision_type=2 2 2 2 2
left_child=2 -2 -1 -3 -4
right_child=1 3 4 -5 -6
leaf_value=-0.00018775748392417052 7.8008941589811792e-05 0.00019890751062200937 -8.8032779470028968e-05 0.00031577976586709048 -1.9093205340612168e-05
leaf_weight=221687 265893 115240 171913 51943 173324
leaf_count=221687 265893 115240 171913 51943 173324
internal_value=0 0.000138698 -0.000105952 0.000235219 -5.34221e-05
internal_weight=0 433076 566924 167183 345237
internal_count=1000000 433076 566924 167183 345237
is_linear=0
shrinkage=0.001


Tree=50
num_leaves=6
num_cat=0
split_feature=0 0 0 0 0
split_gain=14666.2 2638.59 2326.47 483.687 381.82
threshold=96655504.000000015 21228284.000000004 271805008.00000006 4253764.5000000009 447301824.00000006
decision_type=2 2 2 2 2
left_child=1 3 -2 -1 -4
right_child=2 -3 4 -5 -6
leaf_value=-0.00023547692446272068 8.9539357421364557e-05 -4.1661768391616238e-05 0.00021057775489727559 -0.00014512731817346611 0.00031995811286486786
leaf_weight=90996 270126 325541 95562 169859 47916
leaf_count=90996 270126 325541 95562 169859 47916
internal_value=0 -0.000101708 0.000144199 -0.000176645 0.000247106
internal_weight=0 586396 413604 260855 143478
internal_count=1000000 586396 413604 260855 143478
is_linear=0
shrinkage=0.001


Tree=51
num_leaves=6
num_cat=0
split_feature=0 0 0 0 0
split_gain=14637.2 2527.12 2426.67 487.03 409.092
threshold=89701976.000000015 245754208.00000003 16286908.500000002 435275872.00000006 43434586.000000007
decision_type=2 2 2 2 2
left_child=2 -2 -1 -3 -4
right_child=1 3 4 -5 -6
leaf_value=-0.00018738751171602626 7.785100370353189e-05 0.00019852292507153754 -8.7879509325926802e-05 0.00031515250322340459 -1.9032454766022776e-05
leaf_weight=221687 265893 115240 171913 51943 173324
leaf_count=221687 265893 115240 171913 51943 173324
internal_value=0 0.000138423 -0.000105742 0.000234759 -5.33153e-05
internal_weight=0 433076 566924 167183 345237
internal_count=1000000 433076 566924 167183 345237
is_linear=0
shrinkage=0.001


Tree=52
num_leaves=6
num_cat=0
split_feature=0 0 0 0 0
split_gain=14608.2 2628.19 2317.33 482.474 380.278
threshold=96655504.000000015 21228284.000000004 271805008.00000006 4253764.5000000009 447301824.00000006
decision_type=2 2 2 2 2
left_child=1 3 -2 -1 -4
right_child=2 -3 4 -5 -6
leaf_value=-0.0002350540596476501 8.9361374531948709e-05 -4.1578792416660759e-05 0.00021016374221617901 -0.00014481774883155093 0.00031932299901762934
leaf_weight=90996 270126 325541 95562 169859 47916
leaf_count=90996 270126 325541 95562 169859 47916
internal_value=0 -0.000101507 0.000143913 -0.000176296 0.000246619
internal_weight=0 586396 413604 260855 143478
internal_count=1000000 586396 413604 260855 143478
is_linear=0
shrinkage=0.001


Tree=53
num_leaves=6
num_cat=0
split_feature=0 0 0 0 0
split_gain=14579.3 2517.42 2417.17 485.009 407.995
threshold=89701976.000000015 245754208.00000003 16286908.500000002 435275872.00000006 43434586.000000007
decision_type=2 2 2 2 2
left_child=2 -2 -1 -3 -4
right_child=1 3 4 -5 -6
leaf_value=-0.00018701826723609705 7.7693384499324621e-05 0.00019813909170990682 -8.7726530728736166e-05 0.00031452650027545911 -1.8971843276049831e-05
leaf_weight=221687 265893 115240 171913 51943 173324
leaf_count=221687 265893 115240 171913 51943 173324
internal_value=0 0.000138149 -0.000105533 0.0002343 -5.32087e-05
internal_weight=0 433076 566924 167183 345237
internal_count=1000000 433076 566924 167183 345237
is_linear=0
shrinkage=0.001


Tree=54
num_leaves=6
num_cat=0
split_feature=0 0 0 0 0
split_gain=14550.4 2617.84 2308.23 481.265 378.743
threshold=96655504.000000015 21228284.000000004 271805008.00000006 4253764.5000000009 447301824.00000006
decision_type=2 2 2 2 2
left_child=1 3 -2 -1 -4
right_child=2 -3 4 -5 -6
leaf_value=-0.00023463198735942207 8.9183753193928522e-05 -4.1495986409682412e-05 0.00020975052621693244 -0.00014450881121125817 0.00031868915922805314
leaf_weight=90996 270126 325541 95562 169859 47916
leaf_count=90996 270126 325541 95562 169859 47916
internal_value=0 -0.000101306 0.000143629 -0.000175947 0.000246132
internal_weight=0 586396 413604 260855 143478
internal_count=1000000 586396 413604 260855 143478
is_linear=0
shrinkage=0.001


Tree=55
num_leaves=6
num_cat=0
split_feature=0 0 0 0 0
split_gain=14521.6 2507.76 2407.71 482.997 406.901
threshold=89701976.000000015 245754208.00000003 16286908.500000002 435275872.00000006 43434586.000000007
decision_type=2 2 2 2 2
left_child=2 -2 -1 -3 -4
right_child=1 3 4 -5 -6
leaf_value=-0.00018664974620472967 7.7536072748461427e-05 0.00019775599750428886 -8.7573837811914676e-05 0.00031390173503380037 -1.8911374659966617e-05
leaf_weight=221687 265893 115240 171913 51943 173324
leaf_count=221687 265893 115240 171913 51943 173324
internal_value=0 0.000137876 -0.000105324 0.000233842 -5.31023e-05
internal_weight=0 433076 566924 167183 345237
internal_count=1000000 433076 566924 167183 345237
is_linear=0
shrinkage=0.001


Tree=56
num_leaves=6
num_cat=0
split_feature=0 0 0 0 0
split_gain=14492.9 2607.53 2299.24 480.06 381.351
threshold=96655504.000000015 21228284.000000004 276509440.00000006 4253764.5000000009 170387368.00000003
decision_type=2 2 2 2 2
left_child=1 3 4 -1 -2
right_child=2 -3 -4 -5 -6
leaf_value=-0.00023421070419389902 5.6807651639722488e-05 -4.1413353259454097e-05 0.00024783858224290272 -0.00014420049680176822 0.00013188297763324836
leaf_weight=90996 152370 325541 139533 169859 121701
leaf_count=90996 152370 325541 139533 169859 121701
internal_value=0 -0.000101105 0.000143344 -0.000175599 9.01448e-05
internal_weight=0 586396 413604 260855 274071
internal_count=1000000 586396 413604 260855 274071
is_linear=0
shrinkage=0.001


Tree=57
num_leaves=6
num_cat=0
split_feature=0 0 0 0 0
split_gain=14464.2 2497.86 2398.29 481.801 379.76
threshold=89701976.000000015 245754208.00000003 17243831.000000004 435275872.00000006 3469405.5000000005
decision_type=2 2 2 2 2
left_child=2 -2 4 -3 -1
right_child=1 3 -4 -5 -6
leaf_value=-0.00024010347416867207 7.7382364157046056e-05 0.00019733822969889725 -5.1444506746184915e-05 0.0003133399915162557 -0.00015449520210416689
leaf_weight=78978 265893 115240 337268 51943 150678
leaf_count=78978 265893 115240 337268 51943 150678
internal_value=0 0.000137603 -0.000105116 0.000233379 -0.000183936
internal_weight=0 433076 566924 167183 229656
internal_count=1000000 433076 566924 167183 229656
is_linear=0
shrinkage=0.001


Tree=58
num_leaves=6
num_cat=0
split_feature=0 0 0 0 0
split_gain=14435.5 2597.49 2290.25 478.107 380.312
threshold=96655504.000000015 21228284.000000004 276509440.00000006 4253764.5000000009 170387368.00000003
decision_type=2 2 2 2 2
left_child=1 3 4 -1 -2
right_child=2 -3 -4 -5 -6
leaf_value=-0.00023374769823833764 5.6673464214093507e-05 -4.1328199119871634e-05 0.00024735022014191638 -0.00014392072824438414 0.00013164646409186885
leaf_weight=90996 152370 325541 139533 169859 121701
leaf_count=90996 152370 325541 139533 169859 121701
internal_value=0 -0.000100905 0.00014306 -0.000175256 8.99652e-05
internal_weight=0 586396 413604 260855 274071
internal_count=1000000 586396 413604 260855 274071
is_linear=0
shrinkage=0.001


Tree=59
num_leaves=6
num_cat=0
split_feature=0 0 0 0 0
split_gain=14407 2488 2388.97 480.607 405.477
threshold=89701976.000000015 245754208.00000003 16286908.500000002 435275872.00000006 43434586.000000007
decision_type=2 2 2 2 2
left_child=2 -2 -1 -3 -4
right_child=1 3 4 -5 -6
leaf_value=-0.00018591616297471513 7.7228968294629143e-05 0.0001969212969894329 -8.730050847275142e-05 0.00031277929440815476 -1.8758275250605778e-05
leaf_weight=221687 265893 115240 171913 51943 173324
leaf_count=221687 265893 115240 171913 51943 173324
internal_value=0 0.000137331 -0.000104907 0.000232918 -5.28893e-05
internal_weight=0 433076 566924 167183 345237
internal_count=1000000 433076 566924 167183 345237
is_linear=0
shrinkage=0.001


Tree=60
num_leaves=6
num_cat=0
split_feature=0 0 0 0 0
split_gain=14378.4 2587.26 2281.29 476.91 379.276
threshold=96655504.000000015 21228284.000000004 276509440.00000006 4253764.5000000009 170387368.00000003
decision_type=2 2 2 2 2
left_child=1 3 4 -1 -2
right_child=2 -3 -4 -5 -6
leaf_value=-0.00023332803673132107 5.6539562257336672e-05 -4.1245905228909405e-05 0.00024686282182763577 -0.00014361363184520214 0.00013141039357028269
leaf_weight=90996 152370 325541 139533 169859 121701
leaf_count=90996 152370 325541 139533 169859 121701
internal_value=0 -0.000100705 0.000142777 -0.000174909 8.97859e-05
internal_weight=0 586396 413604 260855 274071
internal_count=1000000 586396 413604 260855 274071
is_linear=0
shrinkage=0.001


Tree=61
num_leaves=6
num_cat=0
split_feature=0 0 0 0 0
split_gain=14350 2478.18 2379.62 479.417 404.391
threshold=89701976.000000015 245754208.00000003 16286908.500000002 435275872.00000006 43434586.000000007
decision_type=2 2 2 2 2
left_child=2 -2 -1 -3 -4
right_child=1 3 4 -5 -6
leaf_value=-0.00018554980735166392 7.7075881941965439e-05 0.00019650521238521524 -8.7148636987258648e-05 0.00031221966210837944 -1.8698270439690156e-05
leaf_weight=221687 265893 115240 171913 51943 173324
leaf_count=221687 265893 115240 171913 51943 173324
internal_value=0 0.000137059 -0.0001047 0.000232457 -5.27836e-05
internal_weight=0 433076 566924 167183 345237
internal_count=1000000 433076 566924 167183 345237
is_linear=0
shrinkage=0.001


Tree=62
num_leaves=6
num_cat=0
split_feature=0 0 0 0 0
split_gain=14321.6 2577.06 2272.36 475.715 378.244
threshold=96655504.000000015 21228284.000000004 276509440.00000006 4253764.5000000009 170387368.00000003
decision_type=2 2 2 2 2
left_child=1 3 4 -1 -2
right_child=2 -3 -4 -5 -6
leaf_value=-0.00023290915637919191 5.6405944841636516e-05 -4.1163776632638576e-05 0.00024637637454828635 -0.00014330715726379472 0.00013117477224746776
leaf_weight=90996 152370 325541 139533 169859 121701
leaf_count=90996 152370 325541 139533 169859 121701
internal_value=0 -0.000100506 0.000142495 -0.000174564 8.9607e-05
internal_weight=0 586396 413604 260855 274071
internal_count=1000000 586396 413604 260855 274071
is_linear=0
shrinkage=0.001


Tree=63
num_leaves=6
num_cat=0
split_feature=0 0 0 0 0
split_gain=14293.3 2468.39 2370.31 478.23 403.308
threshold=89701976.000000015 245754208.00000003 16286908.500000002 435275872.00000006 43434586.000000007
decision_type=2 2 2 2 2
left_child=2 -2 -1 -3 -4
right_child=1 3 4 -5 -6
leaf_value=-0.00018518417181637997 7.6923097859227105e-05 0.00019608997828210865 -8.6997054188332174e-05 0.00031166105348339487 -1.8638409976182601e-05
leaf_weight=221687 265893 115240 171913 51943 173324
leaf_count=221687 265893 115240 171913 51943 173324
internal_value=0 0.000136787 -0.000104493 0.000231997 -5.2678e-05
internal_weight=0 433076 566924 167183 345237
internal_count=1000000 433076 566924 167183 345237
is_linear=0
shrinkage=0.001


Tree=64
num_leaves=6
num_cat=0
split_feature=0 0 0 0 0
split_gain=14264.9 2566.91 2263.47 474.524 377.214
threshold=96655504.000000015 21228284.000000004 276509440.00000006 4253764.5000000009 170387368.00000003
decision_type=2 2 2 2 2
left_child=1 3 4 -1 -2
right_child=2 -3 -4 -5 -6
leaf_value=-0.0002324910617793654 5.6272620565536775e-05 -4.1081816739706386e-05 0.00024589088677620788 -0.00014300130899562682 0.00013093960523637206
leaf_weight=90996 152370 325541 139533 169859 121701
leaf_count=90996 152370 325541 139533 169859 121701
internal_value=0 -0.000100307 0.000142212 -0.000174219 8.94284e-05
internal_weight=0 586396 413604 260855 274071
internal_count=1000000 586396 413604 260855 274071
is_linear=0
shrinkage=0.001


Tree=65
num_leaves=6
num_cat=0
split_feature=0 0 0 0 0
split_gain=14236.7 2458.65 2361.03 477.046 402.228
threshold=89701976.000000015 245754208.00000003 16286908.500000002 435275872.00000006 43434586.000000007
decision_type=2 2 2 2 2
left_child=2 -2 -1 -3 -4
right_child=1 3 4 -5 -6
leaf_value=-0.00018481925414539686 7.677061650778765e-05 0.00019567557301072622 -8.6845754243357386e-05 0.00031110350900598208 -1.8578691289463295e-05
leaf_weight=221687 265893 115240 171913 51943 173324
leaf_count=221687 265893 115240 171913 51943 173324
internal_value=0 0.000136517 -0.000104286 0.000231539 -5.25727e-05
internal_weight=0 433076 566924 167183 345237
internal_count=1000000 433076 566924 167183 345237
is_linear=0
shrinkage=0.001


Tree=66
num_leaves=6
num_cat=0
split_feature=0 0 0 0 0
split_gain=14208.5 2556.8 2254.62 473.336 376.187
threshold=96655504.000000015 21228284.000000004 276509440.00000006 4253764.5000000009 170387368.00000003
decision_type=2 2 2 2 2
left_child=1 3 4 -1 -2
right_child=2 -3 -4 -5 -6
leaf_value=-0.00023207375344073882 5.6139571744596653e-05 -4.1000022636935194e-05 0.00024540635184974898 -0.0001426960809506821 0.00013070487441586913
leaf_weight=90996 152370 325541 139533 169859 121701
leaf_count=90996 152370 325541 139533 169859 121701
internal_value=0 -0.000100108 0.000141931 -0.000173874 8.92502e-05
internal_weight=0 586396 413604 260855 274071
internal_count=1000000 586396 413604 260855 274071
is_linear=0
shrinkage=0.001


Tree=67
num_leaves=6
num_cat=0
split_feature=0 0 0 0 0
split_gain=14180.5 2701.14 2121.75 475.865 377.079
threshold=81851220.000000015 245754208.00000003 16286908.500000002 435275872.00000006 149382896.00000003
decision_type=2 2 2 2 2
left_child=2 4 -1 -3 -2
right_child=1 3 -4 -5 -6
leaf_value=-0.00018445505145834096 3.8967209629226638e-05 0.00019526201218305554 -5.7298492993714461e-05 0.00031054698687895451 0.00011154490480877193
leaf_weight=221687 160004 115240 321583 51943 129543
leaf_count=221687 160004 115240 321583 51943 129543
internal_value=0 0.000129874 -0.000109186 0.000231081 7.14384e-05
internal_weight=0 456730 543270 167183 289547
internal_count=1000000 456730 543270 167183 289547
is_linear=0
shrinkage=0.001


Tree=68
num_leaves=6
num_cat=0
split_feature=0 0 0 0 0
split_gain=14152.4 2443.98 2347.04 474.914 375.113
threshold=89701976.000000015 245754208.00000003 17243831.000000004 435275872.00000006 3469405.5000000005
decision_type=2 2 2 2 2
left_child=2 -2 4 -3 -1
right_child=1 3 -4 -5 -6
leaf_value=-0.00023777289365397788 7.6544120455369303e-05 0.00019506674936365702 -5.0881771860076874e-05 0.00031023644297202763 -0.0001526900284971924
leaf_weight=78978 265893 115240 337268 51943 150678
leaf_count=78978 265893 115240 337268 51943 150678
internal_value=0 0.000136112 -0.000103976 0.000230849 -0.00018195
internal_weight=0 433076 566924 167183 229656
internal_count=1000000 433076 566924 167183 229656
is_linear=0
shrinkage=0.001


Tree=69
num_leaves=6
num_cat=0
split_feature=0 0 0 0 0
split_gain=14124.6 2690.28 2113.19 492.531 355.94
threshold=81851220.000000015 241514432.00000003 16286908.500000002 435275872.00000006 149382896.00000003
decision_type=2 2 2 2 2
left_child=2 4 -1 -3 -2
right_child=1 3 -4 -5 -6
leaf_value=-0.00018408759666934467 3.8870535333991924e-05 0.00019328819573888995 -5.7187790906727615e-05 0.00030992620445119407 0.00011004074504808059
leaf_weight=221687 160004 119480 321583 51943 125303
leaf_count=221687 160004 119480 321583 51943 125303
internal_value=0 0.000129618 -0.000108971 0.000228631 7.01275e-05
internal_weight=0 456730 543270 171423 285307
internal_count=1000000 456730 543270 171423 285307
is_linear=0
shrinkage=0.001


Tree=70
num_leaves=6
num_cat=0
split_feature=0 0 0 0 0
split_gain=14096.7 2537.69 2237.27 470.792 373.643
threshold=96655504.000000015 21228284.000000004 276509440.00000006 4253764.5000000009 170387368.00000003
decision_type=2 2 2 2 2
left_child=1 3 4 -1 -2
right_child=2 -3 -4 -5 -6
leaf_value=-0.00023124660075851775 5.5895566289592617e-05 -4.0826755809743837e-05 0.00024444811283649105 -0.00014210943434177163 0.00013020828099268375
leaf_weight=90996 152370 325541 139533 169859 121701
leaf_count=90996 152370 325541 139533 169859 121701
internal_value=0 -9.9714e-05 0.000141372 -0.000173204 8.88941e-05
internal_weight=0 586396 413604 260855 274071
internal_count=1000000 586396 413604 260855 274071
is_linear=0
shrinkage=0.001


Tree=71
num_leaves=6
num_cat=0
split_feature=0 0 0 0 0
split_gain=14069.3 2679.53 2104.8 491.289 354.436
threshold=81851220.000000015 241514432.00000003 16286908.500000002 435275872.00000006 149382896.00000003
decision_type=2 2 2 2 2
left_child=2 4 -1 -3 -2
right_child=1 3 -4 -5 -6
leaf_value=-0.00018372481130787713 3.8801839343053397e-05 0.00019288095039113397 -5.707743824095362e-05 0.00030937184207526609 0.00010982155015899062
leaf_weight=221687 160004 119480 321583 51943 125303
leaf_count=221687 160004 119480 321583 51943 125303
internal_value=0 0.000129364 -0.000108757 0.000228179 6.99927e-05
internal_weight=0 456730 543270 171423 285307
internal_count=1000000 456730 543270 171423 285307
is_linear=0
shrinkage=0.001


Tree=72
num_leaves=6
num_cat=0
split_feature=0 0 0 0 0
split_gain=14041.2 2674.18 2100.59 490.307 353.727
threshold=81851220.000000015 241514432.00000003 16286908.500000002 435275872.00000006 149382896.00000003
decision_type=2 2 2 2 2
left_child=2 4 -1 -3 -2
right_child=1 3 -4 -5 -6
leaf_value=-0.00018354108605465915 3.87630383656817e-05 0.00019268806973253422 -5.7020361651230223e-05 0.00030906246785689665 0.00010971172859948471
leaf_weight=221687 160004 119480 321583 51943 125303
leaf_count=221687 160004 119480 321583 51943 125303
internal_value=0 0.000129235 -0.000108648 0.000227951 6.99227e-05
internal_weight=0 456730 543270 171423 285307
internal_count=1000000 456730 543270 171423 285307
is_linear=0
shrinkage=0.001


Tree=73
num_leaves=6
num_cat=0
split_feature=0 0 0 0 0
split_gain=14013.3 2523.42 2224.36 469.235 371.367
threshold=96655504.000000015 21228284.000000004 276509440.00000006 4253764.5000000009 170387368.00000003
decision_type=2 2 2 2 2
left_child=1 3 4 -1 -2
right_child=2 -3 -4 -5 -6
leaf_value=-0.00023064808754067663 5.5729035664019272e-05 -4.0697220117605126e-05 0.00024373141297718681 -0.00014165843723962557 0.00012981502827385467
leaf_weight=90996 152370 325541 139533 169859 121701
leaf_count=90996 152370 325541 139533 169859 121701
internal_value=0 -9.94185e-05 0.000140953 -0.000172701 8.86269e-05
internal_weight=0 586396 413604 260855 274071
internal_count=1000000 586396 413604 260855 274071
is_linear=0
shrinkage=0.001


Tree=74
num_leaves=6
num_cat=0
split_feature=0 0 0 0 0
split_gain=13986.2 2663.51 2092.24 470.639 372.185
threshold=81851220.000000015 245754208.00000003 16286908.500000002 435275872.00000006 149382896.00000003
decision_type=2 2 2 2 2
left_child=2 4 -1 -3 -2
right_child=1 3 -4 -5 -6
leaf_value=-0.00018317935716879151 3.8694534299920475e-05 0.0001938593904205464 -5.6910347652761311e-05 0.00030850966661654012 0.00011079971989024103
leaf_weight=221687 160004 115240 321583 51943 129543
leaf_count=221687 160004 115240 321583 51943 129543
internal_value=0 0.000128982 -0.000108436 0.000229481 7.09543e-05
internal_weight=0 456730 543270 167183 289547
internal_count=1000000 456730 543270 167183 289547
is_linear=0
shrinkage=0.001


Tree=75
num_leaves=6
num_cat=0
split_feature=0 0 0 0 0
split_gain=13958.3 2658.22 2088.06 488.082 351.516
threshold=81851220.000000015 241514432.00000003 16286908.500000002 435275872.00000006 149382896.00000003
decision_type=2 2 2 2 2
left_child=2 4 -1 -3 -2
right_child=1 3 -4 -5 -6
leaf_value=-0.00018299618147346361 3.8655840856334636e-05 0.0001920911381104326 -5.6853435254657382e-05 0.00030820115598082361 0.00010938238704363861
leaf_weight=221687 160004 119480 321583 51943 125303
leaf_count=221687 160004 119480 321583 51943 125303
internal_value=0 0.000128853 -0.000108327 0.000227274 6.9718e-05
internal_weight=0 456730 543270 171423 285307
internal_count=1000000 456730 543270 171423 285307
is_linear=0
shrinkage=0.001


Tree=76
num_leaves=6
num_cat=0
split_feature=0 0 0 0 0
split_gain=13930.5 2716.55 2028.98 480.204 381.631
threshold=103894332.00000001 21748076.000000004 291541328.00000006 4253764.5000000009 54802800.000000007
decision_type=2 2 2 2 2
left_child=1 3 -2 -1 -3
right_child=2 4 -4 -5 -6
leaf_value=-0.00023005126455778708 9.6659673034934205e-05 -6.7708323900982705e-05 0.00024997095969013294 -0.0001403858204410454 -6.7962914674429397e-07
leaf_weight=90996 266526 180679 127676 173817 160306
leaf_count=90996 266526 180679 127676 173817 160306
internal_value=0 -9.52093e-05 0.000146315 -0.000171197 -3.61964e-05
internal_weight=0 605798 394202 264813 340985
internal_count=1000000 605798 394202 264813 340985
is_linear=0
shrinkage=0.001


Tree=77
num_leaves=6
num_cat=0
split_feature=0 0 0 0 0
split_gain=13903.1 2648.34 2079.91 486.635 350.435
threshold=81851220.000000015 241514432.00000003 16286908.500000002 435275872.00000006 149382896.00000003
decision_type=2 2 2 2 2
left_child=2 4 -1 -3 -2
right_child=1 3 -4 -5 -6
leaf_value=-0.00018263599287562588 3.8558561718548038e-05 0.00019170521208218387 -5.6739509728072698e-05 0.0003076429852677984 0.00010917634189011462
leaf_weight=221687 160004 119480 321583 51943 125303
leaf_count=221687 160004 119480 321583 51943 125303
internal_value=0 0.000128598 -0.000108113 0.000226836 6.95729e-05
internal_weight=0 456730 543270 171423 285307
internal_count=1000000 456730 543270 171423 285307
is_linear=0
shrinkage=0.001


Tree=78
num_leaves=6
num_cat=0
split_feature=0 0 0 0 0
split_gain=13875.5 2706.19 2021.17 478.91 380.445
threshold=103894332.00000001 21748076.000000004 291541328.00000006 4253764.5000000009 54802800.000000007
decision_type=2 2 2 2 2
left_child=1 3 -2 -1 -3
right_child=2 4 -4 -5 -6
leaf_value=-0.00022963857804663448 9.6466117454412225e-05 -6.7583872643244049e-05 0.00024948211370246404 -0.00014009403502954876 -6.593802434330042e-07
leaf_weight=90996 266526 180679 127676 173817 160306
leaf_count=90996 266526 180679 127676 173817 160306
internal_value=0 -9.50211e-05 0.000146026 -0.000170864 -3.61209e-05
internal_weight=0 605798 394202 264813 340985
internal_count=1000000 605798 394202 264813 340985
is_linear=0
shrinkage=0.001


Tree=79
num_leaves=6
num_cat=0
split_feature=0 0 0 0 0
split_gain=13848.1 2638.49 2071.8 485.192 349.359
threshold=81851220.000000015 241514432.00000003 16286908.500000002 435275872.00000006 149382896.00000003
decision_type=2 2 2 2 2
left_child=2 4 -1 -3 -2
right_child=1 3 -4 -5 -6
leaf_value=-0.00018227650704369714 3.846149627245056e-05 0.00019132005124585983 -5.6625808553176602e-05 0.00030708586063514715 0.00010897070224844014
leaf_weight=221687 160004 119480 321583 51943 125303
leaf_count=221687 160004 119480 321583 51943 125303
internal_value=0 0.000128343 -0.000107899 0.000226398 6.94282e-05
internal_weight=0 456730 543270 171423 285307
internal_count=1000000 456730 543270 171423 285307
is_linear=0
shrinkage=0.001


Tree=80
num_leaves=6
num_cat=0
split_feature=0 0 0 0 0
split_gain=13820.7 2490.08 2194.81 465.19 426.029
threshold=96655504.000000015 21228284.000000004 291541328.00000006 4253764.5000000009 178055640.00000003
decision_type=2 2 2 2 2
left_child=1 3 4 -1 -2
right_child=2 -3 -4 -5 -6
leaf_value=-0.00022922665995560491 5.8047406243229365e-05 -4.04008553372268e-05 0.00024899421438800338 -0.00014062141755009065 0.00013610716707092307
leaf_weight=90996 164115 325541 127676 169859 121813
leaf_count=90996 164115 325541 127676 169859 121813
internal_value=0 -9.8733e-05 0.000139981 -0.00017153 9.1303e-05
internal_weight=0 586396 413604 260855 285928
internal_count=1000000 586396 413604 260855 285928
is_linear=0
shrinkage=0.001


Tree=81
num_leaves=6
num_cat=0
split_feature=0 0 0 0 0
split_gain=13793.9 2628 2063.56 465.676 367.614
threshold=81851220.000000015 245754208.00000003 16286908.500000002 435275872.00000006 149382896.00000003
decision_type=2 2 2 2 2
left_child=2 4 -1 -3 -2
right_child=1 3 -4 -5 -6
leaf_value=-0.00018191723847490727 3.8391517756979223e-05 0.00019248568685665112 -5.6516576657967226e-05 0.00030652978198198849 0.00011005252021064796
leaf_weight=221687 160004 115240 321583 51943 129543
leaf_count=221687 160004 115240 321583 51943 129543
internal_value=0 0.000128092 -0.000107688 0.000227919 7.04526e-05
internal_weight=0 456730 543270 167183 289547
internal_count=1000000 456730 543270 167183 289547
is_linear=0
shrinkage=0.001


Tree=82
num_leaves=6
num_cat=0
split_feature=0 0 0 0 0
split_gain=13766.5 2685.56 2005.54 476.317 378.708
threshold=103894332.00000001 21748076.000000004 291541328.00000006 4253764.5000000009 54802800.000000007
decision_type=2 2 2 2 2
left_child=1 3 -2 -1 -3
right_child=2 4 -4 -5 -6
leaf_value=-0.00022881551964385382 9.608316378650848e-05 -6.7362745204476452e-05 0.00024850633750725458 -0.00013951369922161419 -5.9120425004457353e-07
leaf_weight=90996 266526 180679 127676 173817 160306
leaf_count=90996 266526 180679 127676 173817 160306
internal_value=0 -9.4647e-05 0.000145451 -0.0001702 -3.59717e-05
internal_weight=0 605798 394202 264813 340985
internal_count=1000000 605798 394202 264813 340985
is_linear=0
shrinkage=0.001


Tree=83
num_leaves=6
num_cat=0
split_feature=0 0 0 0 0
split_gain=13739.4 2618.28 2055.51 482.431 346.835
threshold=81851220.000000015 241514432.00000003 16286908.500000002 435275872.00000006 149382896.00000003
decision_type=2 2 2 2 2
left_child=2 4 -1 -3 -2
right_child=1 3 -4 -5 -6
leaf_value=-0.00018155915052585632 3.8294825175120985e-05 0.00019053881681333133 -5.6403323542025184e-05 0.000305974743700235 0.00010854891514303411
leaf_weight=221687 160004 119480 321583 51943 125303
leaf_count=221687 160004 119480 321583 51943 125303
internal_value=0 0.000127838 -0.000107474 0.000225517 6.91495e-05
internal_weight=0 456730 543270 171423 285307
internal_count=1000000 456730 543270 171423 285307
is_linear=0
shrinkage=0.001


Tree=84
num_leaves=6
num_cat=0
split_feature=0 0 0 0 0
split_gain=13712.1 2675.31 1997.82 475.034 377.533
threshold=103894332.00000001 21748076.000000004 291541328.00000006 4253764.5000000009 54802800.000000007
decision_type=2 2 2 2 2
left_child=1 3 -2 -1 -3
right_child=2 4 -4 -5 -6
leaf_value=-0.00022840514408959507 9.589076507645601e-05 -6.723898020483403e-05 0.00024802033049531438 -0.00013922367670471381 -5.7114371053188817e-07
leaf_weight=90996 266526 180679 127676 173817 160306
leaf_count=90996 266526 180679 127676 173817 160306
internal_value=0 -9.44599e-05 0.000145163 -0.000169869 -3.58967e-05
internal_weight=0 605798 394202 264813 340985
internal_count=1000000 605798 394202 264813 340985
is_linear=0
shrinkage=0.001


Tree=85
num_leaves=6
num_cat=0
split_feature=0 0 0 0 0
split_gain=13685 2608.55 2047.49 481.002 345.77
threshold=81851220.000000015 241514432.00000003 16286908.500000002 435275872.00000006 149382896.00000003
decision_type=2 2 2 2 2
left_child=2 4 -1 -3 -2
right_child=1 3 -4 -5 -6
leaf_value=-0.00018120176398643485 3.8198334885034121e-05 0.00019015595636815195 -5.6290297039753645e-05 0.000305420748347977 0.00010834447627816571
leaf_weight=221687 160004 119480 321583 51943 125303
leaf_count=221687 160004 119480 321583 51943 125303
internal_value=0 0.000127585 -0.000107262 0.000225082 6.90056e-05
internal_weight=0 456730 543270 171423 285307
internal_count=1000000 456730 543270 171423 285307
is_linear=0
shrinkage=0.001


Tree=86
num_leaves=6
num_cat=0
split_feature=0 0 0 0 0
split_gain=13658 2665.1 1990.13 473.754 376.361
threshold=103894332.00000001 21748076.000000004 291541328.00000006 4253764.5000000009 54802800.000000007
decision_type=2 2 2 2 2
left_child=1 3 -2 -1 -3
right_child=2 4 -4 -5 -6
leaf_value=-0.00022799553849541323 9.5698756552397313e-05 -6.7115449718033684e-05 0.00024753525442763598 -0.00013893424375536426 -5.5113638816517838e-07
leaf_weight=90996 266526 180679 127676 173817 160306
leaf_count=90996 266526 180679 127676 173817 160306
internal_value=0 -9.42732e-05 0.000144876 -0.000169538 -3.58218e-05
internal_weight=0 605798 394202 264813 340985
internal_count=1000000 605798 394202 264813 340985
is_linear=0
shrinkage=0.001


Tree=87
num_leaves=6
num_cat=0
split_feature=0 0 0 0 0
split_gain=13630.9 2598.86 2039.5 479.577 344.975
threshold=81851220.000000015 241514432.00000003 16286908.500000002 435275872.00000006 3469405.5000000005
decision_type=2 2 2 2 2
left_child=2 -2 4 -3 -1
right_child=1 3 -4 -5 -6
leaf_value=-0.0002338719761349175 6.8861966791396848e-05 0.00018977385549180794 -5.6177499547642287e-05 0.00030486779300492318 -0.00015149892635235799
leaf_weight=78978 285307 119480 321583 51943 142709
leaf_count=78978 285307 119480 321583 51943 142709
internal_value=0 0.000127333 -0.000107049 0.000224649 -0.000180845
internal_weight=0 456730 543270 171423 221687
internal_count=1000000 456730 543270 171423 221687
is_linear=0
shrinkage=0.001


Tree=88
num_leaves=6
num_cat=0
split_feature=0 0 0 0 0
split_gain=13604.9 2654.71 1982.29 471.797 375.058
threshold=103894332.00000001 21748076.000000004 291541328.00000006 4253764.5000000009 54802800.000000007
decision_type=2 2 2 2 2
left_child=1 3 -2 -1 -3
right_child=2 4 -4 -5 -6
leaf_value=-0.00022754454924430104 9.5514351050075911e-05 -6.6992157399839498e-05 0.00024705112963729621 -0.00013866745896658328 -5.4318274325642834e-07
leaf_weight=90996 266526 180679 127676 173817 160306
leaf_count=90996 266526 180679 127676 173817 160306
internal_value=0 -9.409e-05 0.000144595 -0.000169208 -3.57528e-05
internal_weight=0 605798 394202 264813 340985
internal_count=1000000 605798 394202 264813 340985
is_linear=0
shrinkage=0.001


Tree=89
num_leaves=6
num_cat=0
split_feature=0 0 0 0 0
split_gain=13577.7 2649.4 1978.32 470.854 374.309
threshold=103894332.00000001 21748076.000000004 291541328.00000006 4253764.5000000009 54802800.000000007
decision_type=2 2 2 2 2
left_child=1 3 -2 -1 -3
right_child=2 4 -4 -5 -6
leaf_value=-0.00022731700348663984 9.5418836620699042e-05 -6.6925164325728291e-05 0.0002468040738986391 -0.00013852879193442034 -5.4263941810181034e-07
leaf_weight=90996 266526 180679 127676 173817 160306
leaf_count=90996 266526 180679 127676 173817 160306
internal_value=0 -9.39959e-05 0.00014445 -0.000169039 -3.5717e-05
internal_weight=0 605798 394202 264813 340985
internal_count=1000000 605798 394202 264813 340985
is_linear=0
shrinkage=0.001


Tree=90
num_leaves=6
num_cat=0
split_feature=0 0 0 0 0
split_gain=13550.6 2360.04 2230.07 457.725 371.102
threshold=93773964.000000015 21228284.000000004 271805008.00000006 4253764.5000000009 163187808.00000003
decision_type=2 2 2 2 2
left_child=1 3 4 -1 -2
right_child=2 -3 -4 -5 -6
leaf_value=-0.00022708968556336598 5.0015631651593282e-05 -4.1487568781246139e-05 0.00023760967087578153 -0.00013919831115416032 0.00012324846424745245
leaf_weight=90996 148625 317564 143478 169859 129478
leaf_count=90996 148625 317564 143478 169859 129478
internal_value=0 -9.938e-05 0.000136352 -0.000169858 8.41111e-05
internal_weight=0 578419 421581 260855 278103
internal_count=1000000 578419 421581 260855 278103
is_linear=0
shrinkage=0.001


Tree=91
num_leaves=6
num_cat=0
split_feature=0 0 0 0 0
split_gain=13524.2 2579.62 2023.7 477.473 343.19
threshold=81851220.000000015 241514432.00000003 16286908.500000002 435275872.00000006 149382896.00000003
decision_type=2 2 2 2 2
left_child=2 4 -1 -3 -2
right_child=1 3 -4 -5 -6
leaf_value=-0.00018013882480206775 3.7887380406004201e-05 0.00018899028403507299 -5.5955189937873334e-05 0.00030383147092112876 0.0001077712833757644
leaf_weight=221687 160004 119480 321583 51943 125303
leaf_count=221687 160004 119480 321583 51943 125303
internal_value=0 0.000126834 -0.00010663 0.000223788 6.85795e-05
internal_weight=0 456730 543270 171423 285307
internal_count=1000000 456730 543270 171423 285307
is_linear=0
shrinkage=0.001


Tree=92
num_leaves=6
num_cat=0
split_feature=0 0 0 0 0
split_gain=13497.4 2633.99 1967.04 468.632 372.972
threshold=103894332.00000001 21748076.000000004 291541328.00000006 4253764.5000000009 54802800.000000007
decision_type=2 2 2 2 2
left_child=1 3 -2 -1 -3
right_child=2 4 -4 -5 -6
leaf_value=-0.00022668245853914022 9.5131157645280586e-05 -6.67607967995024e-05 0.00024608394856155512 -0.00013810396516020714 -4.968856739179426e-07
leaf_weight=90996 266526 180679 127676 173817 160306
leaf_count=90996 266526 180679 127676 173817 160306
internal_value=0 -9.37176e-05 0.000144022 -0.000168542 -3.56084e-05
internal_weight=0 605798 394202 264813 340985
internal_count=1000000 605798 394202 264813 340985
is_linear=0
shrinkage=0.001


Tree=93
num_leaves=6
num_cat=0
split_feature=0 0 0 0 0
split_gain=13470.7 2570.03 2015.81 476.059 342.137
threshold=81851220.000000015 241514432.00000003 16286908.500000002 435275872.00000006 149382896.00000003
decision_type=2 2 2 2 2
left_child=2 4 -1 -3 -2
right_child=1 3 -4 -5 -6
leaf_value=-0.00017978422587028957 3.7791733786117763e-05 0.00018861047503200922 -5.5843054401020832e-05 0.00030328155793943659 0.00010756837380046813
leaf_weight=221687 160004 119480 321583 51943 125303
leaf_count=221687 160004 119480 321583 51943 125303
internal_value=0 0.000126582 -0.000106419 0.000223357 6.84367e-05
internal_weight=0 456730 543270 171423 285307
internal_count=1000000 456730 543270 171423 285307
is_linear=0
shrinkage=0.001


Tree=94
num_leaves=6
num_cat=0
split_feature=0 0 0 0 0
split_gain=13444.1 2623.94 1959.46 467.37 371.816
threshold=103894332.00000001 21748076.000000004 291541328.00000006 4253764.5000000009 54802800.000000007
decision_type=2 2 2 2 2
left_child=1 3 -2 -1 -3
right_child=2 4 -4 -5 -6
leaf_value=-0.00022627599180206385 9.4940677769921129e-05 -6.6638194735956223e-05 0.00024560259717204346 -0.00013781682511744276 -4.7706701298368894e-07
leaf_weight=90996 266526 180679 127676 173817 160306
leaf_count=90996 266526 180679 127676 173817 160306
internal_value=0 -9.35324e-05 0.000143738 -0.000168213 -3.55341e-05
internal_weight=0 605798 394202 264813 340985
internal_count=1000000 605798 394202 264813 340985
is_linear=0
shrinkage=0.001


Tree=95
num_leaves=6
num_cat=0
split_feature=0 0 0 0 0
split_gain=13417.4 2560.49 2007.94 474.65 341.088
threshold=81851220.000000015 241514432.00000003 16286908.500000002 435275872.00000006 149382896.00000003
decision_type=2 2 2 2 2
left_child=2 4 -1 -3 -2
right_child=1 3 -4 -5 -6
leaf_value=-0.00017943031461952163 3.7696289235855487e-05 0.00018823142665033693 -5.573114188416504e-05 0.00030273266347718948 0.00010736586605147842
leaf_weight=221687 160004 119480 321583 51943 125303
leaf_count=221687 160004 119480 321583 51943 125303
internal_value=0 0.000126332 -0.000106208 0.000222927 6.82942e-05
internal_weight=0 456730 543270 171423 285307
internal_count=1000000 456730 543270 171423 285307
is_linear=0
shrinkage=0.001


Tree=96
num_leaves=6
num_cat=0
split_feature=0 0 0 0 0
split_gain=13391 2613.93 1951.92 466.112 370.678
threshold=103894332.00000001 21748076.000000004 291541328.00000006 4253764.5000000009 53855028.000000007
decision_type=2 2 2 2 2
left_child=1 3 -2 -1 -3
right_child=2 4 -4 -5 -6
leaf_value=-0.00022587028564689519 9.4750577887102103e-05 -6.725619124476027e-05 0.00024512218169571871 -0.00013753026975751821 -1.2709689615413309e-06
leaf_weight=90996 266526 176675 127676 173817 164310
leaf_count=90996 266526 176675 127676 173817 164310
internal_value=0 -9.33475e-05 0.000143454 -0.000167886 -3.546e-05
internal_weight=0 605798 394202 264813 340985
internal_count=1000000 605798 394202 264813 340985
is_linear=0
shrinkage=0.001


Tree=97
num_leaves=6
num_cat=0
split_feature=0 0 0 0 0
split_gain=13364.4 2550.97 2000.1 473.245 340.229
threshold=81851220.000000015 241514432.00000003 16286908.500000002 435275872.00000006 3469405.5000000005
decision_type=2 2 2 2 2
left_child=2 -2 4 -3 -1
right_child=1 3 -4 -5 -6
leaf_value=-0.00023173796943288372 6.8152230945596137e-05 0.00018785312920581172 -5.5619615653982327e-05 0.00030218480742810104 -0.0001499335159501059
leaf_weight=78978 285307 119480 321583 51943 142709
leaf_count=78978 285307 119480 321583 51943 142709
internal_value=0 0.000126082 -0.000105998 0.000222497 -0.000179077
internal_weight=0 456730 543270 171423 221687
internal_count=1000000 456730 543270 171423 221687
is_linear=0
shrinkage=0.001


Tree=98
num_leaves=6
num_cat=0
split_feature=0 0 0 0 0
split_gain=13339 2603.73 1944.22 464.185 369.409
threshold=103894332.00000001 21748076.000000004 291541328.00000006 4253764.5000000009 53855028.000000007
decision_type=2 2 2 2 2
left_child=1 3 -2 -1 -3
right_child=2 4 -4 -5 -6
leaf_value=-0.00022542348047145173 9.4568025895506408e-05 -6.7133316299517986e-05 0.00024464269024460875 -0.00013726620696535871 -1.2611786868984918e-06
leaf_weight=90996 266526 176675 127676 173817 164310
leaf_count=90996 266526 176675 127676 173817 164310
internal_value=0 -9.31661e-05 0.000143175 -0.000167559 -3.53916e-05
internal_weight=0 605798 394202 264813 340985
internal_count=1000000 605798 394202 264813 340985
is_linear=0
shrinkage=0.001


Tree=99
num_leaves=6
num_cat=0
split_feature=0 0 0 0 0
split_gain=13312.4 2598.53 1940.33 463.258 368.678
threshold=103894332.00000001 21748076.000000004 291541328.00000006 4253764.5000000009 54802800.000000007
decision_type=2 2 2 2 2
left_child=1 3 -2 -1 -3
right_child=2 4 -4 -5 -6
leaf_value=-0.00022519805689115034 9.4473458049406267e-05 -6.6328738915594828e-05 0.00024439805365173974 -0.00013712894163154005 -4.4742660990060811e-07
leaf_weight=90996 266526 180679 127676 173817 160306
leaf_count=90996 266526 180679 127676 173817 160306
internal_value=0 -9.30729e-05 0.000143032 -0.000167392 -3.53562e-05
internal_weight=0 605798 394202 264813 340985
internal_count=1000000 605798 394202 264813 340985
is_linear=0
shrinkage=0.001


Tree=100
num_leaves=6
num_cat=0
split_feature=0 0 0 0 0
split_gain=13285.8 2593.33 1936.45 462.331 367.951
threshold=103894332.00000001 21748076.000000004 291541328.00000006 4253764.5000000009 53855028.000000007
decision_type=2 2 2 2 2
left_child=1 3 -2 -1 -3
right_child=2 4 -4 -5 -6
leaf_value=-0.00022497285839064742 9.4378984684217123e-05 -6.6999855366995143e-05 0.00024415365658017737 -0.00013699181425278183 -1.257865229810654e-06
leaf_weight=90996 266526 176675 127676 173817 164310
leaf_count=90996 266526 176675 127676 173817 164310
internal_value=0 -9.29799e-05 0.000142889 -0.000167224 -3.53208e-05
internal_weight=0 605798 394202 264813 340985
internal_count=1000000 605798 394202 264813 340985
is_linear=0
shrinkage=0.001


Tree=101
num_leaves=6
num_cat=0
split_feature=0 0 0 0 0
split_gain=13259.6 2296.33 2200.61 453.417 362.358
threshold=89701976.000000015 245754208.00000003 17243831.000000004 435275872.00000006 43434586.000000007
decision_type=2 2 2 2 2
left_child=2 -2 -1 -3 -4
right_child=1 3 4 -5 -6
leaf_value=-0.00017614510717063546 7.4008273357446583e-05 0.00018861649082629198 -8.2934264163131313e-05 0.00030114944011091864 -1.7353028974408157e-05
leaf_weight=229656 265893 115240 163944 51943 173324
leaf_count=229656 265893 115240 163944 51943 173324
internal_value=0 0.000131748 -0.000100643 0.00022358 -4.92317e-05
internal_weight=0 433076 566924 167183 337268
internal_count=1000000 433076 566924 167183 337268
is_linear=0
shrinkage=0.001


Tree=102
num_leaves=6
num_cat=0
split_feature=0 0 0 0 0
split_gain=13234.1 2662.65 1858.02 461.209 389.681
threshold=107019680.00000001 21748076.000000004 291541328.00000006 4253764.5000000009 54802800.000000007
decision_type=2 2 2 2 2
left_child=1 3 -2 -1 -3
right_child=2 4 -4 -5 -6
leaf_value=-0.00022457173977099667 9.6252053858042998e-05 -6.6132765478368703e-05 0.00024367510291069394 -0.00013669752683563544 7.6315964761604336e-07
leaf_weight=90996 258743 180679 127676 173817 168089
leaf_count=90996 258743 180679 127676 173817 168089
internal_value=0 -9.12936e-05 0.000144962 -0.000166893 -3.38922e-05
internal_weight=0 613581 386419 264813 348768
internal_count=1000000 613581 386419 264813 348768
is_linear=0
shrinkage=0.001


Tree=103
num_leaves=6
num_cat=0
split_feature=0 0 0 0 0
split_gain=13207.6 2657.32 1854.3 460.287 388.902
threshold=107019680.00000001 21748076.000000004 291541328.00000006 4253764.5000000009 54802800.000000007
decision_type=2 2 2 2 2
left_child=1 3 -2 -1 -3
right_child=2 4 -4 -5 -6
leaf_value=-0.00022434716967392279 9.6155801601650038e-05 -6.6066633691527611e-05 0.00024343142670587623 -0.0001365608315253585 7.6239900144494437e-07
leaf_weight=90996 258743 180679 127676 173817 168089
leaf_count=90996 258743 180679 127676 173817 168089
internal_value=0 -9.12023e-05 0.000144817 -0.000166726 -3.38583e-05
internal_weight=0 613581 386419 264813 348768
internal_count=1000000 613581 386419 264813 348768
is_linear=0
shrinkage=0.001


Tree=104
num_leaves=6
num_cat=0
split_feature=0 0 0 0 0
split_gain=13181.6 2518.94 1973.22 469.086 337.996
threshold=81851220.000000015 241514432.00000003 16286908.500000002 435275872.00000006 149382896.00000003
decision_type=2 2 2 2 2
left_child=2 4 -1 -3 -2
right_child=1 3 -4 -5 -6
leaf_value=-0.00017785667084570947 3.7192683580893963e-05 0.00018653301559555177 -5.5231759424228303e-05 0.00030036117348544202 0.00010654576303794039
leaf_weight=221687 160004 119480 321583 51943 125303
leaf_count=221687 160004 119480 321583 51943 125303
internal_value=0 0.000125216 -0.00010527 0.000221024 6.76516e-05
internal_weight=0 456730 543270 171423 285307
internal_count=1000000 456730 543270 171423 285307
is_linear=0
shrinkage=0.001


Tree=105
num_leaves=6
num_cat=0
split_feature=0 0 0 0 0
split_gain=13155.5 2647.17 1847.16 459.049 387.676
threshold=107019680.00000001 21748076.000000004 291541328.00000006 4253764.5000000009 54802800.000000007
decision_type=2 2 2 2 2
left_child=1 3 -2 -1 -3
right_child=2 4 -4 -5 -6
leaf_value=-0.00022394496501108372 9.5963619544181259e-05 -6.5945335845618588e-05 0.00024295515733160035 -0.00013627684091902648 7.7820438222050907e-07
leaf_weight=90996 258743 180679 127676 173817 168089
leaf_count=90996 258743 180679 127676 173817 168089
internal_value=0 -9.10221e-05 0.000144531 -0.000166402 -3.37879e-05
internal_weight=0 613581 386419 264813 348768
internal_count=1000000 613581 386419 264813 348768
is_linear=0
shrinkage=0.001


Tree=106
num_leaves=6
num_cat=0
split_feature=0 0 0 0 0
split_gain=13129.5 2509.54 1965.51 467.705 336.913
threshold=81851220.000000015 241514432.00000003 16286908.500000002 435275872.00000006 149382896.00000003
decision_type=2 2 2 2 2
left_child=2 4 -1 -3 -2
right_child=1 3 -4 -5 -6
leaf_value=-0.00017750655468098747 3.710135484671564e-05 0.00018615735022536352 -5.5121436718567413e-05 0.00029981785271467027 0.00010634325480124536
leaf_weight=221687 160004 119480 321583 51943 125303
leaf_count=221687 160004 119480 321583 51943 125303
internal_value=0 0.000124969 -0.000105062 0.000220598 6.75115e-05
internal_weight=0 456730 543270 171423 285307
internal_count=1000000 456730 543270 171423 285307
is_linear=0
shrinkage=0.001


Tree=107
num_leaves=6
num_cat=0
split_feature=0 0 0 0 0
split_gain=13103.6 2637.05 1840.04 457.813 386.453
threshold=107019680.00000001 21748076.000000004 291541328.00000006 4253764.5000000009 54802800.000000007
decision_type=2 2 2 2 2
left_child=1 3 -2 -1 -3
right_child=2 4 -4 -5 -6
leaf_value=-0.00022354351455271176 9.5771822066107151e-05 -6.582427157398094e-05 0.00024247979698912523 -0.00013599342014543019 7.9397353145746254e-07
leaf_weight=90996 258743 180679 127676 173817 168089
leaf_count=90996 258743 180679 127676 173817 168089
internal_value=0 -9.08423e-05 0.000144245 -0.000166078 -3.37176e-05
internal_weight=0 613581 386419 264813 348768
internal_count=1000000 613581 386419 264813 348768
is_linear=0
shrinkage=0.001


Tree=108
num_leaves=6
num_cat=0
split_feature=0 0 0 0 0
split_gain=13077.6 2500.18 1957.83 466.329 335.834
threshold=81851220.000000015 241514432.00000003 16286908.500000002 435275872.00000006 149382896.00000003
decision_type=2 2 2 2 2
left_child=2 4 -1 -3 -2
right_child=1 3 -4 -5 -6
leaf_value=-0.00017715711937073259 3.7010214211560633e-05 0.0001857824276780585 -5.5011337142690988e-05 0.00029927556368702441 0.00010614113721302118
leaf_weight=221687 160004 119480 321583 51943 125303
leaf_count=221687 160004 119480 321583 51943 125303
internal_value=0 0.000124722 -0.000104854 0.000220172 6.73716e-05
internal_weight=0 456730 543270 171423 285307
