tree
version=v3
num_class=1
num_tree_per_iteration=1
label_index=0
max_feature_idx=1
objective=regression
feature_names=s t
feature_infos=[2:960978816] [40:994753856]
tree_sizes=700 729 727 723 726 725 726 720 721 726 720 729 722 727 729 725 728 729 722 728 729 728 726 727 725 725 728 730 723 730 725 727 728 728 729 728 728 723 727 727 726 724 726 725 729 732 724 729 724 727 726 729 732 724 727 726 728 728 730 730 729 728 729 721 729 726 727 725 727 724 728 731 730 728 728 728 730 733 729 730 725 730 729 723 727 732 731 730 731 732 730 730 727 732 729 730 730 722 731 732 729 726 723 734 731 725 731 732 723 732 730 728 731 726 730 729 730 725 734 725 729 729 728 729 733 727 728 730 730 731 734 732 732 730 729 731 730 724 731 729 731 729 731 731 733 736 724 730 731 731 734 730 731 730 723 731 732 731 729 727 726 732 727 731 732 731 725 734 723 729 733 733 729 725 726 732 733 726 732 732 723 732 730 733 732 725 724 731 725 731 728 726 729 730 725 728 724 733 730 725 730 725 730 727 727 727 724 730 724 727 730 725 729 725 729 730 726 723 726 731 722 729 725 729 726 725 724 728 725 725 723 729 730 726 720 729 726 725 727 724 731 729 724 724 729 733 724 726 728 724 726 726 729 727 730 726 726 725 728 725 729 724 728 725 727 726 727 722 728 726 727 727 729 728 726 724 727 727 723 724 726 723 726 731 728 732 724 727 726 725 726 726 722 727 728 732 731 734 721 728 732 723 726 726 726 722 724 726 727 733 733 724 727 725 732 729 733 721 732 731 721 729 722 723 728 729 721 725 729 732 729 732 727 733 731 723 729 727 727 727 720 730 731 732 731 725 734 726 728 723 729 732 723 724 722 731 724 733 731 729 724 728 724 725 733 722 726 724 727 724 731 734 723 732 722 728 730 725 726 728 725 735 725 729 724 730 732 732 734 725 721 733 732 734 735 725 726 724 722 725 724 724 724 734 728 724 727 726 729 725 727 727 726 734 734 725 734 733 733 726 727 731 723 734 722 734 730 727 733 729 727 729 724 725 732 733 727 732 727 731 732 726 734 727 724 728 736 736 732 734 725 729 725 731 728 727 729 726 735 733 722 734 728 726 730 723 738 731 728 728 727 732 735 724 737 732 729 721 727 724 734 728 727 727 738 733 723 727 727 734 728 726 725 735 735 736 726 723 736 721 729 725 728 728 729 727 723 728 737 737 727 730 736 725 738 726 730 725 736 732 730 726 731 737 732 724 735 730 732 731 736 735 735 733 726 735 724 736 727 728 727 730 729 636 727 736 734 739 733 731 728 732 728 633 736 634 726 636 632 739 733 724 627 638 634 724 636 734 729 635 635 731 736 734 636 729 635 632 535 733 730 731 631 734 629 634 729 633 735 730 628 732 636 535 728 732 636 533 731 632 732 537 535 730 735 538 735 538 733 730 633 536 732 634 732 538 536 538 439 535 535 536 636 730 440 437 733 731 632 435 540 436 733 538 435 439 437 536 440 436 731 438 436 536 630 435 439 437 726 436 439 436 440 438 534 438 440 435 440 438 438 437 442 339 439 339 339 338 339 338 534 339 339 339 726 338 436 536 534 339 534 339 532 339 537 339 339 339 339 337 339 338 338 339 339 339 532 339 339 339 534 338 339 339 534 337 339 727 337 337 339 336 336 339 337

Tree=0
num_leaves=6
num_cat=0
split_feature=0 0 0 0 0
split_gain=16204.7 2747.47 2729.17 461.94 431.797
threshold=91026120.000000015 258304760.00000003 17243831.000000004 435275872.00000006 45068314.000000007
decision_type=2 2 2 2 2
left_child=2 -2 -1 -3 -4
right_child=1 3 4 -5 -6
leaf_value=0.49829833434097837 0.50111079685065663 0.50238902495383631 0.49935566121912212 0.50354515190809479 0.5000672947017718
leaf_weight=229656 274049 103271 171975 51943 169106
leaf_count=229656 274049 103271 171975 51943 169106
internal_value=0.500245 0.501713 0.499141 0.502776 0.499708
internal_weight=0 429263 570737 155214 341081
internal_count=1000000 429263 570737 155214 341081
is_linear=0
shrinkage=1


Tree=1
num_leaves=6
num_cat=0
split_feature=0 0 0 0 0
split_gain=15882.2 2693.14 2674.86 440.706 423.204
threshold=91026120.000000015 271805008.00000006 17243831.000000004 163187808.00000003 45068314.000000007
decision_type=2 2 2 2 2
left_child=2 3 -1 -2 -4
right_child=1 -3 4 -5 -6
leaf_value=-0.0019272461681755662 0.00053451632368981547 0.0025710313477124202 -0.00088049256840336894 0.0013233890615707545 -0.0001759754061633779
leaf_weight=229656 156307 143478 171975 129478 169106
leaf_count=229656 156307 143478 171975 129478 169106
internal_value=0 0.00145315 -0.00109295 0.000891924 -0.000531197
internal_weight=0 429263 570737 285785 341081
internal_count=1000000 429263 570737 285785 341081
is_linear=0
shrinkage=0.01


Tree=2
num_leaves=6
num_cat=0
split_feature=0 0 0 0 0
split_gain=15566.8 2705.48 2555.21 443.35 403.32
threshold=93773964.000000015 17243831.000000004 271805008.00000006 45068314.000000007 165574400.00000003
decision_type=2 2 2 2 2
left_child=1 -1 4 -3 -2
right_child=2 3 -4 -5 -6
leaf_value=-0.0019079736841987665 0.00055690825051467232 -0.00087168760987055272 0.0025453210359829134 -0.0001585399008776885 0.0013221987519643843
leaf_weight=229656 152610 171975 143478 176788 125493
leaf_count=229656 152610 171975 143478 176788 125493
internal_value=0 -0.00106517 0.00146144 -0.000510193 0.000902243
internal_weight=0 578419 421581 348763 278103
internal_count=1000000 578419 421581 348763 278103
is_linear=0
shrinkage=0.01


Tree=3
num_leaves=6
num_cat=0
split_feature=0 0 0 0 0
split_gain=15257.7 2589.43 2569.17 468.845 406.344
threshold=91026120.000000015 254123976.00000003 17243831.000000004 435275872.00000006 45068314.000000007
decision_type=2 2 2 2 2
left_child=2 -2 -1 -3 -4
right_child=1 3 4 -5 -6
leaf_value=-0.0018888939423143958 0.00082816462896033146 0.0020583585062410301 -0.0008629707288167433 0.003215939610245622 -0.00017263027749864462
leaf_weight=229656 270126 107194 171975 51943 169106
leaf_count=229656 270126 107194 171975 51943 169106
internal_value=0 0.0014243 -0.00107124 0.0024362 -0.000520704
internal_weight=0 429263 570737 159137 341081
internal_count=1000000 429263 570737 159137 341081
is_linear=0
shrinkage=0.01


Tree=4
num_leaves=6
num_cat=0
split_feature=0 0 0 0 0
split_gain=14955.8 2600.21 2455.95 491.883 393.776
threshold=93773964.000000015 21228284.000000004 271805008.00000006 4253764.5000000009 163187808.00000003
decision_type=2 2 2 2 2
left_child=1 3 4 -1 -2
right_child=2 -3 -4 -5 -6
leaf_value=-0.0023771175493816389 0.00053303028868937404 -0.00043638859385164387 0.0024950934584000244 -0.0014659984837065074 0.0012873992474632218
leaf_weight=90996 148625 317564 143478 169859 129478
leaf_count=90996 148625 317564 143478 169859 129478
internal_value=0 -0.00104406 0.00143247 -0.00178383 0.000884246
internal_weight=0 578419 421581 260855 278103
internal_count=1000000 578419 421581 260855 278103
is_linear=0
shrinkage=0.01


Tree=5
num_leaves=6
num_cat=0
split_feature=0 0 0 0 0
split_gain=14659.8 2531.73 2430.65 493.543 410.583
threshold=89701976.000000015 245754208.00000003 16286908.500000002 435275872.00000006 43434586.000000007
decision_type=2 2 2 2 2
left_child=2 -2 -1 -3 -4
right_child=1 3 4 -5 -6
leaf_value=-0.0018753612207684759 0.00077902772102686067 0.0019847608330840543 -0.00087981163637698104 0.0031588293779991998 -0.00019008711813896893
leaf_weight=221687 265893 115240 171913 51943 173324
leaf_count=221687 265893 115240 171913 51943 173324
internal_value=0 0.0013853 -0.00105824 0.00234954 -0.00053354
internal_weight=0 433076 566924 167183 345237
internal_count=1000000 433076 566924 167183 345237
is_linear=0
shrinkage=0.01


Tree=6
num_leaves=6
num_cat=0
split_feature=0 0 0 0 0
split_gain=14371.6 2586.42 2280.03 479.644 375.756
threshold=96655504.000000015 21228284.000000004 276509440.00000006 4253764.5000000009 170387368.00000003
decision_type=2 2 2 2 2
left_child=1 3 4 -1 -2
right_child=2 -3 -4 -5 -6
leaf_value=-0.0023345927731047091 0.00056674644362075788 -0.00041231381143292002 0.0024680007259737131 -0.0014348805667866791 0.0013119722200370498
leaf_weight=90996 152370 325541 139533 169859 121701
leaf_count=90996 152370 325541 139533 169859 121701
internal_value=0 -0.00100681 0.00142743 -0.00174873 0.000897663
internal_weight=0 586396 413604 260855 274071
internal_count=1000000 586396 413604 260855 274071
is_linear=0
shrinkage=0.01


Tree=7
num_leaves=6
num_cat=0
split_feature=0 0 0 0 0
split_gain=14089.3 2683.3 2107.86 481.416 370.1
threshold=81851220.000000015 245754208.00000003 16286908.500000002 435275872.00000006 149382896.00000003
decision_type=2 2 2 2 2
left_child=2 4 -1 -3 -2
right_child=1 3 -4 -5 -6
leaf_value=-0.0018385657549880919 0.00039044051914856093 0.0019430069105285566 -0.00057116969850980171 0.003102561097025839 0.0011094703288671171
leaf_weight=221687 160004 115240 321583 51943 129543
leaf_count=221687 160004 115240 321583 51943 129543
internal_value=0 0.00129456 -0.00108834 0.00230328 0.000712134
internal_weight=0 456730 543270 167183 289547
internal_count=1000000 456730 543270 167183 289547
is_linear=0
shrinkage=0.01


Tree=8
num_leaves=6
num_cat=0
split_feature=0 0 0 0 0
split_gain=13810.2 2384.15 2290.88 454.894 373.01
threshold=89701976.000000015 249869896.00000003 17243831.000000004 435275872.00000006 3469405.5000000005
decision_type=2 2 2 2 2
left_child=2 -2 4 -3 -1
right_child=1 3 -4 -5 -6
leaf_value=-0.0023541309580807812 0.00076771532503770864 0.0019380449403173761 -0.0005025631817844276 0.0030715354313692969 -0.0015056913842304293
leaf_weight=78978 269924 111209 337268 51943 150678
leaf_count=78978 269924 111209 337268 51943 150678
internal_value=0 0.00134456 -0.00102712 0.00229892 -0.00179747
internal_weight=0 433076 566924 163152 229656
internal_count=1000000 433076 566924 163152 229656
is_linear=0
shrinkage=0.01


Tree=9
num_leaves=6
num_cat=0
split_feature=0 0 0 0 0
split_gain=13544 2644.64 1974.71 469.423 376.163
threshold=103894332.00000001 21748076.000000004 291541328.00000006 4253764.5000000009 54802800.000000007
decision_type=2 2 2 2 2
left_child=1 3 -2 -1 -3
right_child=2 4 -4 -5 -6
leaf_value=-0.0022704404149628925 0.00095283782563418482 -0.00066937708678873752 0.0024653091315907185 -0.0013839083916800795 -3.9093310092929863e-06
leaf_weight=90996 266526 180679 127676 173817 160306
leaf_count=90996 266526 180679 127676 173817 160306
internal_value=0 -0.00093879 0.0014427 -0.00168854 -0.000356523
internal_weight=0 605798 394202 264813 340985
internal_count=1000000 605798 394202 264813 340985
is_linear=0
shrinkage=0.01


Tree=10
num_leaves=6
num_cat=0
split_feature=0 0 0 0 0
split_gain=13276.8 2533.6 1985.53 475.322 337.6
threshold=81851220.000000015 241514432.00000003 16286908.500000002 435275872.00000006 149382896.00000003
decision_type=2 2 2 2 2
left_child=2 4 -1 -3 -2
right_child=1 3 -4 -5 -6
leaf_value=-0.0017846225267117652 0.00037494735476591818 0.0018703438013746351 -0.00055455516206852535 0.003016166897347506 0.0010680718839951291
leaf_weight=221687 160004 119480 321583 51943 125303
leaf_count=221687 160004 119480 321583 51943 125303
internal_value=0 0.00125668 -0.0010565 0.00221754 0.000679358
internal_weight=0 456730 543270 171423 285307
internal_count=1000000 456730 543270 171423 285307
is_linear=0
shrinkage=0.01


Tree=11
num_leaves=6
num_cat=0
split_feature=0 0 0 0 0
split_gain=13016.2 2623.54 1829.97 456.887 387.568
threshold=107019680.00000001 21748076.000000004 291541328.00000006 4253764.5000000009 54802800.000000007
decision_type=2 2 2 2 2
left_child=1 3 -2 -1 -3
right_child=2 4 -4 -5 -6
leaf_value=-0.0022298898039387789 0.00095422882911310575 -0.00065713777605775692 0.0024172909997131576 -0.0013552750080124657 1.0005387534318046e-05
leaf_weight=90996 258743 180679 127676 173817 168089
leaf_count=90996 258743 180679 127676 173817 168089
internal_value=0 -0.00090539 0.00143764 -0.00165581 -0.000335608
internal_weight=0 613581 386419 264813 348768
internal_count=1000000 613581 386419 264813 348768
is_linear=0
shrinkage=0.01


Tree=12
num_leaves=6
num_cat=0
split_feature=0 0 0 0 0
split_gain=12759.1 2440.24 1908.91 461.474 329.331
threshold=81851220.000000015 241514432.00000003 16286908.500000002 435275872.00000006 3469405.5000000005
decision_type=2 2 2 2 2
left_child=2 -2 4 -3 -1
right_child=1 3 -4 -5 -6
leaf_value=-0.0022677401194096856 0.0006653494088054195 0.0018328243946002002 -0.0005435304676317729 0.0029618324452400889 -0.0014629030116094493
leaf_weight=78978 285307 119480 321583 51943 142709
leaf_count=78978 285307 119480 321583 51943 142709
internal_value=0 0.00123193 -0.00103569 0.00217493 -0.00174963
internal_weight=0 456730 543270 171423 221687
internal_count=1000000 456730 543270 171423 221687
is_linear=0
shrinkage=0.01


Tree=13
num_leaves=6
num_cat=0
split_feature=0 0 0 0 0
split_gain=12519 2523.02 1758.33 461.26 350.309
threshold=107019680.00000001 22803748.000000004 291541328.00000006 4785164.0000000009 54802800.000000007
decision_type=2 2 2 2 2
left_child=1 3 -2 -1 -3
right_child=2 4 -4 -5 -6
leaf_value=-0.0021506287670145156 0.00093605913460562855 -0.00063069217894304113 0.0023701967147823975 -0.0012949127153672533 1.0283977516991471e-05
leaf_weight=98874 258743 173040 127676 173578 168089
leaf_count=98874 258743 173040 127676 173578 168089
internal_value=0 -0.000887928 0.00140991 -0.00160546 -0.000314856
internal_weight=0 613581 386419 272452 341129
internal_count=1000000 613581 386419 272452 341129
is_linear=0
shrinkage=0.01


Tree=14
num_leaves=6
num_cat=0
split_feature=0 0 0 0 0
split_gain=12270 2398.65 1788.95 429.942 345.339
threshold=103894332.00000001 21748076.000000004 291541328.00000006 4253764.5000000009 53855028.000000007
decision_type=2 2 2 2 2
left_child=1 3 -2 -1 -3
right_child=2 4 -4 -5 -6
leaf_value=-0.0021644701729953151 0.00090692025668234061 -0.00064592290969125315 0.0023464946904821616 -0.0013160373325938857 -9.0236667877910648e-06
leaf_weight=90996 266526 176675 127676 173817 164310
leaf_count=90996 266526 176675 127676 173817 164310
internal_value=0 -0.000893547 0.00137318 -0.00160758 -0.000339021
internal_weight=0 605798 394202 264813 340985
internal_count=1000000 605798 394202 264813 340985
is_linear=0
shrinkage=0.01


Tree=15
num_leaves=6
num_cat=0
split_feature=0 0 0 0 0
split_gain=12028 2423.63 1688.91 443.474 336.184
threshold=107019680.00000001 22803748.000000004 296857344.00000006 4785164.0000000009 54802800.000000007
decision_type=2 2 2 2 2
left_child=1 3 -2 -1 -3
right_child=2 4 -4 -5 -6
leaf_value=-0.0021081537970752771 0.0009281740116526859 -0.00061807339006789792 0.0023450857089949519 -0.0012690981202948429 9.8472174197083501e-06
leaf_weight=98874 262656 173040 123763 173578 168089
leaf_count=98874 262656 173040 123763 173578 168089
internal_value=0 -0.000870342 0.00138199 -0.0015736 -0.00030867
internal_weight=0 613581 386419 272452 341129
internal_count=1000000 613581 386419 272452 341129
is_linear=0
shrinkage=0.01


Tree=16
num_leaves=6
num_cat=0
split_feature=0 0 0 0 0
split_gain=11788.6 2376.43 1655.73 495.537 309.789
threshold=107019680.00000001 25698669.000000004 291541328.00000006 5921818.0000000009 180645128.00000003
decision_type=2 2 2 2 2
left_child=1 3 4 -1 -2
right_child=2 -3 -4 -5 -6
leaf_value=-0.0020263457727214482 0.00059150058440288157 -0.00026766830535057798 0.0023000131772875731 -0.0011832152536944785 0.001286221646762571
leaf_weight=114647 140736 321093 127676 177841 118007
leaf_count=114647 140736 321093 127676 177841 118007
internal_value=0 -0.000861639 0.00136817 -0.0015137 0.000908348
internal_weight=0 613581 386419 292488 258743
internal_count=1000000 613581 386419 292488 258743
is_linear=0
shrinkage=0.01


Tree=17
num_leaves=6
num_cat=0
split_feature=0 0 0 0 0
split_gain=11566.9 2263.19 1702.18 478.892 307.805
threshold=80654088.000000015 230543824.00000003 14889657.000000002 423909472.00000006 39614036.000000007
decision_type=2 2 2 2 2
left_child=2 -2 -1 -3 -4
right_child=1 3 4 -5 -6
leaf_value=-0.0016981007792161906 0.00059455223419122678 0.0016874533394641597 -0.00085209163842053055 0.0027976212309100195 -0.00024086238162942915
leaf_weight=209780 277612 127083 164384 55969 165172
leaf_count=209780 277612 127083 164384 55969 165172
internal_value=0 0.00116371 -0.000993966 0.00202689 -0.000545746
internal_weight=0 460664 539336 183052 329556
internal_count=1000000 460664 539336 183052 329556
is_linear=0
shrinkage=0.01


Tree=18
num_leaves=6
num_cat=0
split_feature=0 0 0 0 0
split_gain=11338.6 2045.44 1808.94 393.939 360.69
threshold=96655504.000000015 21228284.000000004 262687568.00000003 3732904.0000000005 473483808.00000006
decision_type=2 2 2 2 2
left_child=1 3 -2 -1 -4
right_child=2 -3 4 -5 -6
leaf_value=-0.002122188500973966 0.00076556995136707585 -0.00036560560289079053 0.0018454668074483649 -0.0012882487838342673 0.0029518068009035908
leaf_weight=83149 262282 325541 111233 177706 40089
leaf_count=83149 262282 325541 111233 177706 40089
internal_value=0 -0.000894288 0.0012679 -0.00155407 0.00213856
internal_weight=0 586396 413604 260855 151322
internal_count=1000000 586396 413604 260855 151322
is_linear=0
shrinkage=0.01


Tree=19
num_leaves=6
num_cat=0
split_feature=0 0 0 0 0
split_gain=11121.1 2176.84 1636.84 460.335 379.624
threshold=80654088.000000015 230543824.00000003 11504040.000000002 423909472.00000006 39614036.000000007
decision_type=2 2 2 2 2
left_child=2 -2 -1 -3 -4
right_child=1 3 4 -5 -6
leaf_value=-0.001759718711434961 0.00058286852896757477 0.0016548204197861026 -0.00088541528231099746 0.0027432660663239006 -0.00023479769941043584
leaf_weight=177943 277612 127083 196221 55969 165172
leaf_count=177943 277612 127083 196221 55969 165172
internal_value=0 0.00114107 -0.000974622 0.00198762 -0.000588055
internal_weight=0 460664 539336 183052 361393
internal_count=1000000 460664 539336 183052 361393
is_linear=0
shrinkage=0.01


Tree=20
num_leaves=6
num_cat=0
split_feature=0 0 0 0 0
split_gain=10910.8 2194.53 1532.69 465.803 320.67
threshold=107019680.00000001 25698669.000000004 302391392.00000006 5921818.0000000009 180645128.00000003
decision_type=2 2 2 2 2
left_child=1 3 4 -1 -2
right_child=2 -3 -4 -5 -6
leaf_value=-0.0019525733807135319 0.00056615568521589644 -0.00025814927978284717 0.0022560039516452486 -0.0011351293158201185 0.0012607833931591065
leaf_weight=114647 140736 321093 119760 177841 125923
leaf_count=114647 140736 321093 119760 177841 125923
internal_value=0 -0.000828936 0.00131624 -0.00145554 0.000894176
internal_weight=0 613581 386419 292488 266659
internal_count=1000000 613581 386419 292488 266659
is_linear=0
shrinkage=0.01


Tree=21
num_leaves=6
num_cat=0
split_feature=0 0 0 0 0
split_gain=10695.9 2057.52 1601.7 447.033 279.763
threshold=81851220.000000015 230543824.00000003 15805039.500000002 423909472.00000006 40391296.000000007
decision_type=2 2 2 2 2
left_child=2 -2 -1 -3 -4
right_child=1 3 4 -5 -6
leaf_value=-0.0016123704807966027 0.00057901825714852539 0.0016206687634327777 -0.00080160331463998606 0.0026932733386088119 -0.00021530163963551113
leaf_weight=217663 273678 127083 160509 55969 165098
leaf_count=217663 273678 127083 160509 55969 165098
internal_value=0 0.00112794 -0.000948265 0.00194862 -0.000504321
internal_weight=0 456730 543270 183052 325607
internal_count=1000000 456730 543270 183052 325607
is_linear=0
shrinkage=0.01


Tree=22
num_leaves=6
num_cat=0
split_feature=0 0 0 0 0
split_gain=10493.1 2107.28 1474 452.693 322.861
threshold=107019680.00000001 25698669.000000004 307742960.00000006 5921818.0000000009 180645128.00000003
decision_type=2 2 2 2 2
left_child=1 3 4 -1 -2
right_child=2 -3 -4 -5 -6
leaf_value=-0.0019169239531102789 0.00055470393433951909 -0.00025358955290589232 0.0022341216517706964 -0.0011110655637012292 0.0012462682627961093
leaf_weight=114647 140736 321093 115943 177841 129740
leaf_count=114647 140736 321093 115943 177841 129740
internal_value=0 -0.000812914 0.0012908 -0.00142694 0.000886429
internal_weight=0 613581 386419 292488 270476
internal_count=1000000 613581 386419 292488 270476
is_linear=0
shrinkage=0.01


Tree=23
num_leaves=6
num_cat=0
split_feature=0 0 0 0 0
split_gain=10287.1 2007.56 1516.67 434.478 361.488
threshold=80654088.000000015 230543824.00000003 11117599.500000002 447301824.00000006 39614036.000000007
decision_type=2 2 2 2 2
left_child=2 -2 -1 -3 -4
right_child=1 3 4 -5 -6
leaf_value=-0.001705541963542364 0.0005613925411663206 0.0016203142413903548 -0.00085710842389378529 0.0027285837155897052 -0.00022503704026277858
leaf_weight=174069 277612 135136 200095 47916 165172
leaf_count=174069 277612 135136 200095 47916 165172
internal_value=0 0.00109745 -0.000937365 0.00191042 -0.000571289
internal_weight=0 460664 539336 183052 365267
internal_count=1000000 460664 539336 183052 365267
is_linear=0
shrinkage=0.01


Tree=24
num_leaves=6
num_cat=0
split_feature=0 0 0 0 0
split_gain=10091.9 2025.32 1417.63 373.816 314.043
threshold=107019680.00000001 21748076.000000004 307742960.00000006 3469405.5000000005 53855028.000000007
decision_type=2 2 2 2 2
left_child=1 3 -2 -1 -3
right_child=2 4 -4 -5 -6
leaf_value=-0.0020328925918508098 0.00086932303299078369 -0.00059275622446698 0.0021909971361150811 -0.0012116300471107493 7.4405658479474257e-06
leaf_weight=78978 270476 176675 115943 185835 172093
leaf_count=78978 270476 176675 115943 185835 172093
internal_value=0 -0.000797224 0.00126588 -0.00145656 -0.0002966
internal_weight=0 613581 386419 264813 348768
internal_count=1000000 613581 386419 264813 348768
is_linear=0
shrinkage=0.01


Tree=25
num_leaves=6
num_cat=0
split_feature=0 0 0 0 0
split_gain=9892.3 2083.26 1318.23 499.445 312.505
threshold=111821848.00000001 29918163.000000004 325723456.00000006 6244620.5000000009 180645128.00000003
decision_type=2 2 2 2 2
left_child=1 3 4 -1 -2
right_child=2 -3 -4 -5 -6
leaf_value=-0.0018485244944282068 0.00056129612995663115 -0.0001800297924804101 0.00224207549727684 -0.0010304518809436715 0.001241424538581028
leaf_weight=118832 129074 305789 103933 200622 141750
leaf_count=118832 129074 305789 103933 200622 141750
internal_value=0 -0.000770015 0.00128469 -0.00133476 0.000917277
internal_weight=0 625243 374757 319454 270824
internal_count=1000000 625243 374757 319454 270824
is_linear=0
shrinkage=0.01


Tree=26
num_leaves=6
num_cat=0
split_feature=0 0 0 0 0
split_gain=9701.02 1898.47 1432.29 427.806 331.384
threshold=80654088.000000015 227029520.00000003 11504040.000000002 394329200.00000006 39614036.000000007
decision_type=2 2 2 2 2
left_child=2 -2 -1 -3 -4
right_child=1 3 4 -5 -6
leaf_value=-0.0016446773218885546 0.00053540927589493779 0.0014810142175083157 -0.00082648966248072373 0.002475608941816997 -0.00021861438302172109
leaf_weight=177943 273810 118878 196221 67976 165172
leaf_count=177943 273810 118878 196221 67976 165172
internal_value=0 0.00106573 -0.000910272 0.00184284 -0.000548665
internal_weight=0 460664 539336 186854 361393
internal_count=1000000 460664 539336 186854 361393
is_linear=0
shrinkage=0.01


Tree=27
num_leaves=6
num_cat=0
split_feature=0 0 0 0 0
split_gain=9515.27 2000.39 1266.38 473.334 301.274
threshold=111821848.00000001 29327398.000000004 325723456.00000006 5921818.0000000009 180645128.00000003
decision_type=2 2 2 2 2
left_child=1 3 4 -1 -2
right_child=2 -3 -4 -5 -6
leaf_value=-0.0018279934678808649 0.00055032909866539921 -0.00018388768373200359 0.0021983396101829772 -0.0010228621379234832 0.0012181246149394224
leaf_weight=114647 129074 309498 103933 201098 141750
leaf_count=114647 129074 309498 103933 201098 141750
internal_value=0 -0.000755198 0.00125997 -0.00131521 0.000899855
internal_weight=0 625243 374757 315745 270824
internal_count=1000000 625243 374757 315745 270824
is_linear=0
shrinkage=0.01


Tree=28
num_leaves=6
num_cat=0
split_feature=0 0 0 0 0
split_gain=9333 1941.81 1288.2 427.131 281.641
threshold=75726548.000000015 223418488.00000003 11117599.500000002 435275872.00000006 35982844.000000007
decision_type=2 2 2 2 2
left_child=2 -2 -1 -3 -4
right_child=1 3 4 -5 -6
leaf_value=-0.0016247765576064999 0.00049062088220180931 0.0015039819667860745 -0.0008457637563701381 0.0025668631681183426 -0.00027746393777621089
leaf_weight=174069 285780 138945 180855 51943 168408
leaf_count=174069 285780 138945 180855 51943 168408
internal_value=0 0.00101226 -0.000921998 0.00179321 -0.00057174
internal_weight=0 476668 523332 190888 349263
internal_count=1000000 476668 523332 190888 349263
is_linear=0
shrinkage=0.01


Tree=29
num_leaves=6
num_cat=0
split_feature=0 0 0 0 0
split_gain=9154.23 1835.51 1285.16 348.081 288.521
threshold=107019680.00000001 21748076.000000004 302391392.00000006 3469405.5000000005 54802800.000000007
decision_type=2 2 2 2 2
left_child=1 3 -2 -1 -3
right_child=2 4 -4 -5 -6
leaf_value=-0.0019431039268352455 0.00081915978867086339 -0.00056011447694960688 0.0020661803977569683 -0.0011506148942070163 1.5502587925773534e-05
leaf_weight=78978 266659 180679 119760 185835 168089
leaf_count=78978 266659 180679 119760 185835 168089
internal_value=0 -0.000759284 0.00120564 -0.00138697 -0.000282695
internal_weight=0 613581 386419 264813 348768
internal_count=1000000 613581 386419 264813 348768
is_linear=0
shrinkage=0.01


Tree=30
num_leaves=6
num_cat=0
split_feature=0 0 0 0 0
split_gain=8974.63 1883.6 1195.39 397.503 288.521
threshold=111821848.00000001 25698669.000000004 325723456.00000006 4253764.5000000009 180645128.00000003
decision_type=2 2 2 2 2
left_child=1 3 4 -1 -2
right_child=2 -3 -4 -5 -6
leaf_value=-0.0018674370702120979 0.00053172798598070698 -0.00021883978869151802 0.002135342593261284 -0.0010711234633518033 0.0011852368505948254
leaf_weight=90996 129074 332755 103933 201492 141750
leaf_count=90996 129074 332755 103933 201492 141750
internal_value=0 -0.00073343 0.00122365 -0.00131886 0.000873776
internal_weight=0 625243 374757 292488 270824
internal_count=1000000 625243 374757 292488 270824
is_linear=0
shrinkage=0.01


Tree=31
num_leaves=6
num_cat=0
split_feature=0 0 0 0 0
split_gain=8804.5 1836.42 1216.86 456.729 265.152
threshold=75726548.000000015 209917296.00000003 11117599.500000002 394329200.00000006 35982844.000000007
decision_type=2 2 2 2 2
left_child=2 -2 -1 -3 -4
right_child=1 3 4 -5 -6
leaf_value=-0.0015785529553356114 0.00043969111724429492 0.0013633168157437222 -0.00082097321051153205 0.002363692533326715 -0.00026956033338669695
leaf_weight=174069 269807 138885 180855 67976 168408
leaf_count=174069 269807 138885 180855 67976 168408
internal_value=0 0.00098318 -0.000895513 0.00169205 -0.000555092
internal_weight=0 476668 523332 206861 349263
internal_count=1000000 476668 523332 206861 349263
is_linear=0
shrinkage=0.01


Tree=32
num_leaves=6
num_cat=0
split_feature=0 0 0 0 0
split_gain=8632.57 1810.63 1149.77 443.557 300.468
threshold=111821848.00000001 29918163.000000004 339082880.00000006 6244620.5000000009 194673640.00000003
decision_type=2 2 2 2 2
left_child=1 3 4 -1 -2
right_child=2 -3 -4 -5 -6
leaf_value=-0.0017299805923344782 0.00056785227640521586 -0.00016929028160190412 0.0021451515107546418 -0.00095903665115319237 0.0012256439779927057
leaf_weight=118832 148495 305789 95821 200622 130441
leaf_count=118832 148495 305789 95821 200622 130441
internal_value=0 -0.000719317 0.00120011 -0.00124582 0.00087546
internal_weight=0 625243 374757 319454 278936
internal_count=1000000 625243 374757 319454 278936
is_linear=0
shrinkage=0.01


Tree=33
num_leaves=6
num_cat=0
split_feature=0 0 0 0 0
split_gain=8469.2 1843.58 1111.45 441.019 238.478
threshold=72233408.000000015 209917296.00000003 10357868.500000002 394329200.00000006 35269996.000000007
decision_type=2 2 2 2 2
left_child=2 -2 -1 -3 -4
right_child=1 3 4 -5 -6
leaf_value=-0.0015705895460361042 0.0004152373593762037 0.0013355836766535292 -0.00082072245387330154 0.0023186040624553605 -0.00029375517234641344
leaf_weight=166385 281564 138885 184630 67976 160560
leaf_count=166385 281564 138885 184630 67976 160560
internal_value=0 0.000941839 -0.000899219 0.00165861 -0.000575611
internal_weight=0 488425 511575 206861 345190
internal_count=1000000 488425 511575 206861 345190
is_linear=0
shrinkage=0.01


Tree=34
num_leaves=6
num_cat=0
split_feature=0 0 0 0 0
split_gain=8305.38 1445.66 1376.91 334.345 269.651
threshold=93773964.000000015 17243831.000000004 245754208.00000003 473483808.00000006 45068314.000000007
decision_type=2 2 2 2 2
left_child=1 -1 -2 -4 -3
right_child=2 4 3 -5 -6
leaf_value=-0.0013941165614124577 0.00060419387614929401 -0.00065427447790592983 0.0015212936984038677 0.0025687077213446124 -9.8105339936268462e-05
leaf_weight=229656 254398 171975 127094 40089 176788
leaf_count=229656 254398 171975 127094 40089 176788
internal_value=0 -0.000778034 0.00106748 0.00177245 -0.000372352
internal_weight=0 578419 421581 167183 348763
internal_count=1000000 578419 421581 167183 348763
is_linear=0
shrinkage=0.01


Tree=35
num_leaves=6
num_cat=0
split_feature=0 0 0 0 0
split_gain=8146.58 1702.98 1084.76 424.73 284.891
threshold=111821848.00000001 29918163.000000004 339082880.00000006 5336944.5000000009 180645128.00000003
decision_type=2 2 2 2 2
left_child=1 3 4 -1 -2
right_child=2 -3 -4 -5 -6
leaf_value=-0.0017244338476355872 0.00050614096707494961 -0.00016535111220757217 0.0020837755036091873 -0.00095124358625334193 0.0011470943956462813
leaf_weight=106654 129074 305789 95821 212800 149862
leaf_count=106654 129074 305789 95821 212800 149862
internal_value=0 -0.000698776 0.00116584 -0.00120938 0.000850502
internal_weight=0 625243 374757 319454 278936
internal_count=1000000 625243 374757 319454 278936
is_linear=0
shrinkage=0.01


Tree=36
num_leaves=6
num_cat=0
split_feature=0 0 0 0 0
split_gain=7989.77 1661.05 1106.3 389.479 237.272
threshold=75726548.000000015 219939512.00000003 11117599.500000002 447301824.00000006 39614036.000000007
decision_type=2 2 2 2 2
left_child=2 -2 -1 -3 -4
right_child=1 3 4 -5 -6
leaf_value=-0.001504348144308585 0.00044575754056135888 0.0013912227095532763 -0.00075352892455543444 0.0024294554047398962 -0.00022661029435949622
leaf_weight=174069 281828 146924 200095 47916 149168
leaf_count=174069 281828 146924 200095 47916 149168
internal_value=0 0.000936586 -0.000853074 0.00164655 -0.000528485
internal_weight=0 476668 523332 194840 349263
internal_count=1000000 476668 523332 194840 349263
is_linear=0
shrinkage=0.01


Tree=37
num_leaves=6
num_cat=0
split_feature=0 0 0 0 0
split_gain=7837.1 1637.74 1043.96 326.977 284.614
threshold=111821848.00000001 22803748.000000004 346179072.00000006 3469405.5000000005 180645128.00000003
decision_type=2 2 2 2 2
left_child=1 3 4 -1 -2
right_child=2 -3 -4 -5 -6
leaf_value=-0.0018099782940953616 0.00049662199452947271 -0.00023561063798457484 0.0020703747557675911 -0.0010464248080759254 0.00113334068037511
leaf_weight=78978 129074 352791 91760 193474 153923
leaf_count=78978 129074 352791 91760 193474 153923
internal_value=0 -0.000685375 0.00114348 -0.00126776 0.000842935
internal_weight=0 625243 374757 272452 282997
internal_count=1000000 625243 374757 272452 282997
is_linear=0
shrinkage=0.01


Tree=38
num_leaves=6
num_cat=0
split_feature=0 0 0 0 0
split_gain=7690.03 1669.51 1011.54 414.136 214.144
threshold=72233408.000000015 206798200.00000003 10357868.500000002 394329200.00000006 35269996.000000007
decision_type=2 2 2 2 2
left_child=2 -2 -1 -3 -4
right_child=1 3 4 -5 -6
leaf_value=-0.0014973417557160372 0.00038838478639306674 0.001262808808741806 -0.00078040623284893868 0.0022112557816277045 -0.00028104785289128742
leaf_weight=166385 277797 142652 184630 67976 160560
leaf_count=166385 277797 142652 184630 67976 160560
internal_value=0 0.00089747 -0.000856857 0.0015689 -0.000548137
internal_weight=0 488425 511575 210628 345190
internal_count=1000000 488425 511575 210628 345190
is_linear=0
shrinkage=0.01


Tree=39
num_leaves=6
num_cat=0
split_feature=0 0 0 0 0
split_gain=7539.06 1573.1 1003.4 397.579 242.224
threshold=111821848.00000001 29918163.000000004 325723456.00000006 4785164.0000000009 178055640.00000003
decision_type=2 2 2 2 2
left_child=1 3 4 -1 -2
right_child=2 -3 -4 -5 -6
leaf_value=-0.0016898916883693862 0.00047859858039715905 -0.00015953601960094863 0.0019567981474703229 -0.00092677398422423422 0.0010784132945787868
leaf_weight=98874 125268 305789 103933 220580 145556
leaf_count=98874 125268 305789 103933 220580 145556
internal_value=0 -0.000672216 0.00112152 -0.00116297 0.000800973
internal_weight=0 625243 374757 319454 270824
internal_count=1000000 625243 374757 319454 270824
is_linear=0
shrinkage=0.01


Tree=40
num_leaves=6
num_cat=0
split_feature=0 0 0 0 0
split_gain=7399.19 1671.7 924.12 401.63 185.437
threshold=69008796.000000015 206798200.00000003 9970695.0000000019 447301824.00000006 33862624.000000007
decision_type=2 2 2 2 2
left_child=2 -2 -1 -3 -4
right_child=1 3 4 -5 -6
leaf_value=-0.0014800313820580125 0.00036692137259841575 0.0013011278915530371 -0.00078045342377541153 0.002342776545967359 -0.00031071399192208104
leaf_weight=162334 289237 162712 180683 47916 157118
leaf_count=162334 289237 162712 180683 47916 157118
internal_value=0 0.000860418 -0.000859953 0.00153809 -0.000561968
internal_weight=0 499865 500135 210628 337801
internal_count=1000000 499865 500135 210628 337801
is_linear=0
shrinkage=0.01


Tree=41
num_leaves=6
num_cat=0
split_feature=0 0 0 0 0
split_gain=7255.18 1370.28 1108.87 310.64 217.215
threshold=83182076.000000015 241514432.00000003 14889657.000000002 473483808.00000006 149382896.00000003
decision_type=2 2 2 2 2
left_child=2 4 -1 -3 -2
right_child=1 3 -4 -5 -6
leaf_value=-0.0013453661149009284 0.00025785243044956888 0.001406391771269536 -0.00041966286208837433 0.0024120762552079741 0.0008171337953928056
leaf_weight=209780 155772 131334 337722 40089 125303
leaf_count=209780 155772 131334 337722 40089 125303
internal_value=0 0.000936933 -0.000774354 0.00164158 0.00050718
internal_weight=0 452498 547502 171423 281075
internal_count=1000000 452498 547502 171423 281075
is_linear=0
shrinkage=0.01


Tree=42
num_leaves=6
num_cat=0
split_feature=0 0 0 0 0
split_gain=7114.96 1605.4 889.941 387.627 179.852
threshold=69008796.000000015 206798200.00000003 9970695.0000000019 385557376.00000006 33862624.000000007
decision_type=2 2 2 2 2
left_child=2 -2 -1 -3 -4
right_child=1 3 4 -5 -6
leaf_value=-0.0014517774095358016 0.00036011834325640191 0.0011988983940500128 -0.00076602143419170589 0.002103540133211906 -0.0003034102063108588
leaf_weight=162334 289237 138699 180683 71929 157118
leaf_count=162334 289237 138699 180683 71929 157118
internal_value=0 0.00084373 -0.000843274 0.00150783 -0.000550852
internal_weight=0 499865 500135 210628 337801
internal_count=1000000 499865 500135 210628 337801
is_linear=0
shrinkage=0.01


Tree=43
num_leaves=6
num_cat=0
split_feature=0 0 0 0 0
split_gain=6981.13 1455.65 930.829 292.082 250.179
threshold=111821848.00000001 21748076.000000004 346179072.00000006 2765608.5000000005 180645128.00000003
decision_type=2 2 2 2 2
left_child=1 3 4 -1 -2
right_child=2 -3 -4 -5 -6
leaf_value=-0.0017797696434297212 0.0004707484162709609 -0.00023328126360310151 0.0019544602492719983 -0.0010162733003685697 0.0010677083801876451
leaf_weight=67117 129074 360430 91760 197696 153923
leaf_count=67117 129074 360430 91760 197696 153923
internal_value=0 -0.000646865 0.00107923 -0.00120978 0.000795437
internal_weight=0 625243 374757 264813 282997
internal_count=1000000 625243 374757 264813 282997
is_linear=0
shrinkage=0.01


Tree=44
num_leaves=6
num_cat=0
split_feature=0 0 0 0 0
split_gain=6848.59 1539.97 855.47 375.511 172.871
threshold=69008796.000000015 206798200.00000003 9970695.0000000019 447301824.00000006 33862624.000000007
decision_type=2 2 2 2 2
left_child=2 -2 -1 -3 -4
right_child=1 3 4 -5 -6
leaf_value=-0.0014239402356236836 0.00035413141769592975 0.0012490819508815696 -0.00075158747514834012 0.0022562908451920953 -0.00029804329821179451
leaf_weight=162334 289237 162712 180683 47916 157118
leaf_count=162334 289237 162712 180683 47916 157118
internal_value=0 0.000827785 -0.000827339 0.00147821 -0.000540635
internal_weight=0 499865 500135 210628 337801
internal_count=1000000 499865 500135 210628 337801
is_linear=0
shrinkage=0.01


Tree=45
num_leaves=6
num_cat=0
split_feature=0 0 0 0 0
split_gain=6717.93 1239.85 1036.44 247.628 238.356
threshold=99491596.000000015 17730400.000000004 276509440.00000006 49261350.000000007 2765608.5000000005
decision_type=2 2 2 2 2
left_child=1 4 -2 -3 -1
right_child=2 3 -4 -5 -6
leaf_value=-0.0017477325470404859 0.00062611277518491524 -0.00056130499360872025 0.0016901988913382937 -3.6874150794322158e-05 -0.0010418471946298082
leaf_weight=67117 266106 187551 139533 173172 166521
leaf_count=67117 266106 187551 139533 173172 166521
internal_value=0 -0.000677115 0.000992141 -0.000309542 -0.00124463
internal_weight=0 594361 405639 360723 233638
internal_count=1000000 594361 405639 360723 233638
is_linear=0
shrinkage=0.01


Tree=46
num_leaves=6
num_cat=0
split_feature=0 0 0 0 0
split_gain=6589.75 1459.61 823.05 357.261 215.356
threshold=118478380.00000001 29918163.000000004 360618208.00000006 3732904.0000000005 197726112.00000003
decision_type=2 2 2 2 2
left_child=1 3 4 -1 -2
right_child=2 -3 -4 -5 -6
leaf_value=-0.0016503484188961479 0.00053887709547369015 -0.00013194723001041909 0.0019507207359961943 -0.00088821358986840835 0.0010981610322318297
leaf_weight=83149 137132 321200 83949 236305 138265
leaf_count=83149 137132 321200 83949 236305 138265
internal_value=0 -0.000607966 0.0010839 -0.00108659 0.00081967
internal_weight=0 640654 359346 319454 275397
internal_count=1000000 640654 359346 319454 275397
is_linear=0
shrinkage=0.01


Tree=47
num_leaves=6
num_cat=0
split_feature=0 0 0 0 0
split_gain=6462.35 1452.87 808.264 374.906 161.456
threshold=69008796.000000015 200667120.00000003 9970695.0000000019 394329200.00000006 35982844.000000007
decision_type=2 2 2 2 2
left_child=2 -2 -1 -3 -4
right_child=1 3 4 -5 -6
leaf_value=-0.0013835780040383802 0.00032939109727239452 0.0011377053187287035 -0.00071482646326093428 0.0020326466212913464 -0.00027321387732715712
leaf_weight=162334 281561 150328 192590 67976 145211
leaf_count=162334 281561 150328 192590 67976 145211
internal_value=0 0.000804105 -0.000803671 0.00141637 -0.00052499
internal_weight=0 499865 500135 218304 337801
internal_count=1000000 499865 500135 218304 337801
is_linear=0
shrinkage=0.01


Tree=48
num_leaves=6
num_cat=0
split_feature=0 0 0 0 0
split_gain=6340.5 1422.4 775.933 346.173 195.663
threshold=120246336.00000001 29918163.000000004 360618208.00000006 3469405.5000000005 197726112.00000003
decision_type=2 2 2 2 2
left_child=1 3 4 -1 -2
right_child=2 -3 -4 -5 -6
leaf_value=-0.0016395874719181574 0.00053898377378868291 -0.00012563793529459067 0.0019125898422769276 -0.00087652197954802375 0.0010760309481492385
leaf_weight=78978 133189 325143 83949 240476 138265
leaf_count=78978 133189 325143 83949 240476 138265
internal_value=0 -0.00059126 0.00107237 -0.00106517 0.000812529
internal_weight=0 644597 355403 319454 271454
internal_count=1000000 644597 355403 319454 271454
is_linear=0
shrinkage=0.01


Tree=49
num_leaves=6
num_cat=0
split_feature=0 0 0 0 0
split_gain=6219.09 1264.59 876.017 279.53 216.328
threshold=76983272.000000015 241514432.00000003 10357868.500000002 488290192.00000006 149382896.00000003
decision_type=2 2 2 2 2
left_child=2 4 -1 -3 -2
right_child=1 3 -4 -5 -6
leaf_value=-0.0013467961268324885 0.00021658686589943148 0.0013103009865557413 -0.00046979855654679785 0.0023009201090102593 0.00076034830022764319
leaf_weight=166385 175830 135345 361059 36078 125303
leaf_count=166385 175830 135345 361059 36078 125303
internal_value=0 0.000833153 -0.000746452 0.00151879 0.000442849
internal_weight=0 472556 527444 171423 301133
internal_count=1000000 472556 527444 171423 301133
is_linear=0
shrinkage=0.01


Tree=50
num_leaves=6
num_cat=0
split_feature=0 0 0 0 0
split_gain=6099.95 1385.31 747.795 337.33 164.598
threshold=67886288.000000015 209917296.00000003 9970695.0000000019 473483808.00000006 134948520.00000003
decision_type=2 2 2 2 2
left_child=2 4 -1 -3 -2
right_child=1 3 -4 -5 -6
leaf_value=-0.001343796622887453 0.00014703744368496009 0.0012053052452021559 -0.00051634435567231535 0.0022269328925192929 0.00062851970418868145
leaf_weight=162334 179574 166772 333799 40089 117432
leaf_count=162334 179574 166772 333799 40089 117432
internal_value=0 0.000775004 -0.000787086 0.00140329 0.000337409
internal_weight=0 503867 496133 206861 297006
internal_count=1000000 503867 496133 206861 297006
is_linear=0
shrinkage=0.01


Tree=51
num_leaves=6
num_cat=0
split_feature=0 0 0 0 0
split_gain=5978.86 1397.05 707.552 350.744 156.905
threshold=65707016.000000007 200667120.00000003 8169572.5000000009 423909472.00000006 29918163.000000004
decision_type=2 2 2 2 2
left_child=2 -2 -1 -3 -4
right_child=1 3 4 -5 -6
leaf_value=-0.0013852689809605509 0.0003046142317198887 0.0011256874528641429 -0.00075536205332684097 0.0020436952615429595 -0.00032932618024462317
leaf_weight=142267 293442 162335 177187 55969 168800
leaf_count=142267 293442 162335 177187 55969 168800
internal_value=0 0.000755274 -0.000791614 0.00136105 -0.000547508
internal_weight=0 511746 488254 218304 345987
internal_count=1000000 511746 488254 218304 345987
is_linear=0
shrinkage=0.01


Tree=52
num_leaves=6
num_cat=0
split_feature=0 0 0 0 0
split_gain=5865.64 1173.29 830.535 250.486 203.911
threshold=107019680.00000001 21228284.000000004 307742960.00000006 2765608.5000000005 50174110.000000007
decision_type=2 2 2 2 2
left_child=1 3 -2 -1 -3
right_child=2 4 -4 -5 -6
leaf_value=-0.0016427614573792373 0.00066154779623910293 -0.00048896267304841638 0.0016731777235692647 -0.0009338895637101051 -6.9923321214015384e-06
leaf_weight=67117 270476 164476 115943 193738 188250
leaf_count=67117 270476 164476 115943 193738 188250
internal_value=0 -0.000607786 0.000965082 -0.00111628 -0.000231735
internal_weight=0 613581 386419 260855 352726
internal_count=1000000 613581 386419 260855 352726
is_linear=0
shrinkage=0.01


Tree=53
num_leaves=6
num_cat=0
split_feature=0 0 0 0 0
split_gain=5752.75 1295.77 709.78 319.167 176.115
threshold=120246336.00000001 29918163.000000004 360618208.00000006 3469405.5000000005 194673640.00000003
decision_type=2 2 2 2 2
left_child=1 3 4 -1 -2
right_child=2 -3 -4 -5 -6
leaf_value=-0.001567069949498125 0.00050555305967932523 -0.00011877569483951327 0.0018250628723466512 -0.00083437334168369351 0.0010155788468325924
leaf_weight=78978 129141 325143 83949 240476 142313
leaf_count=78978 129141 325143 83949 240476 142313
internal_value=0 -0.000563189 0.00102146 -0.00101552 0.00077294
internal_weight=0 644597 355403 319454 271454
internal_count=1000000 644597 355403 319454 271454
is_linear=0
shrinkage=0.01


Tree=54
num_leaves=6
num_cat=0
split_feature=0 0 0 0 0
split_gain=5642.69 1283.15 693.437 291.324 187.39
threshold=67886288.000000015 223418488.00000003 9970695.0000000019 473483808.00000006 134948520.00000003
decision_type=2 2 2 2 2
left_child=2 4 -1 -3 -2
right_child=1 3 -4 -5 -6
leaf_value=-0.0012931064892785591 0.00014038409708956213 0.0011901403597970206 -0.00049629530368406011 0.0021492441994209028 0.00063517603876969426
leaf_weight=162334 179574 150799 333799 40089 133405
leaf_count=162334 179574 150799 333799 40089 133405
internal_value=0 0.000745391 -0.000757011 0.00139156 0.000351286
internal_weight=0 503867 496133 190888 312979
internal_count=1000000 503867 496133 190888 312979
is_linear=0
shrinkage=0.01


Tree=55
num_leaves=6
num_cat=0
split_feature=0 0 0 0 0
split_gain=5531.66 966.319 923.743 230.232 192.43
threshold=89701976.000000015 258304760.00000003 16286908.500000002 503881744.00000006 2330186.0000000005
decision_type=2 2 2 2 2
left_child=2 -2 4 -3 -1
right_child=1 3 -4 -5 -6
leaf_value=-0.0016414651751578305 0.00049791407481080037 0.0012855834670349154 -0.00032658813943261991 0.0022344405896966703 -0.00097579474047215277
leaf_weight=59276 277862 122925 345237 32289 162411
leaf_count=59276 277862 122925 345237 32289 162411
internal_value=0 0.000850958 -0.000650051 0.00148297 -0.00115379
internal_weight=0 433076 566924 155214 221687
internal_count=1000000 433076 566924 155214 221687
is_linear=0
shrinkage=0.01


Tree=56
num_leaves=6
num_cat=0
split_feature=0 0 0 0 0
split_gain=5429.78 1269.57 644.236 322.577 142.517
threshold=65707016.000000007 200667120.00000003 8169572.5000000009 447301824.00000006 29918163.000000004
decision_type=2 2 2 2 2
left_child=2 -2 -1 -3 -4
right_child=1 3 4 -5 -6
leaf_value=-0.0013208593907146271 0.00029015166304278061 0.0010933831254430234 -0.000719556102470203 0.0020221090386732653 -0.00031352333557121341
leaf_weight=142267 293442 170388 177187 47916 168800
leaf_count=142267 293442 170388 177187 47916 168800
internal_value=0 0.000719758 -0.000754389 0.00129723 -0.000521461
internal_weight=0 511746 488254 218304 345987
internal_count=1000000 511746 488254 218304 345987
is_linear=0
shrinkage=0.01


Tree=57
num_leaves=6
num_cat=0
split_feature=0 0 0 0 0
split_gain=5326.57 1201.39 659.632 298.096 162.831
threshold=120246336.00000001 29918163.000000004 360618208.00000006 3469405.5000000005 178055640.00000003
decision_type=2 2 2 2 2
left_child=1 3 4 -1 -2
right_child=2 -3 -4 -5 -6
leaf_value=-0.0015105055254794517 0.0004371227008802505 -0.00011400340126053948 0.0017575905771493906 -0.00080240804124915134 0.00093922075624013805
leaf_weight=78978 105914 325143 83949 240476 165540
leaf_count=78978 105914 325143 83949 240476 165540
internal_value=0 -0.000541926 0.000982895 -0.00097747 0.000743316
internal_weight=0 644597 355403 319454 271454
internal_count=1000000 644597 355403 319454 271454
is_linear=0
shrinkage=0.01


Tree=58
num_leaves=6
num_cat=0
split_feature=0 0 0 0 0
split_gain=5225.41 1218.06 619.837 312.509 135.328
threshold=65707016.000000007 200667120.00000003 8169572.5000000009 473483808.00000006 33862624.000000007
decision_type=2 2 2 2 2
left_child=2 -2 -1 -3 -4
right_child=1 3 4 -5 -6
leaf_value=-0.0012956957911265943 0.00028528167248788138 0.0010922706884631869 -0.00067979972048581795 0.0020694565085269878 -0.00027906485206007005
leaf_weight=142267 293442 178215 200750 40089 145237
leaf_count=142267 293442 178215 200750 40089 145237
internal_value=0 0.000706083 -0.000740056 0.00127172 -0.000511581
internal_weight=0 511746 488254 218304 345987
internal_count=1000000 511746 488254 218304 345987
is_linear=0
shrinkage=0.01


Tree=59
num_leaves=6
num_cat=0
split_feature=0 0 0 0 0
split_gain=5125.38 1152.44 635.298 259.012 172.649
threshold=120246336.00000001 25698669.000000004 360618208.00000006 2765608.5000000005 56678194.000000007
decision_type=2 2 2 2 2
left_child=1 3 -2 -1 -3
right_child=2 4 -4 -5 -6
leaf_value=-0.0015408244999076477 0.00072903555665647564 -0.00038778541388109116 0.0017244255247090715 -0.00083312486141965097 5.6759571935264641e-05
leaf_weight=67117 271454 160774 83949 225371 191335
leaf_count=67117 271454 160774 83949 225371 191335
internal_value=0 -0.000531593 0.000964155 -0.00099552 -0.000146221
internal_weight=0 644597 355403 292488 352109
internal_count=1000000 644597 355403 292488 352109
is_linear=0
shrinkage=0.01


Tree=60
num_leaves=6
num_cat=0
split_feature=0 0 0 0 0
split_gain=5023.39 1130.16 622.655 283.024 155.413
threshold=120246336.00000001 29918163.000000004 360618208.00000006 3469405.5000000005 178055640.00000003
decision_type=2 2 2 2 2
left_child=1 3 4 -1 -2
right_child=2 -3 -4 -5 -6
leaf_value=-0.0014680981215158487 0.0004226083114364626 -0.00011123405583344866 0.0017071812804114129 -0.00077813316880428465 0.00091313571332487088
leaf_weight=78978 105914 325143 83949 240476 165540
leaf_count=78978 105914 325143 83949 240476 165540
internal_value=0 -0.000526277 0.000954513 -0.000948712 0.000721745
internal_weight=0 644597 355403 319454 271454
internal_count=1000000 644597 355403 319454 271454
is_linear=0
shrinkage=0.01


Tree=61
num_leaves=6
num_cat=0
split_feature=0 0 0 0 0
split_gain=4930.42 1152.54 586.722 260.135 172.329
threshold=65707016.000000007 223418488.00000003 8169572.5000000009 503881744.00000006 134948520.00000003
decision_type=2 2 2 2 2
left_child=2 4 -1 -3 -2
right_child=1 3 -4 -5 -6
leaf_value=-0.0012594572881997534 0.00012431140464691301 0.0011345713947268471 -0.00049657557446294745 0.0021192884488754047 0.00059453366085809943
leaf_weight=142267 187453 158599 345987 32289 133405
leaf_count=142267 187453 158599 345987 32289 133405
internal_value=0 0.000685863 -0.000718863 0.00130114 0.000319818
internal_weight=0 511746 488254 190888 320858
internal_count=1000000 511746 488254 190888 320858
is_linear=0
shrinkage=0.01


Tree=62
num_leaves=6
num_cat=0
split_feature=0 0 0 0 0
split_gain=4832.79 932.616 733.425 222.243 171.105
threshold=81851220.000000015 245754208.00000003 12311997.000000002 503881744.00000006 42632978.000000007
decision_type=2 2 2 2 2
left_child=2 -2 -1 -3 -4
right_child=1 3 4 -5 -6
leaf_value=-0.0011470404510150211 0.00041482183925160214 0.0011744897959979955 -0.00056250912311810208 0.0020980956352652327 -0.00012057977217377392
leaf_weight=185808 289547 134894 203778 32289 153684
leaf_count=185808 289547 134894 203778 32289 153684
internal_value=0 0.000758189 -0.000637413 0.00135287 -0.00037251
internal_weight=0 456730 543270 167183 357462
internal_count=1000000 456730 543270 167183 357462
is_linear=0
shrinkage=0.01


Tree=63
num_leaves=6
num_cat=0
split_feature=0 0 0 0 0
split_gain=4739.48 924.635 704.426 211.443 165.556
threshold=103894332.00000001 21228284.000000004 291541328.00000006 2330186.0000000005 522772976.00000006
decision_type=2 2 2 2 2
left_child=1 3 -2 -1 -4
right_child=2 -3 4 -5 -6
leaf_value=-0.001529625706931999 0.0005608544844449611 -0.00021560170562176102 0.0012727103123903085 -0.00085021144129134984 0.0021413654263991474
leaf_weight=59276 266526 344943 99531 201579 28145
leaf_count=59276 266526 344943 99531 201579 28145
internal_value=0 -0.000555342 0.000853433 -0.0010046 0.0014642
internal_weight=0 605798 394202 260855 127676
internal_count=1000000 605798 394202 260855 127676
is_linear=0
shrinkage=0.01


Tree=64
num_leaves=6
num_cat=0
split_feature=0 0 0 0 0
split_gain=4653.01 1089.94 554.864 280.521 120.725
threshold=65707016.000000007 200667120.00000003 8169572.5000000009 473483808.00000006 35269996.000000007
decision_type=2 2 2 2 2
left_child=2 -2 -1 -3 -4
right_child=1 3 4 -5 -6
leaf_value=-0.0012240593862635095 0.00026823296268316282 0.0010313345217533084 -0.0006336377596254198 0.0019571594048519336 -0.00025180006628670182
leaf_weight=142267 293442 178215 208748 40089 137239
leaf_count=142267 293442 178215 208748 40089 137239
internal_value=0 0.000666289 -0.000698347 0.00120135 -0.000482178
internal_weight=0 511746 488254 218304 345987
internal_count=1000000 511746 488254 218304 345987
is_linear=0
shrinkage=0.01


Tree=65
num_leaves=6
num_cat=0
split_feature=0 0 0 0 0
split_gain=4563.88 1026.77 568.985 258.764 136.606
threshold=120246336.00000001 29327398.000000004 353293424.00000006 2765608.5000000005 178055640.00000003
decision_type=2 2 2 2 2
left_child=1 3 4 -1 -2
right_child=2 -3 -4 -5 -6
leaf_value=-0.0014599271689039281 0.0004013789530805312 -0.00011055540358095469 0.0016080286984366118 -0.00076020020104709135 0.0008634360174305135
leaf_weight=67117 105914 328852 87860 248628 161629
leaf_count=67117 105914 328852 87860 248628 161629
internal_value=0 -0.00050163 0.00090981 -0.000908939 0.000680518
internal_weight=0 644597 355403 315745 267543
internal_count=1000000 644597 355403 315745 267543
is_linear=0
shrinkage=0.01


Tree=66
num_leaves=6
num_cat=0
split_feature=0 0 0 0 0
split_gain=4478.09 1046.03 534.18 232.251 167.635
threshold=65707016.000000007 227029520.00000003 8169572.5000000009 503881744.00000006 149382896.00000003
decision_type=2 2 2 2 2
left_child=2 4 -1 -3 -2
right_child=1 3 -4 -5 -6
leaf_value=-0.0012009157168847127 0.00014840335297937698 0.0010886668825422249 -0.00047299359032431661 0.0020211639377091923 0.00062854467655381122
leaf_weight=142267 215020 154565 345987 32289 109872
leaf_count=142267 215020 154565 345987 32289 109872
internal_value=0 0.000653645 -0.000685095 0.00124981 0.000310778
internal_weight=0 511746 488254 186854 324892
internal_count=1000000 511746 488254 186854 324892
is_linear=0
shrinkage=0.01


Tree=67
num_leaves=6
num_cat=0
split_feature=0 0 0 0 0
split_gain=4389.11 949.4 583.257 212.925 166.294
threshold=72233408.000000015 237868464.00000003 11117599.500000002 503881744.00000006 149382896.00000003
decision_type=2 2 2 2 2
left_child=2 4 -1 -3 -2
right_child=1 3 -4 -5 -6
leaf_value=-0.0011175107720977346 0.00016483353717538192 0.0011018242342363518 -0.00040484956425283894 0.0020009523009868078 0.00063767880356867485
leaf_weight=174069 191699 142908 337506 32289 121529
leaf_count=174069 191699 142908 337506 32289 121529
internal_value=0 0.000678022 -0.00064734 0.00126753 0.000348292
internal_weight=0 488425 511575 175197 313228
internal_count=1000000 488425 511575 175197 313228
is_linear=0
shrinkage=0.01


Tree=68
num_leaves=6
num_cat=0
split_feature=0 0 0 0 0
split_gain=4304.11 1005.28 514.189 247.815 125.901
threshold=65707016.000000007 209917296.00000003 8169572.5000000009 473483808.00000006 134948520.00000003
decision_type=2 2 2 2 2
left_child=2 4 -1 -3 -2
right_child=1 3 -4 -5 -6
leaf_value=-0.0011777314446589759 0.00011490169274490819 0.0010092033034796277 -0.00046356009996669249 0.0018848501018968393 0.00053248526475472386
leaf_weight=142267 187453 166772 345987 40089 117432
leaf_count=142267 187453 166772 345987 40089 117432
internal_value=0 0.000640822 -0.000671655 0.0011789 0.000275742
internal_weight=0 511746 488254 206861 304885
internal_count=1000000 511746 488254 206861 304885
is_linear=0
shrinkage=0.01


Tree=69
num_leaves=6
num_cat=0
split_feature=0 0 0 0 0
split_gain=4218.46 985.915 503.98 205.3 179.289
threshold=65707016.000000007 237868464.00000003 9970695.0000000019 522772976.00000006 149382896.00000003
decision_type=2 2 2 2 2
left_child=2 4 -1 -3 -2
right_child=1 3 -4 -5 -6
leaf_value=-0.0011201718263771649 0.0001442044769501112 0.0010930033285363391 -0.00043819567014481291 0.0020252302498233688 0.00062473509439489822
leaf_weight=162334 215020 147052 325920 28145 121529
leaf_count=162334 215020 147052 325920 28145 121529
internal_value=0 0.000634414 -0.000664938 0.00124276 0.000317726
internal_weight=0 511746 488254 175197 336549
internal_count=1000000 511746 488254 175197 336549
is_linear=0
shrinkage=0.01


Tree=70
num_leaves=6
num_cat=0
split_feature=0 0 0 0 0
split_gain=4136.18 734.389 697.782 165.989 164.691
threshold=93773964.000000015 17243831.000000004 271805008.00000006 1914666.5000000002 543667648.00000012
decision_type=2 2 2 2 2
left_child=1 3 -2 -1 -4
right_child=2 -3 4 -5 -6
leaf_value=-0.0014888157873406227 0.00046110222985132175 -0.00025991403388929451 0.0011675569450671516 -0.00084379742882816056 0.0020740370437435482
leaf_weight=51401 278103 348763 119392 178255 24086
leaf_count=51401 278103 348763 119392 178255 24086
internal_value=0 -0.000549059 0.000753322 -0.000988164 0.00131973
internal_weight=0 578419 421581 229656 143478
internal_count=1000000 578419 421581 229656 143478
is_linear=0
shrinkage=0.01


Tree=71
num_leaves=6
num_cat=0
split_feature=0 0 0 0 0
split_gain=4059.18 949.639 485.429 251.256 112.463
threshold=65707016.000000007 200667120.00000003 8169572.5000000009 385557376.00000006 35982844.000000007
decision_type=2 2 2 2 2
left_child=2 -2 -1 -3 -4
right_child=1 3 4 -5 -6
leaf_value=-0.0011439839915387076 0.00025076774052444834 0.00088394180417099429 -0.00059283041554051338 0.0016057201355506368 -0.00022237985451608011
leaf_weight=142267 293442 146375 212657 71929 133330
leaf_count=142267 293442 146375 212657 71929 133330
internal_value=0 0.000622322 -0.000652264 0.00112176 -0.000450073
internal_weight=0 511746 488254 218304 345987
internal_count=1000000 511746 488254 218304 345987
is_linear=0
shrinkage=0.01


Tree=72
num_leaves=6
num_cat=0
split_feature=0 0 0 0 0
split_gain=3984.98 963.62 466.459 235.854 114.525
threshold=127366056.00000001 29918163.000000004 368369216.00000006 2765608.5000000005 59561062.000000007
decision_type=2 2 2 2 2
left_child=1 3 -2 -1 -3
right_child=2 4 -4 -5 -6
leaf_value=-0.0013743469642145737 0.00067418322569566893 -0.00029536862370153932 0.0015472903734262168 -0.00070735695004109204 7.5291196101372792e-05
leaf_weight=67117 259807 145474 80041 252337 195224
leaf_count=67117 259807 145474 80041 252337 195224
internal_value=0 -0.000452932 0.000879817 -0.000847491 -8.29761e-05
internal_weight=0 660152 339848 319454 340698
internal_count=1000000 660152 339848 319454 340698
is_linear=0
shrinkage=0.01


Tree=73
num_leaves=6
num_cat=0
split_feature=0 0 0 0 0
split_gain=3905.86 957.507 448.66 231.161 114.763
threshold=129166508.00000001 29918163.000000004 360618208.00000006 2765608.5000000005 59561062.000000007
decision_type=2 2 2 2 2
left_child=1 3 -2 -1 -3
right_child=2 4 -4 -5 -6
leaf_value=-0.0013606034932256508 0.00066755413640245205 -0.00029241493010672955 0.0015115792925001826 -0.00070028339578143747 7.713427047222396e-05
leaf_weight=67117 252148 145474 83949 252337 198975
leaf_count=67117 252148 145474 83949 252337 198975
internal_value=0 -0.00044467 0.000878371 -0.000839016 -7.89405e-05
internal_weight=0 663903 336097 319454 344449
internal_count=1000000 663903 336097 319454 344449
is_linear=0
shrinkage=0.01


Tree=74
num_leaves=6
num_cat=0
split_feature=0 0 0 0 0
split_gain=3828.66 861.12 493.118 204.979 127.044
threshold=118478380.00000001 25698669.000000004 346179072.00000006 2330186.0000000005 55691288.000000007
decision_type=2 2 2 2 2
left_child=1 3 -2 -1 -3
right_child=2 4 -4 -5 -6
leaf_value=-0.0013885057136649671 0.0006092601935486872 -0.00033852033711251187 0.0014587795707671706 -0.00072994772701183669 4.5441476578250775e-05
leaf_weight=59276 267586 156710 91760 233212 191456
leaf_count=59276 267586 156710 91760 233212 191456
internal_value=0 -0.000463413 0.000826187 -0.000863412 -0.00012738
internal_weight=0 640654 359346 292488 348166
internal_count=1000000 640654 359346 292488 348166
is_linear=0
shrinkage=0.01


Tree=75
num_leaves=6
num_cat=0
split_feature=0 0 0 0 0
split_gain=3754.43 919.642 431.593 222.26 109.983
threshold=129166508.00000001 29918163.000000004 368369216.00000006 2765608.5000000005 59561062.000000007
decision_type=2 2 2 2 2
left_child=1 3 -2 -1 -3
right_child=2 4 -4 -5 -6
leaf_value=-0.001333881771005253 0.0006608238435927826 -0.00028652073910734782 0.0015021138739074419 -0.00068639937774083826 7.5249733418907092e-05
leaf_weight=67117 256056 145474 80041 252337 198975
leaf_count=67117 256056 145474 80041 252337 198975
internal_value=0 -0.000435965 0.000861176 -0.000822435 -7.75398e-05
internal_weight=0 663903 336097 319454 344449
internal_count=1000000 663903 336097 319454 344449
is_linear=0
shrinkage=0.01


Tree=76
num_leaves=6
num_cat=0
split_feature=0 0 0 0 0
split_gain=3679.71 901.341 423.004 217.837 107.821
threshold=129166508.00000001 29918163.000000004 368369216.00000006 2765608.5000000005 56678194.000000007
decision_type=2 2 2 2 2
left_child=1 3 -2 -1 -3
right_child=2 4 -4 -5 -6
leaf_value=-0.0013205429382531755 0.00065421559500001799 -0.00029874734712768015 0.0014870927258689673 -0.00067953538140727934 6.4248511930379651e-05
leaf_weight=67117 256056 133808 80041 252337 210641
leaf_count=67117 256056 133808 80041 252337 210641
internal_value=0 -0.000431606 0.000852564 -0.00081421 -7.67644e-05
internal_weight=0 663903 336097 319454 344449
internal_count=1000000 663903 336097 319454 344449
is_linear=0
shrinkage=0.01


Tree=77
num_leaves=6
num_cat=0
split_feature=0 0 0 0 0
split_gain=3606.67 770.051 501.247 169.772 141.504
threshold=111821848.00000001 21228284.000000004 325723456.00000006 1914666.5000000002 49261350.000000007
decision_type=2 2 2 2 2
left_child=1 3 -2 -1 -3
right_child=2 4 -4 -5 -6
leaf_value=-0.0013947089887329945 0.00054915565037840701 -0.00039032931816965406 0.0013660772830723655 -0.00075334843054258502 6.6614774886250927e-06
leaf_weight=51401 270824 160334 103933 209454 204054
leaf_count=51401 270824 160334 103933 209454 204054
internal_value=0 -0.000464947 0.000775716 -0.000879727 -0.000168018
internal_weight=0 625243 374757 260855 364388
internal_count=1000000 625243 374757 260855 364388
is_linear=0
shrinkage=0.01


Tree=78
num_leaves=6
num_cat=0
split_feature=0 0 0 0 0
split_gain=3538.41 878.275 398.82 210.713 105.989
threshold=131086260.00000001 29918163.000000004 368369216.00000006 4253764.5000000009 59561062.000000007
decision_type=2 2 2 2 2
left_child=1 3 -2 -1 -3
right_child=2 4 -4 -5 -6
leaf_value=-0.0012051114906720206 0.00064831265048425962 -0.00027824949406731299 0.0014585610418562508 -0.00063608149065110052 7.540670507772265e-05
leaf_weight=90996 252047 145474 80041 228458 202984
leaf_count=90996 252047 145474 80041 228458 202984
internal_value=0 -0.000419441 0.000843602 -0.000798169 -7.22374e-05
internal_weight=0 667912 332088 319454 348458
internal_count=1000000 667912 332088 319454 348458
is_linear=0
shrinkage=0.01


Tree=79
num_leaves=6
num_cat=0
split_feature=0 0 0 0 0
split_gain=3468.02 848.319 399.107 206.563 101.446
threshold=129166508.00000001 29918163.000000004 360618208.00000006 2330186.0000000005 59561062.000000007
decision_type=2 2 2 2 2
left_child=1 3 -2 -1 -3
right_child=2 4 -4 -5 -6
leaf_value=-0.0013229302727485346 0.00062884138098579596 -0.00027546699351824736 0.0014248937995627029 -0.00066881301758071486 7.198002430830614e-05
leaf_weight=59276 252148 145474 83949 260178 198975
leaf_count=59276 252148 145474 83949 260178 198975
internal_value=0 -0.000419006 0.000827676 -0.000790187 -7.47602e-05
internal_weight=0 663903 336097 319454 344449
internal_count=1000000 663903 336097 319454 344449
is_linear=0
shrinkage=0.01


Tree=80
num_leaves=6
num_cat=0
split_feature=0 0 0 0 0
split_gain=3399.8 666.441 540.968 170.216 126.877
threshold=83182076.000000015 245754208.00000003 14889657.000000002 522772976.00000006 1346712.5000000002
decision_type=2 2 2 2 2
left_child=2 -2 4 -3 -1
right_child=1 3 -4 -5 -6
leaf_value=-0.0014379722891215924 0.000347604591568013 0.00099915966799637339 -0.0002823413285849659 0.0018519238611548947 -0.00081010404779591509
leaf_weight=39696 285315 139038 337722 28145 170084
leaf_count=39696 285315 139038 337722 28145 170084
internal_value=0 0.000641374 -0.000530081 0.00114272 -0.000928914
internal_weight=0 452498 547502 167183 209780
internal_count=1000000 452498 547502 167183 209780
is_linear=0
shrinkage=0.01


Tree=81
num_leaves=6
num_cat=0
split_feature=0 0 0 0 0
split_gain=3338.19 828.391 376.747 199.589 99.7071
threshold=131086260.00000001 29918163.000000004 376934240.00000006 4253764.5000000009 56678194.000000007
decision_type=2 2 2 2 2
left_child=1 3 -2 -1 -3
right_child=2 4 -4 -5 -6
leaf_value=-0.0011712712157453651 0.00063598430181389259 -0.00028444756796592896 0.001437962740835809 -0.00061746509170298915 6.3354264782414097e-05
leaf_weight=90996 256144 133808 75944 228458 214650
leaf_count=90996 256144 133808 75944 228458 214650
internal_value=0 -0.000407401 0.000819386 -0.000775216 -7.02018e-05
internal_weight=0 667912 332088 319454 348458
internal_count=1000000 667912 332088 319454 348458
is_linear=0
shrinkage=0.01


Tree=82
num_leaves=6
num_cat=0
split_feature=0 0 0 0 0
split_gain=3271.76 812.154 369.25 176.778 125.66
threshold=131086260.00000001 25698669.000000004 376934240.00000006 1914666.5000000002 55691288.000000007
decision_type=2 2 2 2 2
left_child=1 3 -2 -1 -3
right_child=2 4 -4 -5 -6
leaf_value=-0.0013308188439541135 0.00062962445027979713 -0.00031167467776697829 0.0014235831104996589 -0.00068487404587817813 5.9324324653844765e-05
leaf_weight=51401 256144 156710 75944 241087 218714
leaf_count=51401 256144 156710 75944 241087 218714
internal_value=0 -0.000403327 0.000811192 -0.000798391 -9.55386e-05
internal_weight=0 667912 332088 292488 375424
internal_count=1000000 667912 332088 292488 375424
is_linear=0
shrinkage=0.01


Tree=83
num_leaves=6
num_cat=0
split_feature=0 0 0 0 0
split_gain=3206.65 796.699 361.984 213.442 87.7767
threshold=131086260.00000001 33862624.000000007 360618208.00000006 5921818.0000000009 566704864.00000012
decision_type=2 2 2 2 2
left_child=1 3 -2 -1 -4
right_child=2 -3 4 -5 -6
leaf_value=-0.0010874818642395564 0.00061104583724660435 -4.4420285833962224e-05 0.0011893148083157337 -0.00055867578747346622 0.001947148772822082
leaf_weight=114647 248139 324895 63856 228370 20093
leaf_count=114647 248139 324895 63856 228370 20093
internal_value=0 -0.000399294 0.00080308 -0.000735419 0.0013707
internal_weight=0 667912 332088 343017 83949
internal_count=1000000 667912 332088 343017 83949
is_linear=0
shrinkage=0.01


Tree=84
num_leaves=6
num_cat=0
split_feature=0 0 0 0 0
split_gain=3145.69 670.138 462.755 163.04 116.605
threshold=76983272.000000015 241514432.00000003 11504040.000000002 522772976.00000006 158511840.00000003
decision_type=2 2 2 2 2
left_child=2 4 -1 -3 -2
right_child=1 3 -4 -5 -6
leaf_value=-0.00094599801275777539 0.00015983619717733184 0.00095497136023977712 -0.0003195295557103538 0.0017874857507461468 0.00056903018238155061
leaf_weight=177943 191790 143278 349501 28145 109343
leaf_count=177943 191790 143278 349501 28145 109343
internal_value=0 0.000592543 -0.00053088 0.00109166 0.000308417
internal_weight=0 472556 527444 171423 301133
internal_count=1000000 472556 527444 171423 301133
is_linear=0
shrinkage=0.01


Tree=85
num_leaves=6
num_cat=0
split_feature=0 0 0 0 0
split_gain=3085.11 752.178 382.448 202.086 84.8934
threshold=65707016.000000007 197726112.00000003 8169572.5000000009 488290192.00000006 39614036.000000007
decision_type=2 2 2 2 2
left_child=2 -2 -1 -3 -4
right_child=1 3 4 -5 -6
leaf_value=-0.0010050993264997653 0.00020666955984334555 0.00084739096424607356 -0.00049904658075975534 0.0016651345917889548 -0.00016585388646034844
leaf_weight=142267 289532 186136 231897 36078 114090
leaf_count=142267 289532 186136 231897 36078 114090
internal_value=0 0.000542539 -0.000568643 0.000980157 -0.000389176
internal_weight=0 511746 488254 222214 345987
internal_count=1000000 511746 488254 222214 345987
is_linear=0
shrinkage=0.01


Tree=86
num_leaves=6
num_cat=0
split_feature=0 0 0 0 0
split_gain=3026.75 581.945 495.602 134.379 129.085
threshold=99491596.000000015 16286908.500000002 271805008.00000006 543667648.00000012 45068314.000000007
decision_type=2 2 2 2 2
left_child=1 -1 -2 -4 -3
right_child=2 4 3 -5 -6
leaf_value=-0.00086020391701978577 0.00040736671214248354 -0.00040577397973421184 0.0010009811301781807 0.0018197995630441985 -3.3330964510685581e-05
leaf_weight=221687 262161 179944 119392 24086 192730
leaf_count=221687 262161 179944 119392 24086 192730
internal_value=0 -0.000454499 0.000665953 0.00113844 -0.000213163
internal_weight=0 594361 405639 143478 372674
internal_count=1000000 594361 405639 143478 372674
is_linear=0
shrinkage=0.01


Tree=87
num_leaves=6
num_cat=0
split_feature=0 0 0 0 0
split_gain=2969.54 737.775 336.991 167.156 114.267
threshold=131086260.00000001 25698669.000000004 376934240.00000006 1914666.5000000002 53855028.000000007
decision_type=2 2 2 2 2
left_child=1 3 -2 -1 -3
right_child=2 4 -4 -5 -6
leaf_value=-0.0012785227951437842 0.00059936370775666144 -0.0003059554737557265 0.0013578486342913324 -0.00065040249576371351 5.0632555167083209e-05
leaf_weight=51401 256144 149000 75944 241087 226424
leaf_count=51401 256144 149000 75944 241087 226424
internal_value=0 -0.000384248 0.000772819 -0.000760787 -9.08917e-05
internal_weight=0 667912 332088 292488 375424
internal_count=1000000 667912 332088 292488 375424
is_linear=0
shrinkage=0.01


Tree=88
num_leaves=6
num_cat=0
split_feature=0 0 0 0 0
split_gain=2910.45 723.391 330.842 151.393 131.266
threshold=131086260.00000001 22803748.000000004 346179072.00000006 1914666.5000000002 50174110.000000007
decision_type=2 2 2 2 2
left_child=1 3 -2 -1 -3
right_child=2 4 -4 -5 -6
leaf_value=-0.0012657375879526656 0.00057005776797842956 -0.00033674165745069636 0.0012759001197741643 -0.00066322630965605356 3.7390829726128237e-05
leaf_weight=51401 240328 152879 91760 221051 242581
leaf_count=51401 240328 152879 91760 221051 242581
internal_value=0 -0.000380406 0.000765091 -0.000776897 -0.000107243
internal_weight=0 667912 332088 272452 395460
internal_count=1000000 667912 332088 272452 395460
is_linear=0
shrinkage=0.01


Tree=89
num_leaves=6
num_cat=0
split_feature=0 0 0 0 0
split_gain=2852.98 656.033 367.633 141.94 124.461
threshold=120246336.00000001 21228284.000000004 325723456.00000006 1346712.5000000002 49261350.000000007
decision_type=2 2 2 2 2
left_child=1 3 -2 -1 -3
right_child=2 4 -4 -5 -6
leaf_value=-0.0013341412491746944 0.00051257128612456032 -0.00034617128327502344 0.0012196180621432641 -0.00068472100296371858 1.8980735776401287e-05
leaf_weight=39696 251470 160334 103933 221159 223408
leaf_count=39696 251470 160334 103933 221159 223408
internal_value=0 -0.000396612 0.000719338 -0.000783548 -0.000133586
internal_weight=0 644597 355403 260855 383742
internal_count=1000000 644597 355403 260855 383742
is_linear=0
shrinkage=0.01


Tree=90
num_leaves=6
num_cat=0
split_feature=0 0 0 0 0
split_gain=2797.85 705.898 312.478 189.119 81.0464
threshold=133118240.00000001 33174546.000000004 385557376.00000006 4785164.0000000009 197726112.00000003
decision_type=2 2 2 2 2
left_child=1 3 4 -1 -2
right_child=2 -3 -4 -5 -6
leaf_value=-0.0010588613610240018 0.00038148154654863364 -4.2541481929800169e-05 0.0013394769715764595 -0.00053921326575298134 0.00074278250984869049
leaf_weight=98874 105791 333006 71929 240115 150285
leaf_count=98874 105791 333006 71929 240115 150285
internal_value=0 -0.000369547 0.000757103 -0.000690781 0.000593521
internal_weight=0 671995 328005 338989 256076
internal_count=1000000 671995 328005 338989 256076
is_linear=0
shrinkage=0.01


Tree=91
num_leaves=6
num_cat=0
split_feature=0 0 0 0 0
split_gain=2746.51 648.388 363.154 162.497 92.8053
threshold=69008796.000000015 223418488.00000003 9970695.0000000019 522772976.00000006 149382896.00000003
decision_type=2 2 2 2 2
left_child=2 4 -1 -3 -2
right_child=1 3 -4 -5 -6
leaf_value=-0.00091264120498673197 0.00011603022613823327 0.00086108892100731325 -0.00033713008701803952 0.0016840139909993844 0.00048123118897201402
leaf_weight=162334 203139 162743 337801 28145 105838
leaf_count=162334 203139 162743 337801 28145 105838
internal_value=0 0.000524213 -0.00052393 0.000982423 0.000241127
internal_weight=0 499865 500135 190888 308977
internal_count=1000000 499865 500135 190888 308977
is_linear=0
shrinkage=0.01


Tree=92
num_leaves=6
num_cat=0
split_feature=0 0 0 0 0
split_gain=2692.32 492.03 475.977 127.794 113.397
threshold=91026120.000000015 267241024.00000003 15805039.500000002 543667648.00000012 1346712.5000000002
decision_type=2 2 2 2 2
left_child=2 -2 4 -3 -1
right_child=1 3 -4 -5 -6
leaf_value=-0.0013010848227950661 0.00035354889005002606 0.00093642850213985552 -0.00022325129387590714 0.0017328329251230349 -0.0007099994239678438
leaf_weight=39696 281924 123253 353074 24086 177967
leaf_count=39696 281924 123253 353074 24086 177967
internal_value=0 0.000598301 -0.000449995 0.00106662 -0.000817798
internal_weight=0 429263 570737 147339 217663
internal_count=1000000 429263 570737 147339 217663
is_linear=0
shrinkage=0.01


Tree=93
num_leaves=6
num_cat=0
split_feature=0 0 0 0 0
split_gain=2642.98 650.693 332.573 178.069 72.4073
threshold=65707016.000000007 197726112.00000003 8169572.5000000009 503881744.00000006 39614036.000000007
decision_type=2 2 2 2 2
left_child=2 -2 -1 -3 -4
right_child=1 3 4 -5 -6
leaf_value=-0.00093332518423856487 0.00018976945207465495 0.00079246771710039842 -0.00046043477241297019 0.0015957375414941185 -0.00015271901616918968
leaf_weight=142267 289532 189925 231897 32289 114090
leaf_count=142267 289532 189925 231897 32289 114090
internal_value=0 0.00050216 -0.000526321 0.000909188 -0.000358965
internal_weight=0 511746 488254 222214 345987
internal_count=1000000 511746 488254 222214 345987
is_linear=0
shrinkage=0.01


Tree=94
num_leaves=6
num_cat=0
split_feature=0 0 0 0 0
split_gain=2591.44 655.44 291.068 184.496 70.7927
threshold=133118240.00000001 35269996.000000007 376934240.00000006 5336944.5000000009 180645128.00000003
decision_type=2 2 2 2 2
left_child=1 3 4 -1 -2
right_child=2 -3 -4 -5 -6
leaf_value=-0.0010013254166880523 0.00032448527648004996 -2.9060906427817617e-05 0.0012713449271400882 -0.00050284054205031712 0.00068183887770470204
leaf_weight=106654 82322 320980 75944 244361 169739
leaf_count=106654 82322 320980 75944 244361 169739
internal_value=0 -0.000355654 0.000728641 -0.000654302 0.000565129
internal_weight=0 671995 328005 351015 252061
internal_count=1000000 671995 328005 351015 252061
is_linear=0
shrinkage=0.01


Tree=95
num_leaves=6
num_cat=0
split_feature=0 0 0 0 0
split_gain=2543.02 624.322 319.548 169.871 71.7296
threshold=65707016.000000007 200667120.00000003 8169572.5000000009 503881744.00000006 671178.50000000012
decision_type=2 2 2 2 2
left_child=2 -2 4 -3 -1
right_child=1 3 -4 -5 -6
leaf_value=-0.0014190156411978243 0.00019130898851603718 0.00078130822993436168 -0.00035222603360672046 0.0015670667267733995 -0.00081514696734227919
leaf_weight=23578 293442 186015 345987 32289 118689
leaf_count=23578 293442 186015 345987 32289 118689
internal_value=0 0.000492573 -0.000516273 0.000897529 -0.000915227
internal_weight=0 511746 488254 218304 142267
internal_count=1000000 511746 488254 218304 142267
is_linear=0
shrinkage=0.01


Tree=96
num_leaves=6
num_cat=0
split_feature=0 0 0 0 0
split_gain=2493.82 538.584 358.402 119.43 115.004
threshold=111821848.00000001 17730400.000000004 291541328.00000006 49261350.000000007 1346712.5000000002
decision_type=2 2 2 2 2
left_child=1 4 -2 -3 -1
right_child=2 3 -4 -5 -6
leaf_value=-0.0012569892025608225 0.0004227300919593882 -0.00034207652321829152 0.0010752384116668337 7.5049631824674934e-06 -0.00066621926533057068
leaf_weight=39696 247081 187551 127676 204054 193942
leaf_count=39696 247081 187551 127676 204054 193942
internal_value=0 -0.000386619 0.000645033 -0.00015992 -0.000766593
internal_weight=0 625243 374757 391605 233638
internal_count=1000000 625243 374757 391605 233638
is_linear=0
shrinkage=0.01


Tree=97
num_leaves=6
num_cat=0
split_feature=0 0 0 0 0
split_gain=2446.6 627.456 271.42 176.966 65.9711
threshold=134948520.00000003 35982844.000000007 385557376.00000006 4785164.0000000009 592699936.00000012
decision_type=2 2 2 2 2
left_child=1 3 -2 -1 -4
right_child=2 -3 4 -5 -6
leaf_value=-0.00099170123587282799 0.00055953867637443925 -2.2131756178821984e-05 0.0010932247163694495 -0.00049361023177137901 0.0018197447783390183
leaf_weight=98874 252364 320783 55825 256050 16104
leaf_count=98874 252364 320783 55825 256050 16104
internal_value=0 -0.000342666 0.00071399 -0.000632367 0.00125588
internal_weight=0 675707 324293 354924 71929
internal_count=1000000 675707 324293 354924 71929
is_linear=0
shrinkage=0.01


Tree=98
num_leaves=6
num_cat=0
split_feature=0 0 0 0 0
split_gain=2399.73 548.054 334.346 135.032 94.4557
threshold=72233408.000000015 237868464.00000003 10357868.500000002 543667648.00000012 158511840.00000003
decision_type=2 2 2 2 2
left_child=2 4 -1 -3 -2
right_child=1 3 -4 -5 -6
leaf_value=-0.00084688473870316722 0.00012700709008694932 0.00083840536200111048 -0.00030116892515139233 0.0016446209566443066 0.00049437468355749295
leaf_weight=166385 207659 151111 345190 24086 105569
leaf_count=166385 207659 151111 345190 24086 105569
internal_value=0 0.000501345 -0.000478658 0.000949243 0.000250823
internal_weight=0 488425 511575 175197 313228
internal_count=1000000 488425 511575 175197 313228
is_linear=0
shrinkage=0.01


Tree=99
num_leaves=6
num_cat=0
split_feature=0 0 0 0 0
split_gain=2352.99 580.027 297.009 163.941 71.997
threshold=65707016.000000007 194673640.00000003 6858721.0000000009 488290192.00000006 39614036.000000007
decision_type=2 2 2 2 2
left_child=2 -2 -1 -3 -4
right_child=1 3 4 -5 -6
leaf_value=-0.00091325542824641172 0.00017409476671452175 0.00073473861615278014 -0.00044642297328914587 0.0014699999948928346 -0.00014278009817746541
leaf_weight=126697 285484 190184 247467 36078 114090
leaf_count=126697 285484 190184 247467 36078 114090
internal_value=0 0.000473812 -0.000496609 0.000851978 -0.000350608
internal_weight=0 511746 488254 226262 361557
internal_count=1000000 511746 488254 226262 361557
is_linear=0
shrinkage=0.01


Tree=100
num_leaves=6
num_cat=0
split_feature=0 0 0 0 0
split_gain=2308.11 585.684 262.28 137.106 91.208
threshold=133118240.00000001 25698669.000000004 385557376.00000006 1914666.5000000002 54802800.000000007
decision_type=2 2 2 2 2
left_child=1 3 -2 -1 -3
right_child=2 4 -4 -5 -6
leaf_value=-0.0011408268099250296 0.00053778805895062615 -0.00026509642997647823 0.0012212055672175812 -0.0005719613603175545 5.0940577736538924e-05
leaf_weight=51401 256076 153004 71929 241087 226503
leaf_count=51401 256076 153004 71929 241087 226503
internal_value=0 -0.000335649 0.000687656 -0.000671932 -7.64745e-05
internal_weight=0 671995 328005 292488 379507
internal_count=1000000 671995 328005 292488 379507
is_linear=0
shrinkage=0.01


Tree=101
num_leaves=6
num_cat=0
split_feature=0 0 0 0 0
split_gain=2263.4 440.19 379.153 107.126 102.146
threshold=99491596.000000015 16286908.500000002 276509440.00000006 566704864.00000012 1346712.5000000002
decision_type=2 2 2 2 2
left_child=1 4 -2 -4 -1
right_child=2 -3 3 -5 -6
leaf_value=-0.0012054926464045465 0.00035450052917477014 -0.0001831357331626389 0.00088444743310230793 0.0016736489107568378 -0.00064562854434599274
leaf_weight=39696 266106 372674 119440 20093 181991
leaf_count=39696 266106 372674 119440 20093 181991
internal_value=0 -0.00039303 0.000575886 0.000998094 -0.00074588
internal_weight=0 594361 405639 139533 221687
internal_count=1000000 594361 405639 139533 221687
is_linear=0
shrinkage=0.01


Tree=102
num_leaves=6
num_cat=0
split_feature=0 0 0 0 0
split_gain=2220.92 571.63 247.707 162.574 61.2944
threshold=134948520.00000003 35982844.000000007 385557376.00000006 3732904.0000000005 592699936.00000012
decision_type=2 2 2 2 2
left_child=1 3 -2 -1 -4
right_child=2 -3 4 -5 -6
leaf_value=-0.00098992421555731428 0.00053271329902881037 -2.0536804544950424e-05 0.001041157085924354 -0.00048461241665368143 0.0017414525749090226
leaf_weight=83149 252364 320783 55825 271775 16104
leaf_count=83149 252364 320783 55825 271775 16104
internal_value=0 -0.00032648 0.000680263 -0.000602993 0.00119794
internal_weight=0 675707 324293 354924 71929
internal_count=1000000 675707 324293 354924 71929
is_linear=0
shrinkage=0.01


Tree=103
num_leaves=6
num_cat=0
split_feature=0 0 0 0 0
split_gain=2180.01 540.401 276.105 141.539 66.2676
threshold=65707016.000000007 209917296.00000003 6858721.0000000009 522772976.00000006 39614036.000000007
decision_type=2 2 2 2 2
left_child=2 -2 -1 -3 -4
right_child=1 3 4 -5 -6
leaf_value=-0.00087972255886020095 0.00018839147864117337 0.00074676918137424613 -0.00042915998604257412 0.0015097181884885197 -0.00013784915981178466
leaf_weight=126697 304885 178716 247467 28145 114090
leaf_count=126697 304885 178716 247467 28145 114090
internal_value=0 0.000456063 -0.000478006 0.000850574 -0.000337236
internal_weight=0 511746 488254 206861 361557
internal_count=1000000 511746 488254 206861 361557
is_linear=0
shrinkage=0.01


Tree=104
num_leaves=6
num_cat=0
split_feature=0 0 0 0 0
split_gain=2137.52 446.658 336.179 116.282 83.2938
threshold=80654088.000000015 245754208.00000003 12311997.000000002 543667648.00000012 1002986.5000000001
decision_type=2 2 2 2 2
left_child=2 -2 4 -3 -1
right_child=1 3 -4 -5 -6
leaf_value=-0.0012380748761832332 0.00026523879172755618 0.00080461917856851557 -0.00024628634209894593 0.0015556436004915668 -0.00067555115384683288
leaf_weight=31747 293481 143097 353528 24086 154061
leaf_count=31747 293481 143097 353528 24086 154061
internal_value=0 0.000500257 -0.000427285 0.000912819 -0.000771663
internal_weight=0 460664 539336 167183 185808
internal_count=1000000 460664 539336 167183 185808
is_linear=0
shrinkage=0.01


Tree=105
num_leaves=6
num_cat=0
split_feature=0 0 0 0 0
split_gain=2099.22 539.6 234.477 137.895 66.163
threshold=134948520.00000003 29918163.000000004 376934240.00000006 2330186.0000000005 56678194.000000007
decision_type=2 2 2 2 2
left_child=1 3 -2 -1 -3
right_child=2 4 -4 -5 -6
leaf_value=-0.0010511076155597927 0.00051266667494355 -0.0002255219657788716 0.0011476188986894998 -0.00051666249601099094 5.5884772841560092e-05
leaf_weight=59276 248349 133808 75944 260178 222445
leaf_count=59276 248349 133808 75944 260178 222445
internal_value=0 -0.000317408 0.000661362 -0.000615831 -4.98111e-05
internal_weight=0 675707 324293 319454 356253
internal_count=1000000 675707 324293 319454 356253
is_linear=0
shrinkage=0.01


Tree=106
num_leaves=6
num_cat=0
split_feature=0 0 0 0 0
split_gain=2057.44 529.395 229.968 115.336 97.3101
threshold=134948520.00000003 22803748.000000004 368369216.00000006 1346712.5000000002 49261350.000000007
decision_type=2 2 2 2 2
left_child=1 3 -2 -1 -3
right_child=2 4 -4 -5 -6
leaf_value=-0.0011529758686788676 0.00050230708852198414 -0.0002873682556511562 0.0011199355801154306 -0.00056979548512629905 3.4590337468923133e-05
leaf_weight=39696 244252 148737 80041 232756 254518
leaf_count=39696 244252 148737 80041 232756 254518
internal_value=0 -0.000314234 0.000654748 -0.000654764 -8.41612e-05
internal_weight=0 675707 324293 272452 403255
internal_count=1000000 675707 324293 272452 403255
is_linear=0
shrinkage=0.01


Tree=107
num_leaves=6
num_cat=0
split_feature=0 0 0 0 0
split_gain=2016.67 481.253 256.774 108.289 92.5962
threshold=123797232.00000001 21228284.000000004 325723456.00000006 1346712.5000000002 49261350.000000007
decision_type=2 2 2 2 2
left_child=1 3 -2 -1 -3
right_child=2 4 -4 -5 -6
leaf_value=-0.0011414461041526617 0.00043774463630005269 -0.000290774247417652 0.0010314207451867672 -0.00057420658701074184 2.1946882185309727e-05
leaf_weight=39696 243633 160334 103933 221159 231245
leaf_count=39696 243633 160334 103933 221159 231245
internal_value=0 -0.000327769 0.000615272 -0.000660527 -0.000106098
internal_weight=0 652434 347566 260855 391579
internal_count=1000000 652434 347566 260855 391579
is_linear=0
shrinkage=0.01


Tree=108
num_leaves=6
num_cat=0
split_feature=0 0 0 0 0
split_gain=1978.06 530.809 208.788 157.631 55.471
threshold=140838912.00000003 39614036.000000007 394329200.00000006 5921818.0000000009 627180800.00000012
decision_type=2 2 2 2 2
left_child=1 3 -2 -1 -4
right_child=2 -3 4 -5 -6
leaf_value=-0.0008630252140123274 0.00052320497959073339 3.7883633168431014e-06 0.0010175302540625269 -0.00041779226798894153 0.0017671849667399348
leaf_weight=114647 244704 313156 55993 259517 11983
leaf_count=114647 244704 313156 55993 259517 11983
internal_value=0 -0.000299978 0.0006594 -0.000554215 0.00114968
internal_weight=0 687320 312680 374164 67976
internal_count=1000000 687320 312680 374164 67976
is_linear=0
shrinkage=0.01


Tree=109
num_leaves=6
num_cat=0
split_feature=0 0 0 0 0
split_gain=1940.49 487.461 248.178 148.812 58.2895
threshold=65707016.000000007 180645128.00000003 6858721.0000000009 473483808.00000006 40391296.000000007
decision_type=2 2 2 2 2
left_child=2 -2 -1 -3 -4
right_child=1 3 4 -5 -6
leaf_value=-0.00083184196755112987 0.00013370290709408133 0.00064278226475133289 -0.00040152964299502514 0.0013088051243871405 -0.00012561284712966976
leaf_weight=126697 266063 205594 251475 40089 110082
leaf_count=126697 266063 205594 251475 40089 110082
internal_value=0 0.00043028 -0.000450983 0.00075146 -0.000317522
internal_weight=0 511746 488254 245683 361557
internal_count=1000000 511746 488254 245683 361557
is_linear=0
shrinkage=0.01


Tree=110
num_leaves=6
num_cat=0
split_feature=0 0 0 0 0
split_gain=1902.71 361.707 335.656 95.4774 89.151
threshold=96655504.000000015 16286908.500000002 271805008.00000006 566704864.00000012 1165858.0000000002
decision_type=2 2 2 2 2
left_child=1 4 -2 -4 -1
right_child=2 -3 3 -5 -6
leaf_value=-0.0011434354134281567 0.00031176797708214551 -0.00017270607770646933 0.00080616761338515495 0.0015495107273721333 -0.00059719382682784077
leaf_weight=35593 270126 364709 123385 20093 186094
leaf_count=35593 270126 364709 123385 20093 186094
internal_value=0 -0.000366339 0.000519386 0.000910267 -0.000684896
internal_weight=0 586396 413604 143478 221687
internal_count=1000000 586396 413604 143478 221687
is_linear=0
shrinkage=0.01


Tree=111
num_leaves=6
num_cat=0
split_feature=0 0 0 0 0
split_gain=1868.08 530.964 181.025 150.949 50.9152
threshold=149382896.00000003 40391296.000000007 423909472.00000006 5921818.0000000009 519249.00000000006
decision_type=2 2 2 2 2
left_child=1 3 -2 4 -1
right_child=2 -3 -4 -5 -6
leaf_value=-0.0013050511554988059 0.00054630963295972481 1.5603924802807043e-05 0.0011776798381983623 -0.00040373114661822087 -0.00074323870918061551
leaf_weight=19421 240757 325102 55969 263525 95226
leaf_count=19421 240757 325102 55969 263525 95226
internal_value=0 -0.000280746 0.0006654 -0.000535508 -0.000838409
internal_weight=0 703274 296726 378172 114647
internal_count=1000000 703274 296726 378172 114647
is_linear=0
shrinkage=0.01


Tree=112
num_leaves=6
num_cat=0
split_feature=0 0 0 0 0
split_gain=1832.95 461.056 234.171 131.746 58.9984
threshold=65707016.000000007 194673640.00000003 8169572.5000000009 522772976.00000006 519249.00000000006
decision_type=2 2 2 2 2
left_child=2 -2 4 -3 -1
right_child=1 3 -4 -5 -6
leaf_value=-0.0012920006411658404 0.00015096994276047614 0.00066439619891507987 -0.00029787611854082855 0.0013955575889036179 -0.00069886232224520184
leaf_weight=19421 285484 198117 345987 28145 122846
leaf_count=19421 285484 198117 345987 28145 122846
internal_value=0 0.000418187 -0.000438308 0.000755346 -0.000779832
internal_weight=0 511746 488254 226262 142267
internal_count=1000000 511746 488254 226262 142267
is_linear=0
shrinkage=0.01


Tree=113
num_leaves=6
num_cat=0
split_feature=0 0 0 0 0
split_gain=1797.27 482.462 190.947 129.84 54.3026
threshold=140838912.00000003 33862624.000000007 385557376.00000006 2330186.0000000005 627180800.00000012
decision_type=2 2 2 2 2
left_child=1 3 -2 -1 -4
right_child=2 -3 4 -5 -6
leaf_value=-0.00097704674862062585 0.00049347026103811515 -2.1494207690025393e-05 0.00095780385079417417 -0.00046245548082527414 0.0016951975629591646
leaf_weight=59276 240751 344303 59946 283741 11983
leaf_count=59276 240751 344303 59946 283741 11983
internal_value=0 -0.000285942 0.000628545 -0.000551381 0.00108065
internal_weight=0 687320 312680 343017 71929
internal_count=1000000 687320 312680 343017 71929
is_linear=0
shrinkage=0.01


Tree=114
num_leaves=6
num_cat=0
split_feature=0 0 0 0 0
split_gain=1764.02 444.589 225.684 110.962 63.7907
threshold=65707016.000000007 223418488.00000003 8169572.5000000009 543667648.00000012 158511840.00000003
decision_type=2 2 2 2 2
left_child=2 4 -1 -3 -2
right_child=1 3 -4 -5 -6
leaf_value=-0.00076526524662488425 9.4948421266812476e-05 0.00070076816111357295 -0.00029212385417616674 0.0014268626563898957 0.00040894229743296262
leaf_weight=142267 230980 166802 345987 24086 89878
leaf_count=142267 230980 166802 345987 24086 89878
internal_value=0 0.000410249 -0.000429987 0.000792386 0.000182904
internal_weight=0 511746 488254 190888 320858
internal_count=1000000 511746 488254 190888 320858
is_linear=0
shrinkage=0.01


Tree=115
num_leaves=6
num_cat=0
split_feature=0 0 0 0 0
split_gain=1729.28 357.801 284.489 94.4368 70.4916
threshold=83182076.000000015 254123976.00000003 12311997.000000002 566704864.00000012 671178.50000000012
decision_type=2 2 2 2 2
left_child=2 -2 4 -3 -1
right_child=1 3 -4 -5 -6
leaf_value=-0.0012070010737089952 0.0002503136173597009 0.00074661046882057447 -0.00021466763565078844 0.0014800388925890213 -0.0006218314339869836
leaf_weight=23578 293361 139044 361694 20093 162230
leaf_count=23578 293361 139044 361694 20093 162230
internal_value=0 0.000457422 -0.000378049 0.000839215 -0.000696086
internal_weight=0 452498 547502 159137 185808
internal_count=1000000 452498 547502 159137 185808
is_linear=0
shrinkage=0.01


Tree=116
num_leaves=6
num_cat=0
split_feature=0 0 0 0 0
split_gain=1697.13 445.103 207.382 130.92 50.9767
threshold=62684334.000000007 180645128.00000003 6858721.0000000009 473483808.00000006 519249.00000000006
decision_type=2 2 2 2 2
left_child=2 -2 4 -3 -1
right_child=1 3 -4 -5 -6
leaf_value=-0.0012495875028648927 0.00011883966628763384 0.00060138016664851811 -0.00030603143684836121 0.0012260812482715821 -0.00069280971623332272
leaf_weight=19421 277423 205594 350197 40089 107276
leaf_count=19421 277423 205594 350197 40089 107276
internal_value=0 0.000393345 -0.000431461 0.000703315 -0.000778156
internal_weight=0 523106 476894 245683 126697
internal_count=1000000 523106 476894 245683 126697
is_linear=0
shrinkage=0.01


Tree=117
num_leaves=6
num_cat=0
split_feature=0 0 0 0 0
split_gain=1665.01 476.885 162.602 133.03 41.7399
threshold=149382896.00000003 39614036.000000007 423909472.00000006 3469405.5000000005 627180800.00000012
decision_type=2 2 2 2 2
left_child=1 3 -2 -1 -4
right_child=2 -3 4 -5 -6
leaf_value=-0.00087380440027789541 0.00051532548071323524 1.2606843801949175e-05 0.00097116873882202939 -0.00041173674128135862 0.0016369158210129855
leaf_weight=78978 240757 329110 43986 295186 11983
leaf_count=78978 240757 329110 43986 295186 11983
internal_value=0 -0.000265048 0.000628193 -0.000509269 0.00111371
internal_weight=0 703274 296726 374164 55969
internal_count=1000000 703274 296726 374164 55969
is_linear=0
shrinkage=0.01


Tree=118
num_leaves=6
num_cat=0
split_feature=0 0 0 0 0
split_gain=1633.24 359.969 245.185 81.8609 78.6629
threshold=111821848.00000001 17730400.000000004 291541328.00000006 1165858.0000000002 49261350.000000007
decision_type=2 2 2 2 2
left_child=1 3 -2 -1 -3
right_child=2 4 -4 -5 -6
leaf_value=-0.0010650562156845819 0.00033813586466625449 -0.00027537764061623621 0.00087783021934989547 -0.00054416647869667161 8.3338319747462774e-06
leaf_weight=35593 247081 187551 127676 198045 204054
leaf_count=35593 247081 187551 127676 198045 204054
internal_value=0 -0.000312878 0.000522004 -0.00062352 -0.000127544
internal_weight=0 625243 374757 233638 391605
internal_count=1000000 625243 374757 233638 391605
is_linear=0
shrinkage=0.01


Tree=119
num_leaves=6
num_cat=0
split_feature=0 0 0 0 0
split_gain=1602.08 457.771 157.334 130.179 40.9092
threshold=149382896.00000003 40391296.000000007 423909472.00000006 4253764.5000000009 627180800.00000012
decision_type=2 2 2 2 2
left_child=1 3 -2 -1 -4
right_child=2 -3 4 -5 -6
leaf_value=-0.00082614372597056957 0.00050518344774705631 1.5176330135648479e-05 0.0009526787361850001 -0.00039210406662022908 0.0016117683407406514
leaf_weight=90996 240757 325102 43986 287176 11983
leaf_count=90996 240757 325102 43986 287176 11983
internal_value=0 -0.000259991 0.000616208 -0.000496543 0.00109379
internal_weight=0 703274 296726 378172 55969
internal_count=1000000 703274 296726 378172 55969
is_linear=0
shrinkage=0.01


Tree=120
num_leaves=6
num_cat=0
split_feature=0 0 0 0 0
split_gain=1571.29 389.143 209.634 97.0738 60.8038
threshold=67886288.000000015 230543824.00000003 10357868.500000002 566704864.00000012 163187808.00000003
decision_type=2 2 2 2 2
left_child=2 4 -1 -3 -2
right_child=1 3 -4 -5 -6
leaf_value=-0.00068885048411243403 9.7516899021539606e-05 0.00068038381413582007 -0.00025345696109309665 0.001417059918099844 0.00040405249513463605
leaf_weight=166385 230911 162959 329748 20093 89904
leaf_count=166385 230911 162959 329748 20093 89904
internal_value=0 0.000393341 -0.000399472 0.000761246 0.000183419
internal_weight=0 503867 496133 183052 320815
internal_count=1000000 503867 496133 183052 320815
is_linear=0
shrinkage=0.01


Tree=121
num_leaves=6
num_cat=0
split_feature=0 0 0 0 0
split_gain=1540.66 405.094 189.55 120.357 48.5362
threshold=62684334.000000007 180645128.00000003 6858721.0000000009 503881744.00000006 519249.00000000006
decision_type=2 2 2 2 2
left_child=2 -2 4 -3 -1
right_child=1 3 -4 -5 -6
leaf_value=-0.0012025531071189724 0.00011289602409123356 0.00058438853346325472 -0.00029117436629270483 0.001239483845568814 -0.00065926658356446903
leaf_weight=19421 277423 213394 350197 32289 107276
leaf_count=19421 277423 213394 350197 32289 107276
internal_value=0 0.000374774 -0.000411091 0.000670485 -0.000742545
internal_weight=0 523106 476894 245683 126697
internal_count=1000000 523106 476894 245683 126697
is_linear=0
shrinkage=0.01


Tree=122
num_leaves=6
num_cat=0
split_feature=0 0 0 0 0
split_gain=1511.48 322.042 241.733 77.3736 71.6488
threshold=107019680.00000001 17730400.000000004 291541328.00000006 1002986.5000000001 592699936.00000012
decision_type=2 2 2 2 2
left_child=1 3 -2 -1 -4
right_child=2 -3 4 -5 -6
leaf_value=-0.0010595931934239235 0.00031420500334557216 -0.00012887522903551996 0.0007559567538534687 -0.00052851528706264581 0.0014694904558515396
leaf_weight=31747 258743 379943 111572 201891 16104
leaf_count=31747 258743 379943 111572 201891 16104
internal_value=0 -0.000308528 0.0004899 -0.000600679 0.000845956
internal_weight=0 613581 386419 233638 127676
internal_count=1000000 613581 386419 233638 127676
is_linear=0
shrinkage=0.01


Tree=123
num_leaves=6
num_cat=0
split_feature=0 0 0 0 0
split_gain=1483.41 390.077 182.379 96.4084 52.8393
threshold=62684334.000000007 219939512.00000003 6858721.0000000009 543667648.00000012 158511840.00000003
decision_type=2 2 2 2 2
left_child=2 4 -1 -3 -2
right_child=1 3 -4 -5 -6
leaf_value=-0.00072850397091733094 8.1816653862721756e-05 0.00063864980904392173 -0.00028575347185490164 0.0013144663249416173 0.00037043016576353196
leaf_weight=126697 242340 170754 350197 24086 85926
leaf_count=126697 242340 170754 350197 24086 85926
internal_value=0 0.000367744 -0.00040338 0.000722194 0.000157363
internal_weight=0 523106 476894 194840 328266
internal_count=1000000 523106 476894 194840 328266
is_linear=0
shrinkage=0.01


Tree=124
num_leaves=6
num_cat=0
split_feature=0 0 0 0 0
split_gain=1454.24 368.222 181.361 84.2889 69.1135
threshold=129166508.00000001 21748076.000000004 339082880.00000006 1346712.5000000002 49261350.000000007
decision_type=2 2 2 2 2
left_child=1 3 -2 -1 -3
right_child=2 4 -4 -5 -6
leaf_value=-0.00098530413912217363 0.00038927221495364443 -0.00024343996780163077 0.00090381173581234164 -0.00048552606004001816 2.6138000419565837e-05
leaf_weight=39696 240276 156376 95821 225117 242714
leaf_count=39696 240276 156376 95821 225117 242714
internal_value=0 -0.00027133 0.000535967 -0.000560444 -7.94911e-05
internal_weight=0 663903 336097 264813 399090
internal_count=1000000 663903 336097 264813 399090
is_linear=0
shrinkage=0.01


Tree=125
num_leaves=6
num_cat=0
split_feature=0 0 0 0 0
split_gain=1426.49 411.139 142.656 116.039 43.7701
threshold=149382896.00000003 39614036.000000007 394329200.00000006 2765608.5000000005 627180800.00000012
decision_type=2 2 2 2 2
left_child=1 3 -2 -1 -4
right_child=2 -3 4 -5 -6
leaf_value=-0.00084875807023051045 0.00046193142012650081 1.2476389948558861e-05 0.00086629499748895275 -0.00038975699232067257 0.0015322074889331974
leaf_weight=67117 228750 329110 55993 307047 11983
leaf_count=67117 228750 329110 55993 307047 11983
internal_value=0 -0.000245329 0.000581458 -0.000472092 0.000983684
internal_weight=0 703274 296726 374164 67976
internal_count=1000000 703274 296726 374164 67976
is_linear=0
shrinkage=0.01


Tree=126
num_leaves=6
num_cat=0
split_feature=0 0 0 0 0
split_gain=1399.61 319.704 211.991 81.6793 60.4893
threshold=75726548.000000015 245754208.00000003 12311997.000000002 566704864.00000012 671178.50000000012
decision_type=2 2 2 2 2
left_child=2 -2 4 -3 -1
right_child=1 3 -4 -5 -6
leaf_value=-0.0011015890285020152 0.0002016527055066625 0.0006626666311722783 -0.00020771366919809911 0.0013423990771178234 -0.0005595224981204969
leaf_weight=23578 309485 147090 337524 20093 162230
leaf_count=23578 309485 147090 337524 20093 162230
internal_value=0 0.000391998 -0.000357045 0.000744361 -0.000628308
internal_weight=0 476668 523332 167183 185808
internal_count=1000000 476668 523332 167183 185808
is_linear=0
shrinkage=0.01


Tree=127
num_leaves=6
num_cat=0
split_feature=0 0 0 0 0
split_gain=1373.56 395.793 137.354 113.004 37.0576
threshold=149382896.00000003 40391296.000000007 435275872.00000006 2330186.0000000005 258304760.00000003
decision_type=2 2 2 2 2
left_child=1 3 4 -1 -2
right_child=2 -3 -4 -5 -6
leaf_value=-0.00086163965636924355 0.00036635051819499401 1.5127402895044927e-05 0.0010376258653554068 -0.00038616381777789539 0.00061549037387046346
leaf_weight=59276 141512 325102 51943 318896 103271
leaf_count=59276 141512 325102 51943 318896 103271
internal_value=0 -0.000240735 0.000570569 -0.000460692 0.00047146
internal_weight=0 703274 296726 378172 244783
internal_count=1000000 703274 296726 378172 244783
is_linear=0
shrinkage=0.01


Tree=128
num_leaves=6
num_cat=0
split_feature=0 0 0 0 0
split_gain=1347.46 355.707 167.229 108.076 44.1832
threshold=62684334.000000007 178055640.00000003 6858721.0000000009 473483808.00000006 519249.00000000006
decision_type=2 2 2 2 2
left_child=2 -2 4 -3 -1
right_child=1 3 -4 -5 -6
leaf_value=-0.0011346737032879714 0.00010148456631823451 0.0005325049985969349 -0.00027181660333521569 0.0010992530850341276 -0.00061632194962489637
leaf_weight=19421 273617 209400 350197 40089 107276
leaf_count=19421 273617 209400 350197 40089 107276
internal_value=0 0.000350488 -0.000384451 0.000623573 -0.000695779
internal_weight=0 523106 476894 249489 126697
internal_count=1000000 523106 476894 249489 126697
is_linear=0
shrinkage=0.01


Tree=129
num_leaves=6
num_cat=0
split_feature=0 0 0 0 0
split_gain=1321.23 258.123 240.061 71.3823 62.7636
threshold=89701976.000000015 267241024.00000003 14889657.000000002 592699936.00000012 1002986.5000000001
decision_type=2 2 2 2 2
left_child=2 -2 4 -3 -1
right_child=1 3 -4 -5 -6
leaf_value=-0.00099579991827440607 0.00024057112280296604 0.00067875827808954359 -0.00015998372037191521 0.0013842019790979935 -0.00051314766136791392
leaf_weight=31747 285737 131235 357144 16104 178033
leaf_count=31747 285737 131235 357144 16104 178033
internal_value=0 0.000415881 -0.000317694 0.000755863 -0.00058619
internal_weight=0 433076 566924 147339 209780
internal_count=1000000 433076 566924 147339 209780
is_linear=0
shrinkage=0.01


Tree=130
num_leaves=6
num_cat=0
split_feature=0 0 0 0 0
split_gain=1297.26 375.358 130.163 89.9887 46.1794
threshold=149382896.00000003 29918163.000000004 394329200.00000006 1914666.5000000002 56678194.000000007
decision_type=2 2 2 2 2
left_child=1 3 -2 -1 -3
right_child=2 4 -4 -5 -6
leaf_value=-0.00087046416850736891 0.00044032159269444265 -0.00017312060188618965 0.00093870430591334029 -0.00041368940320008737 5.7058887908961547e-05
leaf_weight=51401 228750 133808 67976 268053 250012
leaf_count=51401 228750 133808 67976 268053 250012
internal_value=0 -0.000233953 0.000554494 -0.000487186 -2.31867e-05
internal_weight=0 703274 296726 319454 383820
internal_count=1000000 703274 296726 319454 383820
is_linear=0
shrinkage=0.01


Tree=131
num_leaves=6
num_cat=0
split_feature=0 0 0 0 0
split_gain=1271.73 336.751 149.59 76.0246 59.9454
threshold=134948520.00000003 22803748.000000004 346179072.00000006 1346712.5000000002 49261350.000000007
decision_type=2 2 2 2 2
left_child=1 3 -2 -1 -3
right_child=2 4 -4 -5 -6
leaf_value=-0.00092313686126998336 0.00037984735879449585 -0.0002230457918872911 0.00085666414520614424 -0.00044966046139856096 2.9650657108012347e-05
leaf_weight=39696 232533 148737 91760 232756 254518
leaf_count=39696 232533 148737 91760 232756 254518
internal_value=0 -0.000247052 0.000514765 -0.000518646 -6.35542e-05
internal_weight=0 675707 324293 272452 403255
internal_count=1000000 675707 324293 272452 403255
is_linear=0
shrinkage=0.01


Tree=132
num_leaves=6
num_cat=0
split_feature=0 0 0 0 0
split_gain=1247.13 360.51 125.78 86.6237 44.3485
threshold=149382896.00000003 29918163.000000004 435275872.00000006 1914666.5000000002 56678194.000000007
decision_type=2 2 2 2 2
left_child=1 3 -2 -1 -3
right_child=2 4 -4 -5 -6
leaf_value=-0.00085360634791879721 0.00044883460994082138 -0.00016976463781518276 0.00099062209263086178 -0.00040545325705369035 5.5805656664587857e-05
leaf_weight=51401 244783 133808 51943 268053 250012
leaf_count=51401 244783 133808 51943 268053 250012
internal_value=0 -0.000229388 0.000543677 -0.000477562 -2.28331e-05
internal_weight=0 703274 296726 319454 383820
internal_count=1000000 703274 296726 319454 383820
is_linear=0
shrinkage=0.01


Tree=133
num_leaves=6
num_cat=0
split_feature=0 0 0 0 0
split_gain=1222.52 289.479 174.604 70.3023 59.1564
